module.exports = {"layers":[{"0":{},"1":{},"2":{},"3":{},"4":{},"5":{},"6":{},"7":{},"8":{},"9":{},"10":{},"11":{},"12":{},"13":{},"14":{},"15":{},"16":{},"17":{},"18":{},"19":{},"20":{},"21":{},"22":{},"23":{},"24":{},"25":{},"26":{},"27":{},"28":{},"29":{},"30":{},"31":{},"32":{},"33":{},"34":{},"35":{},"36":{},"37":{},"38":{},"39":{},"40":{},"41":{},"42":{},"43":{},"44":{},"45":{},"46":{},"47":{},"48":{},"49":{},"50":{},"51":{},"52":{},"53":{},"54":{},"55":{},"56":{},"57":{},"58":{},"59":{},"60":{},"61":{},"62":{},"63":{},"64":{},"65":{},"66":{},"67":{},"68":{},"69":{},"70":{},"71":{},"72":{},"73":{},"74":{},"75":{},"76":{},"77":{},"78":{},"79":{},"80":{},"81":{},"82":{},"83":{},"84":{},"85":{},"86":{},"87":{},"88":{},"89":{},"90":{},"91":{},"92":{},"93":{},"94":{},"95":{},"96":{},"97":{},"98":{},"99":{},"100":{},"101":{},"102":{},"103":{},"104":{},"105":{},"106":{},"107":{},"108":{},"109":{},"110":{},"111":{},"112":{},"113":{},"114":{},"115":{},"116":{},"117":{},"118":{},"119":{},"120":{},"121":{},"122":{},"123":{},"124":{},"125":{},"126":{},"127":{},"128":{},"129":{},"130":{},"131":{},"132":{},"133":{},"134":{},"135":{},"136":{},"137":{},"138":{},"139":{},"140":{},"141":{},"142":{},"143":{},"144":{},"145":{},"146":{},"147":{},"148":{},"149":{},"150":{},"151":{},"152":{},"153":{},"154":{},"155":{},"156":{},"157":{},"158":{},"159":{},"160":{},"161":{},"162":{},"163":{},"164":{},"165":{},"166":{},"167":{},"168":{},"169":{},"170":{},"171":{},"172":{},"173":{},"174":{},"175":{},"176":{},"177":{},"178":{},"179":{},"180":{},"181":{},"182":{},"183":{},"184":{},"185":{},"186":{},"187":{},"188":{},"189":{},"190":{},"191":{},"192":{},"193":{},"194":{},"195":{},"196":{},"197":{},"198":{},"199":{},"200":{},"201":{},"202":{},"203":{},"204":{},"205":{},"206":{},"207":{},"208":{},"209":{},"210":{},"211":{},"212":{},"213":{},"214":{},"215":{},"216":{},"217":{},"218":{},"219":{},"220":{},"221":{},"222":{},"223":{},"224":{},"225":{},"226":{},"227":{},"228":{},"229":{},"230":{},"231":{},"232":{},"233":{},"234":{},"235":{},"236":{},"237":{},"238":{},"239":{},"240":{},"241":{},"242":{},"243":{},"244":{},"245":{},"246":{},"247":{},"248":{},"249":{},"250":{},"251":{},"252":{},"253":{},"254":{},"255":{},"256":{},"257":{},"258":{},"259":{},"260":{},"261":{},"262":{},"263":{},"264":{},"265":{},"266":{},"267":{},"268":{},"269":{},"270":{},"271":{},"272":{},"273":{},"274":{},"275":{},"276":{},"277":{},"278":{},"279":{},"280":{},"281":{},"282":{},"283":{},"284":{},"285":{},"286":{},"287":{},"288":{},"289":{},"290":{},"291":{},"292":{},"293":{},"294":{},"295":{},"296":{},"297":{},"298":{},"299":{},"300":{},"301":{},"302":{},"303":{},"304":{},"305":{},"306":{},"307":{},"308":{},"309":{},"310":{},"311":{},"312":{},"313":{},"314":{},"315":{},"316":{},"317":{},"318":{},"319":{},"320":{},"321":{},"322":{},"323":{},"324":{},"325":{},"326":{},"327":{},"328":{},"329":{},"330":{},"331":{},"332":{},"333":{},"334":{},"335":{},"336":{},"337":{},"338":{},"339":{},"340":{},"341":{},"342":{},"343":{},"344":{},"345":{},"346":{},"347":{},"348":{},"349":{},"350":{},"351":{},"352":{},"353":{},"354":{},"355":{},"356":{},"357":{},"358":{},"359":{},"360":{},"361":{},"362":{},"363":{},"364":{},"365":{},"366":{},"367":{},"368":{},"369":{},"370":{},"371":{},"372":{},"373":{},"374":{},"375":{},"376":{},"377":{},"378":{},"379":{},"380":{},"381":{},"382":{},"383":{},"384":{},"385":{},"386":{},"387":{},"388":{},"389":{},"390":{},"391":{},"392":{},"393":{},"394":{},"395":{},"396":{},"397":{},"398":{},"399":{},"400":{},"401":{},"402":{},"403":{},"404":{},"405":{},"406":{},"407":{},"408":{},"409":{},"410":{},"411":{},"412":{},"413":{},"414":{},"415":{},"416":{},"417":{},"418":{},"419":{},"420":{},"421":{},"422":{},"423":{},"424":{},"425":{},"426":{},"427":{},"428":{},"429":{},"430":{},"431":{},"432":{},"433":{},"434":{},"435":{},"436":{},"437":{},"438":{},"439":{},"440":{},"441":{},"442":{},"443":{},"444":{},"445":{},"446":{},"447":{},"448":{},"449":{},"450":{},"451":{},"452":{},"453":{},"454":{},"455":{},"456":{},"457":{},"458":{},"459":{},"460":{},"461":{},"462":{},"463":{},"464":{},"465":{},"466":{},"467":{},"468":{},"469":{},"470":{},"471":{},"472":{},"473":{},"474":{},"475":{},"476":{},"477":{},"478":{},"479":{},"480":{},"481":{},"482":{},"483":{},"484":{},"485":{},"486":{},"487":{},"488":{},"489":{},"490":{},"491":{},"492":{},"493":{},"494":{},"495":{},"496":{},"497":{},"498":{},"499":{},"500":{},"501":{},"502":{},"503":{},"504":{},"505":{},"506":{},"507":{},"508":{},"509":{},"510":{},"511":{},"512":{},"513":{},"514":{},"515":{},"516":{},"517":{},"518":{},"519":{},"520":{},"521":{},"522":{},"523":{},"524":{},"525":{},"526":{},"527":{},"528":{},"529":{},"530":{},"531":{},"532":{},"533":{},"534":{},"535":{},"536":{},"537":{},"538":{},"539":{},"540":{},"541":{},"542":{},"543":{},"544":{},"545":{},"546":{},"547":{},"548":{},"549":{},"550":{},"551":{},"552":{},"553":{},"554":{},"555":{},"556":{},"557":{},"558":{},"559":{},"560":{},"561":{},"562":{},"563":{},"564":{},"565":{},"566":{},"567":{},"568":{},"569":{},"570":{},"571":{},"572":{},"573":{},"574":{},"575":{},"576":{},"577":{},"578":{},"579":{},"580":{},"581":{},"582":{},"583":{},"584":{},"585":{},"586":{},"587":{},"588":{},"589":{},"590":{},"591":{},"592":{},"593":{},"594":{},"595":{},"596":{},"597":{},"598":{},"599":{},"600":{},"601":{},"602":{},"603":{},"604":{},"605":{},"606":{},"607":{},"608":{},"609":{},"610":{},"611":{},"612":{},"613":{},"614":{},"615":{},"616":{},"617":{},"618":{},"619":{},"620":{},"621":{},"622":{},"623":{},"624":{},"625":{},"626":{},"627":{},"628":{},"629":{},"630":{},"631":{},"632":{},"633":{},"634":{},"635":{},"636":{},"637":{},"638":{},"639":{},"640":{},"641":{},"642":{},"643":{},"644":{},"645":{},"646":{},"647":{},"648":{},"649":{},"650":{},"651":{},"652":{},"653":{},"654":{},"655":{},"656":{},"657":{},"658":{},"659":{},"660":{},"661":{},"662":{},"663":{},"664":{},"665":{},"666":{},"667":{},"668":{},"669":{},"670":{},"671":{},"672":{},"673":{},"674":{},"675":{},"676":{},"677":{},"678":{},"679":{},"680":{},"681":{},"682":{},"683":{},"684":{},"685":{},"686":{},"687":{},"688":{},"689":{},"690":{},"691":{},"692":{},"693":{},"694":{},"695":{},"696":{},"697":{},"698":{},"699":{},"700":{},"701":{},"702":{},"703":{},"704":{},"705":{},"706":{},"707":{},"708":{},"709":{},"710":{},"711":{},"712":{},"713":{},"714":{},"715":{},"716":{},"717":{},"718":{},"719":{},"720":{},"721":{},"722":{},"723":{},"724":{},"725":{},"726":{},"727":{},"728":{},"729":{},"730":{},"731":{},"732":{},"733":{},"734":{},"735":{},"736":{},"737":{},"738":{},"739":{},"740":{},"741":{},"742":{},"743":{},"744":{},"745":{},"746":{},"747":{},"748":{},"749":{},"750":{},"751":{},"752":{},"753":{},"754":{},"755":{},"756":{},"757":{},"758":{},"759":{},"760":{},"761":{},"762":{},"763":{},"764":{},"765":{},"766":{},"767":{},"768":{},"769":{},"770":{},"771":{},"772":{},"773":{},"774":{},"775":{},"776":{},"777":{},"778":{},"779":{},"780":{},"781":{},"782":{},"783":{},"784":{},"785":{},"786":{},"787":{},"788":{},"789":{},"790":{},"791":{},"792":{},"793":{},"794":{},"795":{},"796":{},"797":{},"798":{},"799":{},"800":{},"801":{},"802":{},"803":{},"804":{},"805":{},"806":{},"807":{},"808":{},"809":{},"810":{},"811":{},"812":{},"813":{},"814":{},"815":{},"816":{},"817":{},"818":{},"819":{},"820":{},"821":{},"822":{},"823":{},"824":{},"825":{},"826":{},"827":{},"828":{},"829":{},"830":{},"831":{},"832":{},"833":{},"834":{},"835":{},"836":{},"837":{},"838":{},"839":{},"840":{},"841":{},"842":{},"843":{},"844":{},"845":{},"846":{},"847":{},"848":{},"849":{},"850":{},"851":{},"852":{},"853":{},"854":{},"855":{},"856":{},"857":{},"858":{},"859":{},"860":{},"861":{},"862":{},"863":{},"864":{},"865":{},"866":{},"867":{},"868":{},"869":{},"870":{},"871":{},"872":{},"873":{},"874":{},"875":{},"876":{},"877":{},"878":{},"879":{},"880":{},"881":{},"882":{},"883":{},"884":{},"885":{},"886":{},"887":{},"888":{},"889":{},"890":{},"891":{},"892":{},"893":{},"894":{},"895":{},"896":{},"897":{},"898":{},"899":{},"900":{},"901":{},"902":{},"903":{},"904":{},"905":{},"906":{},"907":{},"908":{},"909":{},"910":{},"911":{},"912":{},"913":{},"914":{},"915":{},"916":{},"917":{},"918":{},"919":{},"920":{},"921":{},"922":{},"923":{},"924":{},"925":{},"926":{},"927":{},"928":{},"929":{},"930":{},"931":{},"932":{},"933":{},"934":{},"935":{},"936":{},"937":{},"938":{},"939":{},"940":{},"941":{},"942":{},"943":{},"944":{},"945":{},"946":{},"947":{},"948":{},"949":{},"950":{},"951":{},"952":{},"953":{},"954":{},"955":{},"956":{},"957":{},"958":{},"959":{},"960":{},"961":{},"962":{},"963":{},"964":{},"965":{},"966":{},"967":{},"968":{},"969":{},"970":{},"971":{},"972":{},"973":{},"974":{},"975":{},"976":{},"977":{},"978":{},"979":{},"980":{},"981":{},"982":{},"983":{},"984":{},"985":{},"986":{},"987":{},"988":{},"989":{},"990":{},"991":{},"992":{},"993":{},"994":{},"995":{},"996":{},"997":{},"998":{},"999":{},"1000":{},"1001":{},"1002":{},"1003":{},"1004":{},"1005":{},"1006":{},"1007":{},"1008":{},"1009":{},"1010":{},"1011":{},"1012":{},"1013":{},"1014":{},"1015":{},"1016":{},"1017":{},"1018":{},"1019":{},"1020":{},"1021":{},"1022":{},"1023":{},"1024":{},"1025":{},"1026":{},"1027":{},"1028":{},"1029":{},"1030":{},"1031":{},"1032":{},"1033":{},"1034":{},"1035":{},"1036":{},"1037":{},"1038":{},"1039":{},"1040":{},"1041":{},"1042":{},"1043":{},"1044":{},"1045":{},"1046":{},"1047":{},"1048":{},"1049":{},"1050":{},"1051":{},"1052":{},"1053":{},"1054":{},"1055":{},"1056":{},"1057":{},"1058":{},"1059":{},"1060":{},"1061":{},"1062":{},"1063":{},"1064":{},"1065":{},"1066":{},"1067":{},"1068":{},"1069":{},"1070":{},"1071":{},"1072":{},"1073":{},"1074":{},"1075":{},"1076":{},"1077":{},"1078":{},"1079":{},"1080":{},"1081":{},"1082":{},"1083":{},"1084":{},"1085":{},"1086":{},"1087":{},"1088":{},"1089":{},"1090":{},"1091":{},"1092":{},"1093":{},"1094":{},"1095":{},"1096":{},"1097":{},"1098":{},"1099":{},"1100":{},"1101":{},"1102":{},"1103":{},"1104":{},"1105":{},"1106":{},"1107":{},"1108":{},"1109":{},"1110":{},"1111":{},"1112":{},"1113":{},"1114":{},"1115":{},"1116":{},"1117":{},"1118":{},"1119":{},"1120":{},"1121":{},"1122":{},"1123":{},"1124":{},"1125":{},"1126":{},"1127":{},"1128":{},"1129":{},"1130":{},"1131":{},"1132":{},"1133":{},"1134":{},"1135":{},"1136":{},"1137":{},"1138":{},"1139":{},"1140":{},"1141":{},"1142":{},"1143":{},"1144":{},"1145":{},"1146":{},"1147":{},"1148":{},"1149":{},"1150":{},"1151":{},"1152":{},"1153":{},"1154":{},"1155":{},"1156":{},"1157":{},"1158":{},"1159":{},"1160":{},"1161":{},"1162":{},"1163":{},"1164":{},"1165":{},"1166":{},"1167":{},"1168":{},"1169":{},"1170":{},"1171":{},"1172":{},"1173":{},"1174":{},"1175":{}},{"0":{"bias":-0.6662615003105324,"weights":{"0":-0.09111139645563576,"1":0.031095374672245955,"2":0.2272241914158751,"3":-0.10104195239502688,"4":-0.27466165270480974,"5":-0.477201838667407,"6":-0.0662562518630465,"7":-0.21279214351620168,"8":-0.10014515384770019,"9":-0.1307539157672651,"10":0.26735134771639785,"11":0.11193756022799027,"12":0.022833505728906925,"13":0.19676577040681895,"14":-0.014834223307178268,"15":0.17484942623738137,"16":-0.2362444441785784,"17":-0.12713262680997786,"18":-0.14763183104980274,"19":-0.11845369943828343,"20":-0.20906590130634936,"21":0.002506813430317581,"22":0.07783272616564565,"23":-0.24509771735471458,"24":-0.015322788718636281,"25":0.05615034720941333,"26":0.058545717091098494,"27":-0.018240815525701587,"28":0.17510425820109699,"29":0.24046890685485844,"30":0.46281884007058044,"31":0.21981034911365202,"32":-0.04045830698751324,"33":-0.15565960188119765,"34":0.08574160187471222,"35":-0.2139267253835106,"36":-0.3389347590294091,"37":-0.3137789405214478,"38":-0.06424736609387374,"39":-0.3671485370753006,"40":0.16291022279241985,"41":-0.07351211012536657,"42":0.008218786813179654,"43":0.167036634522932,"44":0.02570313678462959,"45":0.09495467685896686,"46":0.49140617901966915,"47":0.2697832495162453,"48":0.32270053540083476,"49":-0.07113573408557872,"50":-0.04204595635166678,"51":-0.4007237673985412,"52":-0.15731828462540393,"53":-0.22492762893284393,"54":0.3275462893005398,"55":-0.13551386238240362,"56":0.2016062436578387,"57":-0.2625065826244286,"58":0.0018415491837753901,"59":0.08521584995818852,"60":-0.06619391624959287,"61":0.09758008247085691,"62":-0.03829045246646453,"63":-0.15636054576248815,"64":0.3470673206158453,"65":-0.07864190989683965,"66":0.06130270739565862,"67":0.1272419014384103,"68":-0.03227591283184723,"69":0.3327903402020409,"70":-0.0986855620842772,"71":-0.16765255578772112,"72":0.2506692212337757,"73":0.16795468868534622,"74":0.03398476340299509,"75":-0.36482397214485124,"76":0.07789569168145732,"77":-0.11857778261089721,"78":0.05592585820132615,"79":0.011196415683692385,"80":0.3046552122500142,"81":-0.25964890584333916,"82":-0.24800570419660262,"83":-0.004864862418077858,"84":0.27851812213090643,"85":0.18425031742605671,"86":0.3124731321152543,"87":0.3538033439955532,"88":-0.18941241748735,"89":-0.2461522363344852,"90":0.28802758687342744,"91":0.14059530008574725,"92":0.03466518456901128,"93":0.1366443477118652,"94":0.24612286773902906,"95":0.013586651945488887,"96":0.04824722667553816,"97":0.11728465806893132,"98":0.24488180997800638,"99":-0.10273780565354754,"100":-0.1538126345922976,"101":-0.13099045823734884,"102":-0.11583720959410912,"103":-0.25642053434972284,"104":-0.05675302530671086,"105":0.009011037652484585,"106":-0.14097054464916825,"107":-0.07579294959179697,"108":0.09809587513155081,"109":-0.008407745281148332,"110":0.08264004755657098,"111":0.30045361513962227,"112":0.12057887688719308,"113":-0.06295841666444627,"114":0.13401368325382193,"115":0.11521093421894317,"116":0.23391312864891864,"117":0.023014568171607994,"118":-0.022123670534872172,"119":-0.12119126587642942,"120":0.012842928937783523,"121":-0.03128326369475841,"122":-0.19319849842179168,"123":-0.004270617803050703,"124":0.06119197438868651,"125":0.2848345226583178,"126":-0.255031413162428,"127":0.2109569854098882,"128":0.45038886153447527,"129":0.4565460080845036,"130":0.09139429816071393,"131":-0.19667582050676546,"132":-0.1364282004433346,"133":0.4144506564922689,"134":0.09669209117528811,"135":0.1897713505152745,"136":-0.07788442459266168,"137":-0.24820611354830735,"138":-0.08406347899509269,"139":0.1893540505088696,"140":0.06497169513021941,"141":-0.32131479074867336,"142":-0.2600230649498549,"143":0.06696547280593335,"144":-0.17591038131250214,"145":-0.0148301458923289,"146":0.14778378418599422,"147":0.07544616374316093,"148":-0.16814181944878165,"149":0.03957104415823451,"150":-0.06255718793276004,"151":-0.14623581093333637,"152":-0.36858527745082215,"153":0.1256258537430072,"154":0.08773859355042138,"155":0.11212753829025558,"156":-0.10415172630116162,"157":0.24297260744728078,"158":0.26061091872095804,"159":-0.1795315317023517,"160":-0.17464457596737804,"161":0.00008314794712689244,"162":0.32403786082115754,"163":0.01924157720764092,"164":-0.14830573052904866,"165":-0.05533263177526258,"166":-0.13692738743846722,"167":0.2700336079455274,"168":0.26544721566102797,"169":0.13181334159079036,"170":0.13712500414395248,"171":0.1543550586475312,"172":-0.05406332115169076,"173":0.28061924647032754,"174":-0.156628883476729,"175":-0.022379047061931882,"176":-0.12758811225662195,"177":-0.34489177248834096,"178":-0.06519169457066358,"179":0.002262596667111568,"180":-0.21429971595931946,"181":0.0823064876764831,"182":-0.116980997934344,"183":0.23692625057679206,"184":0.02049739344631936,"185":0.3350721767466472,"186":-0.0443183448233182,"187":-0.16883193103483748,"188":-0.09434412877195686,"189":-0.31646694018224536,"190":0.05798744381315052,"191":-0.164881192445058,"192":0.02540748603386752,"193":0.04301007750434226,"194":-0.3211987209598118,"195":-0.28395601510118773,"196":0.1720215302231941,"197":0.14771910233843552,"198":0.3839417072873996,"199":0.3462794507635301,"200":0.08777066535897118,"201":0.1215732752783935,"202":0.5665320412319229,"203":0.31958249427027147,"204":0.1139438783084224,"205":0.24531743537535244,"206":0.2734416312449132,"207":-0.11839336961645235,"208":0.10297445620461416,"209":0.2770415998759116,"210":0.13823501407439245,"211":0.3513244335551961,"212":0.21623998553932672,"213":-0.31685177150814575,"214":0.010569874252187753,"215":-0.16901410704792957,"216":0.20290837284088972,"217":0.07923572184883963,"218":-0.06563603200228768,"219":0.0370703916651576,"220":0.5252619519316267,"221":-0.059979581288861515,"222":0.09371602731633631,"223":0.12952401158014668,"224":0.04299525538390725,"225":0.2980114357572515,"226":-0.10292952026911235,"227":-0.012904996172862417,"228":-0.22732075690307935,"229":0.08774864745103712,"230":0.3002871070847545,"231":-0.3380856434547829,"232":-0.3485632951486618,"233":-0.14253907750692976,"234":0.2536082033728128,"235":-0.03705971541025731,"236":0.1700002383121687,"237":-0.17753137622550744,"238":-0.22809323225438488,"239":-0.017385819956326872,"240":0.11259748564700178,"241":0.06283337225953539,"242":-0.04602907639226206,"243":0.4919060165556754,"244":-0.1878677147864618,"245":-0.09462499971858897,"246":0.024492677819105177,"247":0.16177465514924272,"248":0.2589291872734252,"249":0.4964378466673943,"250":0.3087963218959416,"251":-0.006188255777024601,"252":0.09634647144246454,"253":0.1832524130498299,"254":0.019960131359495217,"255":-0.20470352475712206,"256":-0.042516691240854346,"257":0.05406189098007891,"258":0.18691034140990162,"259":-0.0001572463367478089,"260":-0.11603431998456597,"261":-0.3448714729734323,"262":0.0047203556900811475,"263":0.3272567837142095,"264":0.027627038454321233,"265":-0.22466890488060406,"266":0.1044430672997491,"267":0.4101973741499225,"268":0.2850260453321279,"269":-0.10111673643948324,"270":0.08931809952716993,"271":0.3322688262220932,"272":0.3537442763828848,"273":0.3927094464079,"274":-0.028069789414942627,"275":0.13122194696163927,"276":-0.03521856574992932,"277":-0.17163680750930801,"278":-0.14747497988412195,"279":-0.17339729978294804,"280":0.3596741344485323,"281":0.3439937738647604,"282":-0.12264153786562905,"283":-0.18830008791742173,"284":-0.10722007551790506,"285":-0.14117054133692142,"286":0.3216971675783475,"287":-0.10412352971752509,"288":0.08175151824224228,"289":0.3573194510066007,"290":0.4112850537923326,"291":0.20071070828293153,"292":0.03658856958451256,"293":0.2227360258582141,"294":0.08356304357925551,"295":0.19659631924500257,"296":0.5325223932681915,"297":-0.12491877662830943,"298":-0.3427312234745703,"299":-0.15761798755701115,"300":-0.08463024292314635,"301":-0.11757738398666615,"302":0.019053546304985503,"303":-0.12055024999897086,"304":0.3709952640905249,"305":-0.03751563661185244,"306":0.2745735393371905,"307":-0.00028751701428865044,"308":0.05783504438372351,"309":0.08543654908761669,"310":0.08528222384160238,"311":0.17292984957797697,"312":0.1653061027782788,"313":0.1593177414034774,"314":0.12541816624549545,"315":-0.3941358778488962,"316":-0.18303305337078163,"317":-0.09733554327289774,"318":0.43616122178061045,"319":0.2363279754300918,"320":0.000526937488987552,"321":-0.2750017413436412,"322":0.10817497315407103,"323":0.13075671663228045,"324":-0.017653997649209063,"325":0.03583053698368595,"326":-0.09501885587571418,"327":-0.22564576850931908,"328":-0.0314896463843978,"329":0.0630147292524342,"330":0.03054327324548318,"331":0.29992290581232284,"332":0.16132108477991886,"333":0.1935241466970853,"334":0.04782574792529055,"335":0.06648838369732299,"336":0.04122524578632144,"337":0.08819812692241887,"338":0.06045932663006664,"339":0.2382759328115877,"340":-0.12372339246118548,"341":0.11415001919456762,"342":0.033028466902301504,"343":0.07723834024411277,"344":0.30841896476854336,"345":-0.3070104456678285,"346":-0.1354704328815762,"347":-0.06096041125758404,"348":-0.1872095124102172,"349":0.3580875008021782,"350":-0.16492417561930175,"351":0.07954322703943321,"352":0.009921383034563584,"353":0.3039355954767813,"354":0.16763977585438222,"355":-0.10864027302623798,"356":-0.037923713373418926,"357":-0.1490540419969338,"358":-0.022786862713578993,"359":0.14558085550658603,"360":0.23512702691559148,"361":0.09840137570725616,"362":0.07382143478356797,"363":-0.20871111601824682,"364":-0.09706100389101294,"365":0.19759545352804805,"366":0.20875553451267673,"367":0.1676108102257717,"368":0.051890391670935045,"369":-0.07800763246166295,"370":0.02750448459786554,"371":0.011341434796937746,"372":0.1581854002442701,"373":0.3145270137797086,"374":0.14109512129602042,"375":0.1345037244563304,"376":0.0165736630242009,"377":0.18631937967034914,"378":-0.018470810063245656,"379":-0.00622979199505565,"380":-0.010492156400169917,"381":-0.015796657497558774,"382":0.12313700781040551,"383":0.07458667895022009,"384":-0.061751801050581534,"385":0.14148101045802214,"386":0.017434428382251493,"387":-0.364380842673296,"388":-0.1978915520705277,"389":-0.28645583650650736,"390":0.06056562338216521,"391":0.2212158156594318,"392":0.2665732977866782,"393":0.0743731860632369,"394":-0.1659702935610746,"395":0.10898125586303223,"396":-0.12158503341926727,"397":0.2482681870667437,"398":0.03813140545826182,"399":0.04513432212451042,"400":-0.10975145811454569,"401":-0.07532548251882187,"402":0.27762857618452313,"403":0.16116379453464855,"404":-0.1174249134295791,"405":-0.018725432606424307,"406":0.06888983226984449,"407":-0.16495762241077522,"408":0.16576420242611048,"409":0.03675963092706877,"410":-0.12812003160557114,"411":-0.19515003000888428,"412":-0.1417342060876026,"413":0.04747859749113267,"414":-0.06050999317676626,"415":0.020572266804681313,"416":-0.1486636169164476,"417":-0.033816116345236506,"418":0.2751526443947668,"419":0.31481431649926217,"420":0.07949524938589791,"421":0.02325475903826835,"422":0.12614127559020752,"423":-0.22189471480252718,"424":0.1124150956154254,"425":-0.0976340375998054,"426":0.10637241577191475,"427":0.14376278408867,"428":0.02136081060189701,"429":-0.012081687321236769,"430":-0.04058715656544922,"431":0.2126568025919702,"432":-0.1094663345703753,"433":-0.1528594134382425,"434":-0.12387858916942619,"435":0.03129959222027325,"436":0.3589266287380324,"437":0.16604987943940505,"438":0.19385775534105654,"439":-0.2824691315984137,"440":0.012550056509112117,"441":-0.40445643097549633,"442":0.1332722772961677,"443":0.13533516399504517,"444":0.32074322077402534,"445":0.10790727035858957,"446":-0.15401084734300405,"447":0.04230562825774843,"448":-0.05162879505960336,"449":0.006753243221071498,"450":-0.14788879198691463,"451":-0.03360749287872357,"452":0.06411158792543752,"453":0.021255980140965396,"454":0.21181857666274076,"455":0.09952791059194713,"456":0.12836628619947504,"457":0.0007952829942451961,"458":0.037177131715680406,"459":-0.10123394561878708,"460":0.28706627476392066,"461":0.2015584523982291,"462":0.5574421761047965,"463":0.17015386859829157,"464":0.06636921715520766,"465":0.11097163919636525,"466":0.15920142761465303,"467":0.37523585797583375,"468":-0.04106764555226406,"469":-0.24425701096901822,"470":-0.2472177220438368,"471":0.05474301426031964,"472":0.28879017990382927,"473":0.15193199761488205,"474":0.22724186236664765,"475":0.11993637484957241,"476":-0.14093454609472697,"477":-0.05150676098697772,"478":0.2415530182149308,"479":0.11858222140673341,"480":0.016760321312887336,"481":0.09457339000088003,"482":-0.20204939642911335,"483":-0.23519580886124414,"484":0.1810674994255424,"485":0.3319363536334443,"486":-0.2081749748138594,"487":0.17022451291923277,"488":-0.031321115042933,"489":-0.096108427117109,"490":0.30295413091267226,"491":0.028925302343506782,"492":-0.19437833966408635,"493":-0.26552645703087513,"494":-0.19891075935806068,"495":-0.015842937339427984,"496":-0.10454545368716907,"497":-0.10401878903270027,"498":-0.07442845613021062,"499":-0.13853421362980728,"500":0.14699247599311158,"501":-0.040248072687818694,"502":0.05297884171613817,"503":0.36899925768193353,"504":-0.1838853394155543,"505":0.21234144980273956,"506":0.0924760823027359,"507":0.14952805191386254,"508":0.1539847267329887,"509":0.22426175826873596,"510":-0.16535578127774314,"511":-0.02734579344117453,"512":-0.3194887885990769,"513":-0.11170855685208729,"514":-0.05644487423763946,"515":0.1777214379555465,"516":-0.18987594134482585,"517":0.3419236577279364,"518":-0.09819200350333561,"519":0.2736808245416954,"520":0.0027781938823444076,"521":-0.11724389938531715,"522":0.2161745668682992,"523":0.18074132867290732,"524":-0.04217839935199953,"525":-0.2527731512140352,"526":-0.08616139483137765,"527":0.24765816860237486,"528":0.14764153198912977,"529":-0.3363265818659887,"530":-0.3152539808495548,"531":0.018772133960725707,"532":-0.010150937343234523,"533":0.13238683214884922,"534":-0.20574952810310412,"535":0.14433481993662883,"536":0.14577591846569599,"537":0.09288757917107997,"538":-0.1717213986954343,"539":-0.09995054465435674,"540":-0.04003759902019212,"541":-0.10196104036777134,"542":-0.36646445181840376,"543":-0.055067844429261686,"544":0.017083114749349634,"545":0.17326677460020531,"546":0.03635202018611847,"547":0.14191049433605768,"548":0.07504756877253775,"549":0.07858278151718806,"550":0.06979879905005362,"551":0.1038462148761198,"552":0.0802567461483518,"553":0.08568976644919966,"554":0.05139728951618571,"555":-0.001967174551675662,"556":-0.08983631551051746,"557":0.026705171307723895,"558":-0.00812534671019345,"559":0.18567590131944986,"560":0.051866418566098346,"561":-0.07293038910045412,"562":-0.21582638488991313,"563":-0.21343960335203244,"564":0.11452148760332569,"565":0.11648158885740256,"566":0.16227189305620907,"567":0.3488796599617646,"568":0.08364957564790401,"569":-0.20349874223281572,"570":0.21408649611690536,"571":0.1972872650026781,"572":-0.013459483500802305,"573":-0.0019097320552371331,"574":-0.004940180709745952,"575":0.10737169532747153,"576":-0.2795824794004755,"577":0.17840906522005662,"578":0.03503062306783023,"579":-0.05795213599107305,"580":0.011169662531976241,"581":-0.06024809526630146,"582":0.0398295752278797,"583":-0.03316050704615752,"584":-0.14315674050371566,"585":-0.0011896668846238666,"586":-0.3007620937697752,"587":0.05575992585887186,"588":0.2955652618289699,"589":0.0094299913143439,"590":0.15292372665460488,"591":-0.004013900371929755,"592":-0.27542975409854,"593":0.03244984222702772,"594":0.06757836004892402,"595":-0.09913984121670337,"596":-0.1131149941439532,"597":-0.23661565031090367,"598":-0.06490026947589059,"599":0.13779870661241317,"600":0.03200041620279659,"601":-0.3454431198658445,"602":-0.1553917052952054,"603":-0.09604264192040854,"604":-0.1497920750605686,"605":-0.021352271727479787,"606":-0.06162212448105232,"607":-0.13063284200840655,"608":-0.11895088334004546,"609":-0.343355509678286,"610":0.049759009466367805,"611":0.05557738467130626,"612":-0.11512844750826993,"613":0.0734826441135576,"614":0.10219965430128854,"615":-0.10073729578442364,"616":-0.056571449541527936,"617":-0.053458258020894454,"618":0.14840850765398902,"619":0.08504587085207856,"620":0.14770962144520752,"621":0.14409917087687715,"622":0.09265305490886692,"623":0.06940800023320387,"624":-0.17758959177517247,"625":-0.1278386476596792,"626":-0.10981269028535193,"627":-0.17316088500609392,"628":0.19614584926433004,"629":0.05007560031847455,"630":-0.20613452397477325,"631":0.026314859421524922,"632":-0.12132506706789237,"633":-0.2489514460483984,"634":-0.16158964308790275,"635":0.1639944452367321,"636":0.1176412835885364,"637":0.1541245285510748,"638":0.23343233979285655,"639":0.3558973057240267,"640":0.20847103938323458,"641":0.0639638621662086,"642":-0.08891242594853162,"643":-0.07670775348961245,"644":0.10288436074343009,"645":0.009364465680460553,"646":0.11356959572554261,"647":0.16839720730932192,"648":-0.16375711382036431,"649":-0.10855867304588433,"650":0.0907139669468528,"651":-0.18243688454769258,"652":-0.14458774959370654,"653":-0.11989231142719577,"654":-0.2565663329487576,"655":0.11267475817375669,"656":0.13539912627489445,"657":0.05923365710990141,"658":-0.027215318335097587,"659":0.3464716929577765,"660":-0.4382282169896713,"661":-0.04601707655634061,"662":-0.07201874127500306,"663":-0.21421211011603192,"664":-0.037711005958704066,"665":-0.06904016441718092,"666":0.3256456102290035,"667":-0.1986175570809144,"668":0.037938233098255905,"669":-0.22515007466882506,"670":-0.21226555096413843,"671":0.1159449874956704,"672":-0.29120800849465867,"673":0.3822614561026193,"674":-0.18038795598449303,"675":-0.13218293081767193,"676":-0.23172418715654372,"677":-0.14164298653753185,"678":0.02192851029917361,"679":0.0852817888497251,"680":-0.24822398039508053,"681":-0.194409160842126,"682":0.06248636584025156,"683":-0.01029766627830377,"684":-0.28467265371862827,"685":0.04956168821886067,"686":-0.10356389228027858,"687":0.007642845999610553,"688":-0.15655762155099043,"689":-0.0869765967427651,"690":-0.1722225582972009,"691":-0.03205522280494844,"692":-0.1753132974401945,"693":-0.024747813807910597,"694":0.18455815278023022,"695":-0.07573400685017778,"696":0.26406155407812837,"697":-0.18464561920754682,"698":-0.19117834036203094,"699":-0.005956685966889137,"700":0.07873552628639396,"701":0.04543131381350412,"702":-0.23268947871895124,"703":0.004981453579805643,"704":0.20584512101136365,"705":0.2849225898666219,"706":0.06057948765321413,"707":0.024567759819542644,"708":0.03230732106263748,"709":0.041447773526212185,"710":-0.31537017334113593,"711":-0.255421575449342,"712":0.1484284995879927,"713":-0.262506848340698,"714":-0.18796156570243538,"715":-0.14461891734924162,"716":-0.15958352511598284,"717":0.06691350953154362,"718":-0.04877291391090882,"719":-0.09726813704591838,"720":0.08094351008444169,"721":0.21065359608308964,"722":0.32936656087769633,"723":0.09875689207592596,"724":0.2331773685122645,"725":-0.19573355932522574,"726":-0.04978432173634704,"727":-0.15989767404628139,"728":0.09903744369212238,"729":-0.21359147737389042,"730":-0.3113302940033058,"731":0.1190266725617355,"732":-0.26225053821548816,"733":-0.26838388892141196,"734":0.14487209593498193,"735":0.1326887556335922,"736":-0.014298719028729744,"737":-0.2284056738012909,"738":0.0054617825586551275,"739":-0.041132182885777704,"740":0.15037595550824004,"741":0.06081218394806774,"742":0.11206502321765195,"743":-0.2556191029022606,"744":0.04235545356256114,"745":-0.04908693941489619,"746":0.11831078312114215,"747":-0.09839828876509046,"748":-0.021844109618446843,"749":0.16250607261034358,"750":-0.15470167460917938,"751":0.17574884033325056,"752":0.06059213249412485,"753":-0.04703581087746159,"754":-0.1582414374446289,"755":0.175612763141544,"756":0.004520641329790055,"757":-0.05210004965574247,"758":0.003176282246581161,"759":-0.1022746161364286,"760":-0.1943308527973383,"761":-0.0369076823425712,"762":-0.2083073558747667,"763":0.008388794327682579,"764":-0.3721780110697724,"765":-0.009523945889878982,"766":-0.34124561065280545,"767":-0.07554552500118214,"768":0.05982879147268396,"769":0.12640930369393985,"770":-0.24387175444557382,"771":0.05417354443085506,"772":0.2168289918345841,"773":-0.011411530572820391,"774":-0.05901320767435264,"775":0.21042074562421834,"776":0.11125974065730802,"777":0.13436118321490625,"778":0.21263852724920435,"779":-0.11224263279430939,"780":-0.11909231746074135,"781":-0.17183369181768512,"782":-0.26099557415615965,"783":-0.18825460677033068,"784":0.02412330074073746,"785":0.08034815849139353,"786":-0.32929209097983114,"787":-0.18779041487941847,"788":-0.33602744923093325,"789":-0.1301143624763388,"790":-0.250085610687943,"791":-0.19729575933060015,"792":-0.24270664622275742,"793":0.02691381823275968,"794":0.22163636873105164,"795":0.1779028722647612,"796":0.19533278599153867,"797":0.26489130442211006,"798":-0.41294343819737933,"799":-0.1679386455075979,"800":-0.29434899060108327,"801":-0.07595788463016313,"802":-0.03171863737877949,"803":0.021390870577212902,"804":-0.06910869362373143,"805":0.2069400744497346,"806":-0.14205629607183287,"807":0.15898312738730064,"808":-0.17354727801747324,"809":0.12261601676394925,"810":-0.2591637985819278,"811":-0.15930491919021536,"812":-0.3188877211704432,"813":0.10476735064409179,"814":-0.17335262723853118,"815":-0.21313659742308558,"816":-0.2572782631849245,"817":-0.25999476772656893,"818":-0.15483798903042764,"819":0.09327465567681346,"820":0.09303736130707456,"821":-0.10538093920448507,"822":0.23474310970334042,"823":-0.02857740910635516,"824":-0.30317989848977533,"825":-0.2804079516087404,"826":-0.24183946854943164,"827":0.08943876906947383,"828":-0.143865733441526,"829":-0.010641979904706271,"830":0.009003285771182788,"831":-0.019728302942315135,"832":-0.2644824627652047,"833":0.08317874089822015,"834":-0.1229767089340783,"835":0.09217627230598256,"836":-0.3423536290193147,"837":0.0758418473277752,"838":0.11647680563873826,"839":-0.20624857927463033,"840":-0.24544449281204128,"841":0.007106292311685861,"842":-0.04324279845474662,"843":0.02150372130757343,"844":-0.047811019572004496,"845":-0.0768434575361982,"846":-0.19273127693286893,"847":-0.13451892807803242,"848":-0.16922837378454825,"849":0.04291599707462285,"850":-0.17430941173469747,"851":0.14005414613685602,"852":-0.3627949975126812,"853":0.02807228318932226,"854":-0.060166837668814775,"855":0.0708877523506986,"856":0.1412217226785392,"857":-0.00994976073339147,"858":0.17460382848888736,"859":0.11722891665865016,"860":0.186786547299609,"861":0.23517329945299265,"862":0.06499518518217363,"863":-0.204388167319319,"864":0.22624941168065904,"865":0.13145892444311635,"866":-0.12113907920661722,"867":-0.2771638785344836,"868":-0.0233455778188897,"869":0.024928158119890922,"870":-0.4361753723191206,"871":0.07156368570024986,"872":0.12705089182703075,"873":-0.19527685164884356,"874":-0.14121533341704043,"875":-0.2850232187310646,"876":-0.0058155230571713635,"877":0.1767008376019543,"878":0.01654624685604897,"879":-0.12480069780332342,"880":0.03358647274760716,"881":0.09317234847424236,"882":-0.20419309093627802,"883":-0.12494247516596876,"884":-0.2521144613284424,"885":-0.023350033569699512,"886":0.16647495889207697,"887":-0.017767985420946313,"888":-0.2886777747756098,"889":-0.030527692308427574,"890":0.1294417481874784,"891":0.11519616913667875,"892":-0.1213946297148476,"893":0.038768258541130814,"894":-0.07051090375960065,"895":0.10554202112315442,"896":-0.03452959768711916,"897":0.25652333392580323,"898":0.22949259648062345,"899":0.20822109332400046,"900":0.14251617642813372,"901":-0.2062576849838208,"902":0.018517864396436264,"903":0.08300490585387782,"904":-0.08086913454436516,"905":0.1243258728418423,"906":-0.21634036330537101,"907":-0.15534471886944165,"908":0.19610416134277237,"909":0.09224326180604524,"910":-0.1416589266464696,"911":0.045698275162622926,"912":-0.1786215708872447,"913":0.16448329205597192,"914":-0.013019331067648977,"915":0.24232559126956493,"916":0.22250001736571082,"917":-0.01759871439427225,"918":-0.07827961163505764,"919":-0.2003122833895455,"920":-0.28458462423758557,"921":-0.08648411866187353,"922":-0.16345889152409698,"923":0.07166586857082957,"924":-0.36508629932392295,"925":-0.21850029427732606,"926":0.1566826067109211,"927":-0.17959419206004693,"928":0.05546888468718809,"929":0.08466526446835983,"930":0.0625169684570885,"931":-0.021576006224847493,"932":-0.06998533912454753,"933":-0.10225805566883972,"934":0.04426614217273101,"935":-0.14045335963177896,"936":-0.07270405478344918,"937":-0.260471362474878,"938":-0.2119839140573263,"939":0.0473132571761663,"940":0.13178158942672727,"941":0.26343926315075844,"942":-0.16623865264608167,"943":0.10247412974789916,"944":-0.1683380583300996,"945":-0.07940756699437111,"946":0.076574734564857,"947":0.23388798784175907,"948":0.0020999887666304172,"949":-0.08727187189058251,"950":0.025216725684525782,"951":-0.12816369192495106,"952":-0.1175503312595427,"953":0.05920506075476091,"954":-0.1382427708780888,"955":-0.18652032390914403,"956":-0.06987077058075783,"957":-0.09148394950929963,"958":-0.20997288450546098,"959":-0.14570869605195627,"960":-0.28567904947138956,"961":0.2305991385888794,"962":0.06507041418695973,"963":0.080809841291724,"964":0.16652003489020054,"965":0.15686707219248433,"966":0.03471543531070795,"967":-0.06192232608127265,"968":-0.25193182420128624,"969":-0.07722054971304461,"970":-0.1315268732711241,"971":-0.07189187137777532,"972":-0.09592451490672839,"973":0.028451087501387234,"974":0.16057862486873864,"975":-0.09012149809806769,"976":-0.05308355373591086,"977":-0.21530042073512587,"978":-0.15690223546366,"979":-0.287547596156954,"980":-0.16764245452703525,"981":0.040539991010261095,"982":-0.17613417625528782,"983":-0.29914990880942544,"984":-0.28168118691416866,"985":-0.3334958732188842,"986":0.0709613180797502,"987":0.07746040688503597,"988":-0.0742155216280951,"989":-0.2346258992994089,"990":-0.13435359650411302,"991":0.1649944587382635,"992":-0.2666634350818799,"993":-0.07237964164723874,"994":-0.06085162116801665,"995":-0.045314450782748296,"996":-0.12434050010993838,"997":0.18195670561957752,"998":-0.014408426068414058,"999":0.333517236378402,"1000":0.10567911688631763,"1001":-0.04865077031993794,"1002":-0.31466559464137445,"1003":0.1507992689559345,"1004":-0.05380150414069007,"1005":0.3319245219659955,"1006":-0.18752914687045716,"1007":-0.005820787461034668,"1008":-0.323238549986154,"1009":-0.053750416587485514,"1010":-0.07691459293698862,"1011":-0.25851731412791223,"1012":-0.14916312982308652,"1013":0.01286793654528413,"1014":-0.1688985660937041,"1015":-0.21362639189386706,"1016":-0.1523541525935241,"1017":0.2083258191170714,"1018":-0.09038399633519599,"1019":-0.2882684150161943,"1020":0.13320063888264597,"1021":-0.2589182574051728,"1022":-0.13202083875166704,"1023":-0.28433763683690627,"1024":-0.07568029259506265,"1025":-0.3997843072537084,"1026":-0.09590770834085384,"1027":0.02710133211442321,"1028":-0.03975311387211505,"1029":-0.43638860211867425,"1030":-0.2880617117790846,"1031":0.019112087395032527,"1032":0.1476550742173419,"1033":-0.0726449151145862,"1034":0.04252521108337269,"1035":-0.060780106581677,"1036":0.21468596685233773,"1037":0.2339242762598466,"1038":-0.12613321817699996,"1039":-0.10855400999370846,"1040":-0.3252694995761608,"1041":-0.21406565560179217,"1042":-0.06305176269813341,"1043":-0.11708646934549011,"1044":0.18419092298960363,"1045":0.011216381160228696,"1046":-0.20653327538554675,"1047":0.08787772809882215,"1048":-0.04336920214883439,"1049":0.08259997216698309,"1050":-0.2491790929486768,"1051":-0.33145392082975345,"1052":-0.11115522031847914,"1053":-0.3085348597022144,"1054":0.2249925036975494,"1055":0.21894625150170588,"1056":0.02267816216753344,"1057":-0.27731208642399086,"1058":0.015568970103166031,"1059":-0.18746932042020206,"1060":0.011637247670183964,"1061":0.0068763229185196196,"1062":-0.17264445214739138,"1063":-0.24303186151962095,"1064":-0.15156291170059177,"1065":-0.13028111429726721,"1066":0.09765304567095592,"1067":-0.1699727413969651,"1068":-0.15082157526728504,"1069":-0.2000621168933626,"1070":0.023178981095921633,"1071":-0.02309835047046072,"1072":0.11345595418843767,"1073":0.23582937687194375,"1074":-0.32747348222199,"1075":-0.024216327364919906,"1076":-0.17029179863785193,"1077":0.3085388297653994,"1078":0.056048920889700767,"1079":-0.1026834463013872,"1080":-0.16365886337237,"1081":-0.33981345620675896,"1082":0.12221803772771703,"1083":0.07531030915292135,"1084":0.01069965703048265,"1085":0.07802198231396516,"1086":0.0037571369798515626,"1087":-0.04377378663002415,"1088":0.1591134861244063,"1089":0.121775717438706,"1090":-0.18864701862769384,"1091":-0.17662353166236527,"1092":-0.25619788400141746,"1093":-0.16835045719706554,"1094":-0.2814870278412385,"1095":0.14055001501282355,"1096":0.007757811588691827,"1097":-0.16146128183706113,"1098":-0.1699073828300393,"1099":-0.007997241098230582,"1100":0.13864303125139207,"1101":0.06282791628279404,"1102":-0.11245559359002279,"1103":-0.17004178603288647,"1104":-0.13252050032376933,"1105":-0.05969077180975972,"1106":0.07604248954916212,"1107":-0.004527744261798559,"1108":0.004659954866937081,"1109":0.03550511383310804,"1110":-0.027027484362915653,"1111":0.197644150577441,"1112":-0.06122930603973633,"1113":0.20705806863428639,"1114":-0.04960026957791662,"1115":0.0009568575152043701,"1116":-0.15774619903582893,"1117":-0.15005111053045656,"1118":-0.1029800485414862,"1119":-0.1280409174734532,"1120":-0.050864902518384714,"1121":0.04090832471084451,"1122":-0.23471739984811346,"1123":-0.2449720148278224,"1124":-0.07900224850881617,"1125":-0.05423562387081578,"1126":-0.12343752592582874,"1127":0.007616816745890672,"1128":-0.012612372257263724,"1129":-0.02632340951365221,"1130":-0.130298698040872,"1131":0.06308229310263795,"1132":0.2591691911902895,"1133":-0.16127196818731312,"1134":-0.07765539377285495,"1135":-0.03829957871400554,"1136":0.02504614884873489,"1137":-0.01302838293387557,"1138":-0.0879750672777096,"1139":-0.3109742633706324,"1140":0.054391904370288104,"1141":-0.056268858226084816,"1142":-0.08055098641979426,"1143":-0.18782877972671047,"1144":-0.38804822280552287,"1145":-0.28803047014553385,"1146":-0.3878151734052294,"1147":0.13181841218732068,"1148":-0.1279683078941779,"1149":-0.016093790875153186,"1150":-0.003490630552653796,"1151":-0.0929679775005134,"1152":0.020467022586772583,"1153":-0.259379281309104,"1154":0.27170298107156265,"1155":0.3892920807919223,"1156":0.09407587960332467,"1157":-0.2168768819519029,"1158":-0.31703170897359506,"1159":0.04597880917552242,"1160":0.11178748023786261,"1161":0.05036746358417988,"1162":-0.06291108140858785,"1163":-0.08209966169474064,"1164":0.03212414568440544,"1165":0.18371414405529846,"1166":-0.059563263482718405,"1167":-0.3180059447218144,"1168":-0.28252113604010837,"1169":-0.13655935287060544,"1170":-0.012833529650520084,"1171":0.17241773163279983,"1172":-0.13648948564799868,"1173":-0.23795422112164588,"1174":0.11436119360767566,"1175":-0.14574810320990214}},"1":{"bias":0.15207762300238745,"weights":{"0":0.21862203138771835,"1":0.2608547387872537,"2":0.3822002196572073,"3":1.6947896562210918,"4":0.9532563578410219,"5":0.5565490731676828,"6":0.7852903661559031,"7":0.9498808114443957,"8":0.6696377609619688,"9":0.26643976804188413,"10":-0.7226147342594631,"11":-0.198633514331427,"12":-0.36892960879622777,"13":0.2886836286588226,"14":0.6336914516381614,"15":-0.07199627180295141,"16":0.8121468908172212,"17":0.0019094228639504258,"18":0.44443713391982825,"19":0.7705168979619131,"20":0.4104742565619862,"21":-0.20162034592058514,"22":0.054488730158868674,"23":-0.25223286968255115,"24":0.6319023292019331,"25":0.6088655157052886,"26":0.1840760158963395,"27":0.015595223202635346,"28":-1.200933042922971,"29":-1.1225028161922506,"30":-0.6275559095924426,"31":0.09534606256316053,"32":0.1756048829867677,"33":-0.21042762920925084,"34":-0.24993620894260582,"35":0.05265463506428241,"36":0.46461782692197245,"37":0.31987206210675334,"38":0.8678633436080719,"39":-0.12008364671598182,"40":-0.3324280226293707,"41":-0.474919409757176,"42":0.43709655467862374,"43":0.2865867166079941,"44":0.26694805190017246,"45":0.31535389117838253,"46":0.33460085614154095,"47":-0.013646295893855277,"48":-0.18534772448062725,"49":0.32254149449277175,"50":0.6022365955053547,"51":0.021243705945298483,"52":0.0026304281387112423,"53":0.2964861841571364,"54":0.022742464238752313,"55":0.058333823131278335,"56":-0.16398674142013175,"57":-0.18389298177899185,"58":-0.6220715271738337,"59":0.41387766539968807,"60":0.37923794293447155,"61":-0.044679656714182205,"62":0.31200304769023995,"63":0.05001820818394199,"64":0.42527818255595373,"65":0.06120033528739578,"66":0.43563948368497923,"67":-0.33309638873069697,"68":0.24559520411501784,"69":0.668274565159488,"70":0.03925096499949881,"71":0.2281885922884537,"72":0.4171049910880245,"73":0.511807327161045,"74":-0.1223110591541446,"75":0.20363771554915813,"76":-0.14858356659813504,"77":0.6016067896839921,"78":-0.5138385216003519,"79":-0.23820278718996954,"80":0.06977141621614806,"81":-0.21628808430446952,"82":0.37583921162871153,"83":0.422887552716361,"84":0.4680971351450862,"85":-0.005217629488269427,"86":-0.07961181542882585,"87":0.22756662992284254,"88":0.5813436728782458,"89":0.49394046537980935,"90":0.170670905550725,"91":0.083748567998896,"92":0.4512606115732168,"93":0.5229890812495699,"94":-0.13683149072108114,"95":0.1060321985332335,"96":-0.23777480586483962,"97":-0.10993879447918388,"98":0.26800804280490903,"99":0.28185216420590287,"100":0.34637448608769233,"101":0.19867813532557566,"102":0.01694016454323244,"103":0.06365347491922682,"104":0.7017613025765034,"105":0.17902853790924392,"106":0.11467586026616017,"107":0.14924846209029433,"108":0.2377073528403218,"109":0.1414398737191379,"110":0.19701386689986905,"111":0.6616330504581046,"112":0.18583725288777364,"113":0.3923234958110411,"114":0.20064317297245354,"115":-0.9482094089658843,"116":-0.35224164702290484,"117":-0.3491458154223359,"118":0.5062859419891624,"119":0.3166216319620118,"120":-0.24094244570990847,"121":-0.03386347760215411,"122":0.7770023099283809,"123":1.2692426127906478,"124":-0.06946819160714554,"125":0.26513346999641557,"126":1.1422496895024996,"127":-0.7700267980053445,"128":-1.9712342002385421,"129":-0.5341660992970753,"130":0.23828752738759065,"131":0.45115456298747586,"132":-0.004065190400404518,"133":-1.0131453586190924,"134":-0.3684822467479067,"135":0.12363707675951215,"136":0.14159044530165746,"137":0.16484294259468987,"138":0.7082171444174928,"139":-0.49708113142708554,"140":-0.013809707131064868,"141":0.32706166016855737,"142":0.5201070301554739,"143":0.3120355460482874,"144":0.864995753365966,"145":-0.37953563978865357,"146":-1.7954707805976573,"147":-0.14909466239579863,"148":0.5695767527611603,"149":0.3018382826969175,"150":0.8635624199407324,"151":1.0578299164932154,"152":1.3402868804641288,"153":1.6270815094710516,"154":0.21543850590742247,"155":-0.12158620141629628,"156":0.34729875508334856,"157":-0.48308408087531934,"158":-0.11527738131322617,"159":-0.2503461629401125,"160":0.039388347919718375,"161":0.05804531426995295,"162":0.6131303283305852,"163":-0.2623150668006241,"164":0.9231765723929491,"165":0.4458010779157101,"166":0.40830781402136335,"167":0.12633291829428872,"168":-1.122768479828059,"169":-0.2067056320230659,"170":0.7224316244172253,"171":0.4861923831155545,"172":0.6172173545800294,"173":-0.5147290782698598,"174":0.05776965214690974,"175":0.5239776351964528,"176":0.7933121388355047,"177":0.7593445649841726,"178":-0.07953636186070728,"179":-0.5737615848487834,"180":-0.07640553213229127,"181":0.20947258010141384,"182":0.6120305593546018,"183":0.07560520710557117,"184":0.7797790601517431,"185":0.3815720595593564,"186":-0.3288305138683537,"187":0.8574024459452151,"188":0.5980028980360164,"189":0.06688391726367052,"190":0.1883694657357551,"191":-0.194251417653705,"192":-0.4003079146977735,"193":-0.1368331204589047,"194":0.7151131376810796,"195":0.6761357956685424,"196":-0.9239280860433449,"197":-1.5536222529514792,"198":-0.02867767854259972,"199":-0.29914607532454873,"200":-0.1935762695862662,"201":0.020559471154293865,"202":-0.16905401964514938,"203":-0.9088810955904346,"204":-0.754794748448984,"205":-0.1184874379440293,"206":-0.17657551983083689,"207":-0.19742793444488024,"208":-0.2566566164106708,"209":-0.7476220693535353,"210":-0.3037467970481711,"211":0.044516309042088704,"212":-0.31056114943531565,"213":-0.3402537632337482,"214":-0.3818312599115692,"215":0.0034353829843341006,"216":0.17633779162909288,"217":-0.2591565926824355,"218":0.06389160656833914,"219":-0.010869569527485629,"220":0.09749633412687114,"221":-0.517290695767718,"222":0.02533306221582969,"223":-0.07470867140667921,"224":0.09327037271763641,"225":0.37533251171311666,"226":-0.4081711031329151,"227":-0.30323376481471337,"228":-0.46402463340628913,"229":0.0007757510506192751,"230":-0.41386664862992656,"231":-0.06492857472552814,"232":0.1529348944991991,"233":0.13266598599179405,"234":-0.678071790778045,"235":-0.4016015677162923,"236":0.14003112810274607,"237":-0.13592260230803171,"238":-0.07748300407470281,"239":-0.43083056539293496,"240":0.12785855328334725,"241":0.14868243584390894,"242":0.0638494216083692,"243":0.7176043370644762,"244":-0.07542552147184906,"245":-0.48289693688715657,"246":-0.0070533005505092694,"247":-0.3037535746861509,"248":-0.15614013110996033,"249":0.08181650234649863,"250":-0.5136498274533825,"251":0.5304023129698496,"252":-0.2658595923122218,"253":-0.41325008461261276,"254":0.126538401873396,"255":0.6258693040602792,"256":0.28742628161375217,"257":-0.055004646584963256,"258":-0.282992134805375,"259":-0.49585408728073116,"260":-0.19650696887374405,"261":-0.0772189512963516,"262":0.019421200242974702,"263":0.28348251187578977,"264":0.3283262189530856,"265":0.003040116899840843,"266":-0.24778253879628076,"267":0.1465285430288596,"268":0.022301961431033496,"269":0.5245074848897427,"270":0.14919136492178525,"271":-0.970672309918803,"272":-0.8788900555553056,"273":-0.36699247052747386,"274":-0.41097208673239827,"275":-0.2362212949837792,"276":-0.16274886493242985,"277":-0.49375079384850623,"278":-0.17416468889614042,"279":0.36688306045600944,"280":0.3136598298136936,"281":0.031297322682954654,"282":0.28490205447579914,"283":0.15283366128248826,"284":-0.20838961094996863,"285":-0.10052358031147546,"286":-0.40985628830861154,"287":-0.37434570311124205,"288":-0.20393846430519705,"289":-1.1830271336132956,"290":-0.6661209035795319,"291":-0.0764290841235709,"292":-0.15862325632490856,"293":-0.5188859674736687,"294":-0.17389084626391157,"295":-1.822025584517148,"296":-0.7431274023948892,"297":0.8733576596050064,"298":0.6257100621835412,"299":0.07923419043243132,"300":0.34686309427454837,"301":-0.26319995295383286,"302":-0.13988351118861161,"303":-0.33533685418842984,"304":-0.2972225419743338,"305":-0.037461681335175,"306":-0.5396320330958146,"307":-0.8203803814329849,"308":0.34110151914907255,"309":0.28626377707202905,"310":-0.1743613623806597,"311":-0.9541134724700095,"312":0.5567641515977381,"313":-0.8569589200041124,"314":-0.18114232174885386,"315":0.3561769986072269,"316":0.43371684939862665,"317":0.15496338471327906,"318":-0.2386296784160446,"319":-0.3918975172663297,"320":0.46476937805345575,"321":0.4913014187993623,"322":-0.0015414692519731162,"323":-0.14612752752158006,"324":-0.28632289158076296,"325":-0.6917698385598492,"326":0.13579811346296386,"327":-0.27142656734400267,"328":0.2344629917877022,"329":-0.39134578243051427,"330":0.4031703746104776,"331":0.049128366660918334,"332":0.399294743314223,"333":-0.37489407082315906,"334":-0.09173962444700069,"335":-0.7710331996651641,"336":-0.5485178366981865,"337":-0.04056340111046515,"338":0.9320630792844016,"339":0.08361266497739776,"340":0.5385307248184003,"341":0.3514322307880981,"342":-0.6517771311041043,"343":0.3921691577826542,"344":0.1803571849402155,"345":0.25404600836555463,"346":0.08152726465834992,"347":-0.41815952511550697,"348":-0.2111108512978527,"349":-0.5123247398522383,"350":0.07059132048919424,"351":0.3705165801057008,"352":0.2739110892702135,"353":0.11925656084661486,"354":0.3144930943904997,"355":0.225481867439468,"356":0.022181147574256356,"357":0.39537909121427023,"358":0.36039559521690895,"359":0.34580160812852456,"360":-0.6613503615124899,"361":0.34116078418126145,"362":-0.016938425758915885,"363":-0.28386362125293213,"364":-0.6179633492568285,"365":-0.7509179918762668,"366":-0.35904829341000244,"367":0.2867707850067572,"368":-0.33977702710412633,"369":-0.34567048827558877,"370":-0.270723490297319,"371":0.009635679522505923,"372":-0.3130322231368746,"373":-0.34704182714778337,"374":-0.6655250872009142,"375":0.1431489934077039,"376":0.10474079816708476,"377":-0.2532263837633682,"378":-0.17059764693722865,"379":-0.2856292864776911,"380":-0.5604536579785397,"381":-0.01691337137591877,"382":-0.7187883474311072,"383":-0.33220168342329415,"384":-0.07602017197567965,"385":0.5530611480507753,"386":-0.014513768839110682,"387":0.2124841583758245,"388":0.04167998085704378,"389":-0.22989246716481146,"390":-0.18415815514883563,"391":-0.42681417526360116,"392":0.4057282242959422,"393":-0.3803232126263903,"394":0.3532395001075562,"395":-0.014294022546746362,"396":-0.22729637760315372,"397":-0.2829628021679254,"398":-0.3311555819109036,"399":-0.1016551196978196,"400":-0.47393593572318093,"401":-0.09709094250945731,"402":-1.1701235477471206,"403":-0.7220434248803189,"404":0.044552435939614034,"405":0.025596247460768964,"406":-0.5448758900626013,"407":-0.7096022103168668,"408":-0.13393905202858017,"409":-0.20023673265058203,"410":1.0045099700206204,"411":-0.17083532621366268,"412":0.26944623902304127,"413":0.09999247175512375,"414":-0.4371552739927429,"415":-0.5099467873908807,"416":-0.358420256212307,"417":0.19664438040749024,"418":0.21291095969428495,"419":0.3227924603040537,"420":-0.5807894922866262,"421":-0.3569545083041078,"422":0.005465656074037298,"423":0.3280861180986413,"424":0.15221146157382667,"425":-0.4784832824848428,"426":-0.5784019573718713,"427":-0.5571571043736697,"428":-0.5921666836196453,"429":0.5614080292060083,"430":0.38014024556301823,"431":-0.31575348876032183,"432":0.08669853169322922,"433":-0.30526882927803684,"434":0.26611446937946903,"435":0.1312280890747282,"436":0.24737599159988344,"437":0.15505186957946981,"438":0.3047182022559282,"439":-0.4175446056041949,"440":-0.5807581492359172,"441":0.6046766296967677,"442":-0.13351312692290634,"443":0.18009846159709586,"444":0.04297165927027981,"445":-0.13081638007743032,"446":-0.3591603617180184,"447":1.0250650215674277,"448":0.6103973672498152,"449":-0.19803433069443804,"450":0.06011135113240399,"451":0.23245440977390194,"452":-0.08621454541785094,"453":0.18651363576929775,"454":0.2549131732263845,"455":-0.2784267875008788,"456":-0.09558128867706328,"457":-0.7402308241653003,"458":-0.5064953810113442,"459":0.041242045780510814,"460":-0.2931147348633594,"461":-0.24183987502606122,"462":-0.8254293937296905,"463":-0.8658099892493293,"464":0.39176359646356707,"465":0.0989847313010386,"466":-0.5093207320100005,"467":-1.1701686860523055,"468":-0.1008576936000006,"469":-0.25809474265227006,"470":-0.07876880868912293,"471":0.576452810123822,"472":0.16444390165077466,"473":-0.06729129543852548,"474":-0.3953883882511032,"475":-0.33977496083485376,"476":0.029287093921205685,"477":0.9790315262433332,"478":-0.5211754162581707,"479":-0.2114871296600118,"480":-0.2305511483077556,"481":-0.6883014549620255,"482":0.02126653561365823,"483":0.09656847520507045,"484":-0.09921533343354741,"485":-0.7500130509980164,"486":0.5123826390156603,"487":0.2093048563586633,"488":0.46298300628526845,"489":-0.4368698038116271,"490":-0.11945203017687575,"491":-0.47849921176946913,"492":-0.15897118713501307,"493":-0.47397509661609194,"494":0.09692451917519998,"495":0.6502858149200351,"496":-0.3973091242148896,"497":-0.1762530028235325,"498":-0.09175420058842881,"499":0.8783225446121683,"500":0.40636558781143367,"501":0.32284380895907516,"502":-0.25187178371670155,"503":-0.6908544954005394,"504":-0.7214115146564684,"505":-0.1486617924398474,"506":0.49945914441920025,"507":0.40216520628470864,"508":0.3558733509911592,"509":-0.1353391257987246,"510":0.5283858088044435,"511":0.3254144280150936,"512":-0.1269292280246665,"513":0.36402082854186113,"514":0.2588486515908061,"515":0.10386651669342034,"516":-0.6621968006247301,"517":0.43778395341500603,"518":0.38751722472120864,"519":0.3233684348839741,"520":0.6290752031346922,"521":0.34504206936553533,"522":-0.010048373273030405,"523":0.13919792480277587,"524":0.4558978578053528,"525":0.21974269824074638,"526":0.1525691000290646,"527":0.4122718243453184,"528":-0.15511091999456625,"529":0.1606347168412362,"530":0.05466498915328999,"531":0.18112429589081716,"532":0.1333459295055868,"533":-0.23384358436440414,"534":-0.20244563650502562,"535":-0.31875346917708214,"536":-0.6691422701558835,"537":-0.16576218578871932,"538":-0.5769028952035941,"539":-0.29360560896789306,"540":-0.03184708490808336,"541":-0.004345968350822451,"542":0.5355866353108443,"543":0.4757029562145898,"544":0.14168696662946298,"545":0.3365689121628871,"546":-0.17525996434871824,"547":0.12504688575156447,"548":-0.3411232897464226,"549":-0.10593057007208702,"550":-0.09656763225893793,"551":-0.04963121374061639,"552":0.04680910308972032,"553":0.15626300127129783,"554":-0.16356031021456383,"555":0.10171457656266578,"556":-0.3528942565763771,"557":-0.04745927633865729,"558":-0.40683153856417886,"559":-0.4570979412808735,"560":-0.09046531667616267,"561":-0.19024016111949615,"562":-0.3044296997034106,"563":-0.20303447156161977,"564":-0.0939813685706244,"565":0.24672826411632856,"566":-0.07721859701061495,"567":0.3124640651831255,"568":0.15145518149833706,"569":0.08629218737354138,"570":-0.13528491402350268,"571":-0.19539711456992176,"572":-0.19003502754878884,"573":0.012974774955809917,"574":0.18716653632022065,"575":-0.5641828577733167,"576":-0.3329442197197967,"577":0.06730043556056871,"578":0.18002608701820938,"579":-0.02353087736322221,"580":-0.28724095723612864,"581":-0.2888160760509133,"582":0.21456837029417378,"583":-0.4314886097496079,"584":-0.5816536709681326,"585":0.21872090805495226,"586":0.6701689704048338,"587":0.30577179227859735,"588":-0.38856682299505496,"589":-0.1780460908631945,"590":0.062594277638533,"591":0.11850386966252316,"592":0.48646249283868365,"593":-0.4917223026115207,"594":-0.489551167040309,"595":-0.7809407378588751,"596":0.5714719873910581,"597":0.03476541765308455,"598":0.41240201737219984,"599":-0.39782174853868557,"600":0.05369633748577636,"601":-0.4983484853610884,"602":-0.9510748409229117,"603":-0.041077048782927075,"604":0.2592318541040986,"605":0.13320884413173925,"606":-0.08585664882725424,"607":-0.13196014677338597,"608":-0.3303939115269175,"609":0.49325295041820133,"610":0.6974184701141077,"611":-0.035224312071190374,"612":-0.35115509671438355,"613":-0.7523740357902984,"614":0.3195857383794215,"615":0.2954600460606723,"616":0.4187809093048266,"617":-0.3070382169620469,"618":-0.29698203367436454,"619":-0.49031857066249096,"620":0.26955701476699884,"621":0.414828426877814,"622":-0.22924189454747648,"623":0.15995038173458842,"624":-0.051459634077669736,"625":-0.48122121811529756,"626":-0.5667627011924504,"627":0.279058749418713,"628":0.2189908474747273,"629":0.03317792867860115,"630":0.03180916781056955,"631":-0.5949619473192862,"632":0.20206871147085206,"633":0.5672074512692917,"634":-0.5587714200325872,"635":-0.08474748440554987,"636":-0.3808498594578304,"637":-0.3820930650286744,"638":-0.24704062800883483,"639":0.4119886696818015,"640":0.15469778109864638,"641":-0.34167689924730765,"642":-0.07932052738067533,"643":0.03619743740937528,"644":-0.05843460762574902,"645":0.22773275459410566,"646":-0.3280980144080485,"647":-0.2127278260881918,"648":0.09845185465985269,"649":-0.16278921220289602,"650":0.03489376329866811,"651":0.7826683641463257,"652":-0.5887191915017966,"653":-0.29187632949413783,"654":-0.08919635161537752,"655":0.8079490195011212,"656":0.021004066932073115,"657":0.41837026905959623,"658":-0.22796741393899,"659":-0.49782159308574525,"660":0.2546509943525555,"661":-0.0920971464954609,"662":-0.40514356881934094,"663":0.3384898691812109,"664":-0.5327602219745344,"665":-0.28483393970568593,"666":-0.2204934680400371,"667":0.38865575692266774,"668":0.15812998014022642,"669":0.14106364350034953,"670":-0.11822836307167055,"671":-0.7216084415494559,"672":-0.9024923335609147,"673":0.20457286133256833,"674":0.445770936810613,"675":0.5680918117843871,"676":0.4736297428853052,"677":0.20155668956005332,"678":0.312366369707888,"679":-0.2401610260065025,"680":0.36306577971508647,"681":0.787913826667845,"682":0.29270860193747833,"683":0.8414322810350094,"684":-0.58386384013205,"685":-0.02194260395090097,"686":-0.01916937566640994,"687":-0.15228824709756505,"688":0.5132188880036525,"689":-0.11582868474080912,"690":-0.2156997663873769,"691":0.02535202100026539,"692":0.03434841949568647,"693":0.17831336636490178,"694":0.021093225789604597,"695":-0.46909105918102145,"696":-0.017561237848409083,"697":-0.16415775695086715,"698":0.7611893926118405,"699":0.6253880958125437,"700":-0.2541701873702413,"701":0.19734113924015145,"702":0.5349008126465602,"703":0.2118086954821648,"704":-0.32860122690769755,"705":0.34437229951011256,"706":0.3699182697625316,"707":0.5248441595702918,"708":-0.180824225630129,"709":0.08525734992204069,"710":0.15952140123777608,"711":0.3394401936441238,"712":0.28910813393986584,"713":-0.35219191050632476,"714":-0.0208363620305925,"715":-0.4768830526967269,"716":-0.3658322283184764,"717":-0.4147592936058312,"718":-0.20490523048128326,"719":-0.10227807526156768,"720":0.39212706540143827,"721":0.04266867046988101,"722":-0.3000070952427464,"723":0.4124734344770531,"724":0.16374911001145132,"725":0.41600415807474717,"726":0.5381148326085948,"727":-0.2262058130958303,"728":-0.575440189064102,"729":0.08678487773169674,"730":0.24270498741824853,"731":-0.061705042569742866,"732":-0.09964219566530585,"733":-0.030309628487806828,"734":-0.21864385874931153,"735":0.05259823248343124,"736":0.018461838595446887,"737":0.32643662374733584,"738":0.1811846839739069,"739":-0.20219563908936253,"740":-0.30848030398586823,"741":0.2489945757441733,"742":0.09585703813253917,"743":0.7129339098643602,"744":-0.23051865871193578,"745":-0.3106110972658689,"746":-0.1863799450947418,"747":-0.11643658927723953,"748":0.42816818573233234,"749":-0.5970915065086464,"750":0.06331018357696702,"751":-0.4819152837968572,"752":0.044675331551693225,"753":0.1433852141824891,"754":0.583697370473255,"755":-0.5294691946439143,"756":0.012145297887653238,"757":-0.48731567859789326,"758":-0.0628197124923316,"759":0.6570312030282668,"760":0.10312923619867259,"761":0.3472220466400018,"762":-0.3987851300564781,"763":-0.15333463119497492,"764":0.2252746604743822,"765":0.7408092671539324,"766":0.6100769503802401,"767":0.36616021712462404,"768":-0.026158633295183243,"769":-0.4155653758840731,"770":0.4187851021934408,"771":0.3411510488715878,"772":0.43456477619288886,"773":-0.34193636827431123,"774":-0.29617741586387847,"775":-0.22908835804479522,"776":0.1476387780194997,"777":0.6052231719435781,"778":0.25907754483201517,"779":0.15790206190463738,"780":-0.3246174659067098,"781":-0.38717682531466063,"782":0.04662968054403312,"783":0.41081314122492973,"784":0.5699040562163341,"785":0.16185974687865123,"786":-0.36822900103926204,"787":0.10793493826587314,"788":0.527623768841646,"789":0.4278565457849341,"790":0.8040956724264711,"791":0.17785962591701443,"792":0.09095768966931624,"793":-0.30338858470198726,"794":-0.5104936489816753,"795":0.16306804030937933,"796":-0.16843765395817825,"797":0.06009065559400799,"798":-0.2517600901429556,"799":0.1637699037653952,"800":-0.1869438971206219,"801":0.07292299302283202,"802":-0.4240240416423861,"803":-0.028619018726951433,"804":-0.35507222059151755,"805":-0.3035847874067137,"806":-0.009454524003542089,"807":0.10440833377747023,"808":0.7590655672750084,"809":0.10614514742644954,"810":-0.23262220241420573,"811":-0.281160520828456,"812":-0.02718886838207954,"813":-0.4911654181670094,"814":0.12171847636867567,"815":0.07422719409774661,"816":0.2772810669309569,"817":0.6978136815962226,"818":-0.06845650039414407,"819":0.4083577360233773,"820":-0.04015404306790148,"821":0.23885410858162517,"822":-0.32662293668190195,"823":0.6762909327341843,"824":-0.03629134942482624,"825":-0.03834916094217851,"826":-0.03428670634698268,"827":-0.6428532639676431,"828":-0.03312150141391245,"829":-0.20710459927693017,"830":-0.12390154400899828,"831":-0.8987741283551258,"832":0.31761125904785786,"833":0.36351563315512736,"834":-0.5850168216324895,"835":0.29235272291203024,"836":0.5120398317328348,"837":0.15770383348534933,"838":-0.3646540885156892,"839":-0.2410903720654043,"840":0.1235628311783416,"841":0.23967066587374716,"842":0.4833959272638593,"843":0.2179646723707218,"844":0.5046120640475857,"845":-0.2127657993296611,"846":-0.04797243161087603,"847":0.2431852723745314,"848":-0.35289794116970546,"849":0.4038483797424256,"850":0.5954272042019291,"851":-0.24130015063601754,"852":-0.6368269029083596,"853":-0.1970422763606154,"854":-0.005433473427145174,"855":-0.23836348746888644,"856":0.3991929278512126,"857":-0.13252328162451432,"858":0.19730369144207272,"859":-0.6487112943659189,"860":-0.2297887494744382,"861":0.12344710749262335,"862":0.12294706455107861,"863":0.05606960280510872,"864":-0.22635725470884274,"865":-0.154723360338155,"866":-0.19286415656116088,"867":0.4031083407474247,"868":0.45767705116032664,"869":-0.768910215371943,"870":0.5892067329898767,"871":-0.40975772614769457,"872":-0.28966138498789706,"873":-0.01412862509371139,"874":0.43612285703188103,"875":0.5715190968557483,"876":-0.08707439289323768,"877":-0.7133267784481054,"878":0.1586891991011694,"879":0.2718275271761324,"880":0.28874505068692813,"881":-0.2260929359326763,"882":-0.32105728984117604,"883":-0.07527252243732345,"884":-0.3614185942341646,"885":-0.22640475032757176,"886":-0.030560678318713355,"887":-0.08635104918580085,"888":0.23956832054758553,"889":-0.26031298798341734,"890":-0.054994402156777214,"891":0.15342642729537018,"892":0.20306825168740614,"893":0.12782116470701327,"894":0.08260202682255016,"895":-0.5065850858365417,"896":-0.08112535317976656,"897":0.7274452717626654,"898":-0.23992531549330545,"899":0.25601218761813815,"900":-0.12095907822644442,"901":0.4762090489451255,"902":0.2727284529018395,"903":-0.16439401161804912,"904":0.27615470405277487,"905":0.04794382522098858,"906":0.09551982465142671,"907":0.2615354163987914,"908":0.2592339781856055,"909":0.3294151963115494,"910":-0.30357133895382593,"911":-0.052692292637380116,"912":-0.05750514461178883,"913":0.0046035392112010335,"914":0.22491434814763142,"915":0.333278674722351,"916":-0.33301534340161715,"917":0.18908920933276988,"918":0.04277222739257382,"919":-0.1591284986670339,"920":0.2299890179789578,"921":0.5659636722719584,"922":0.6074763859144627,"923":0.3639791084293465,"924":-0.3594005160777222,"925":-0.1745599359276117,"926":0.370770133361192,"927":0.2752007149696704,"928":-0.3410025763206404,"929":-0.2151535943862787,"930":0.015558977830128468,"931":-0.10377211222217535,"932":0.16082388924472446,"933":-0.11264458221979697,"934":0.47573853907976055,"935":-0.13823196271536276,"936":0.019225730327272136,"937":-0.38887321280386034,"938":-0.08949572592486783,"939":0.291429487675373,"940":-0.12830807312217576,"941":-0.1460586035148224,"942":-0.20874632418506286,"943":-0.07234711158032316,"944":-0.008730608127389952,"945":0.7243555965404748,"946":0.8082731947813839,"947":0.05230967964076094,"948":0.1308057784802076,"949":-0.16243577384313615,"950":0.14803592284266176,"951":0.04115997279879468,"952":-0.03780979955426557,"953":-0.1835857878927969,"954":0.07790573512707435,"955":0.19295465713887802,"956":0.1284910829585523,"957":0.39380183313547096,"958":0.28024316109278224,"959":0.21549930476430085,"960":-0.5367037096267564,"961":-0.18896069934014315,"962":0.3220484870890313,"963":0.7293232449990327,"964":0.6622631182607833,"965":-0.13825189756813436,"966":-0.33403190279178463,"967":-0.0845536063159741,"968":-0.08641840923769352,"969":-0.4901428980407691,"970":0.3064709768550555,"971":-0.034691355909627936,"972":0.09976974681759883,"973":-0.17336905598511224,"974":0.03249790076464667,"975":0.04130315939990467,"976":0.037653672503459974,"977":0.23065401550131362,"978":-0.49570275487050675,"979":-0.17854095487704014,"980":0.11294023098414684,"981":-0.015650789129871986,"982":0.1295080107118915,"983":0.27203450192373524,"984":0.3034145447484197,"985":0.32343699354214234,"986":0.5072071668961579,"987":-0.4118903910525494,"988":0.42680935853727675,"989":0.4747138287467012,"990":-0.5972264364169859,"991":0.1075297790022356,"992":0.486538605038953,"993":0.06278978422803659,"994":-0.32579202802907,"995":-0.050724951880017646,"996":-0.3759920066928792,"997":-0.17437579226591748,"998":-0.28611765311743703,"999":-0.24663416955828274,"1000":0.24835978051484597,"1001":0.3265086114466965,"1002":-0.6541401836967877,"1003":0.1617387793638131,"1004":0.6878207111689391,"1005":-0.5300581415455253,"1006":0.768954738134779,"1007":-0.25524644763149806,"1008":0.20204608877345379,"1009":-0.256587043588827,"1010":0.013513054860037784,"1011":0.08910096923855891,"1012":0.36057296952211704,"1013":0.1808212547358541,"1014":0.36619277934166033,"1015":-0.09145835775428623,"1016":0.3783502656980522,"1017":-0.22295133630295294,"1018":0.35316349705938865,"1019":0.21871270900815967,"1020":-1.0933583801225695,"1021":-0.6182329820288095,"1022":-0.32297306113253793,"1023":0.5526858362085586,"1024":0.08920029992653364,"1025":0.09048398851935528,"1026":-0.10112123519987233,"1027":-0.1344439640697411,"1028":-0.04026983262898574,"1029":0.9373962542600247,"1030":0.4977257703394816,"1031":0.2038541593851323,"1032":0.18783761656229198,"1033":-0.25512791453378186,"1034":0.06760310302090426,"1035":0.24339879931479982,"1036":0.4158537345821881,"1037":-0.22800899069534844,"1038":0.07614871699189951,"1039":0.12046505665182537,"1040":0.28157494786521275,"1041":0.35876328004092195,"1042":0.3049264571725918,"1043":0.1465939719783171,"1044":-0.15550119218996455,"1045":-0.053391426380411285,"1046":-0.33315470826965016,"1047":-0.25573587522715807,"1048":0.416543163561681,"1049":-0.2793738992072252,"1050":-0.3097826622755142,"1051":0.11223285725245055,"1052":0.17293182055949408,"1053":0.026371694076448772,"1054":0.37113745950413723,"1055":-0.21446825632423155,"1056":0.19423077188790783,"1057":0.2239071626692704,"1058":0.41532177006754617,"1059":-0.059427603846080784,"1060":0.15256568576858978,"1061":-0.11190977119231943,"1062":0.04959854110236755,"1063":-0.06339800255620211,"1064":0.12259339095584157,"1065":0.5358185504481406,"1066":-0.13110010914325784,"1067":-0.06945480318402249,"1068":-0.2652240156881538,"1069":0.2837020572523076,"1070":0.26918791671078646,"1071":-0.5496915888058398,"1072":0.6700505584046346,"1073":-0.07519179039856365,"1074":0.37590328657910915,"1075":0.3346950213010637,"1076":-0.27970561295788005,"1077":0.09126246373178863,"1078":-0.0828553288651437,"1079":0.009623448006768159,"1080":-0.003924737324832974,"1081":0.1304082763564216,"1082":0.1732918886351531,"1083":0.3364620981118659,"1084":-0.21972353196591435,"1085":-0.31401491025279604,"1086":0.030111666998821375,"1087":-0.1740242533794762,"1088":0.5904708199425864,"1089":-0.15337922414268548,"1090":0.20466715248541206,"1091":-0.10509370801208827,"1092":0.4232602449734036,"1093":0.37995754485842975,"1094":-0.2571655875507681,"1095":-0.04299594978208212,"1096":-0.5032124031381623,"1097":-0.06070091958441149,"1098":0.5491662084471353,"1099":-0.6127126938193092,"1100":-0.5143213275694278,"1101":0.47111230135072946,"1102":-0.14215083638182394,"1103":-0.3915395437762093,"1104":0.08605492869577719,"1105":0.14789426242945555,"1106":0.4051970747108447,"1107":0.5370237915693439,"1108":0.15358873331379283,"1109":-0.14594641333001215,"1110":0.19788294920849253,"1111":-0.04596195387481056,"1112":0.3340641931542737,"1113":-0.5003870901573673,"1114":-0.04564274498271399,"1115":0.08311379227278956,"1116":0.3058097844490617,"1117":-0.3961561661209375,"1118":-0.542580669976869,"1119":0.3157945361744408,"1120":-0.17705005607272348,"1121":-0.26740983622935094,"1122":0.2603900854019793,"1123":-0.027464179418482223,"1124":0.36892627799509714,"1125":-0.458840930976408,"1126":-0.23294910988290965,"1127":0.3553041334580865,"1128":0.6812267619148272,"1129":0.13157978844862567,"1130":0.8025401723335941,"1131":0.31123068242834384,"1132":-0.02574612043893971,"1133":0.21734615258530185,"1134":-0.37042856830838405,"1135":0.06375837467029778,"1136":0.067436761026165,"1137":-0.0036621205678962552,"1138":0.39163663200152904,"1139":0.06813813874715083,"1140":0.4896829123044065,"1141":0.034743865794882894,"1142":0.13367803130539363,"1143":0.2437148427016321,"1144":0.06586147925334435,"1145":0.19193806225974983,"1146":0.05765776781621988,"1147":-0.2993980848218546,"1148":-0.012275426865614369,"1149":-0.5643373475560656,"1150":-0.145963386633814,"1151":0.07030305384865702,"1152":-0.3559450465439866,"1153":0.18842330849227454,"1154":-0.10999055369831381,"1155":-0.3351143372513251,"1156":0.12681175232670433,"1157":0.32632330621306654,"1158":0.21768867645415033,"1159":0.08801329508642262,"1160":0.4667120934797588,"1161":-0.5706336534438039,"1162":0.5668867956862427,"1163":0.11436217663995257,"1164":-0.1807060521318361,"1165":0.11169976618103862,"1166":0.3735068961017609,"1167":0.28145044774230416,"1168":0.0819379867476503,"1169":-0.07358654379999754,"1170":-0.4615967881798662,"1171":-0.32067646537643046,"1172":0.4185071142837385,"1173":1.161950586687982,"1174":-0.007549962093941546,"1175":-0.16336130709395857}},"2":{"bias":-0.4038961436487739,"weights":{"0":-1.0037544631988535,"1":0.11636150451522477,"2":-0.11159607948575481,"3":-1.0813087669098127,"4":-1.0027259769264198,"5":-1.1888872036472145,"6":-0.7016766731119224,"7":-0.4444467429673502,"8":-0.10716307427250253,"9":0.6579385766876135,"10":1.120103420393992,"11":-0.01351111739518993,"12":-0.5173969492447389,"13":0.19514113729146873,"14":-0.5246639417486196,"15":0.3322420956722026,"16":-0.6085594670031257,"17":-0.618110862865645,"18":-0.43924656594142575,"19":-0.13860852177004998,"20":-0.04149634121302714,"21":0.28033422375006234,"22":0.33034238673056066,"23":0.15395314863324003,"24":-0.5117818624124636,"25":-0.25868054477610103,"26":0.2568473769905943,"27":0.541262839221486,"28":1.1131166382842417,"29":0.08889565777840572,"30":0.02923576412578274,"31":-0.043989134348826765,"32":-0.14788510488203954,"33":-1.1231304019934898,"34":0.1441318712828751,"35":-0.5101118797322927,"36":-0.20405754563039674,"37":-0.2840178885647652,"38":-0.6114321884917929,"39":-0.008021058478907397,"40":0.16296855512143324,"41":0.2624761524244543,"42":-0.1004239634027858,"43":-0.29879638893860205,"44":-0.2817159183863281,"45":-0.08055642903608792,"46":0.68738089458627,"47":0.48606045015990956,"48":-0.2292834608400016,"49":0.061609252933857724,"50":-0.06710985840237568,"51":-0.577042752987306,"52":-0.09075447002047167,"53":-0.44209115727647486,"54":-0.09729654499255834,"55":-0.3459472707345739,"56":0.19437185793982925,"57":-0.6613383670300875,"58":0.029530100322879334,"59":-0.1524096691382227,"60":-0.44926072599105205,"61":-0.4318383743660822,"62":-0.10751386700877877,"63":0.11312584969509577,"64":0.8022242629724073,"65":0.5505087282115042,"66":-0.4600611171580062,"67":0.027928542962188753,"68":0.008249044688073323,"69":0.07648305451896921,"70":0.04316153798690226,"71":0.0840751945067654,"72":-0.1148805933721767,"73":-0.17128141878354294,"74":0.2053376205721425,"75":-0.4116108453790888,"76":-0.17143141783130358,"77":0.10730755843741734,"78":0.15922724876424046,"79":-0.33181088203245945,"80":0.07091813825117617,"81":-0.22751787712375504,"82":-0.041406254617798025,"83":-0.11248935290829626,"84":-0.29267564743945723,"85":-0.11437325055303578,"86":0.24777455210806296,"87":0.3882195585029749,"88":-0.21451556510283692,"89":-0.24868253306172858,"90":-0.19252332463654845,"91":-0.1459215706634221,"92":-0.1022377391133638,"93":-0.11333038388916848,"94":-0.1474939528135866,"95":-0.20505948239303395,"96":-0.035690334136976684,"97":-0.24825937946265475,"98":-0.20858172773285116,"99":0.10136251102857154,"100":0.02750027107514225,"101":-0.22111188059751974,"102":-0.34614853815988833,"103":-0.7552226811296782,"104":-0.34296236264287766,"105":-0.3560661968917281,"106":0.12852029725891928,"107":-0.39420857946187055,"108":0.11989928948553963,"109":-0.044433088015426773,"110":0.4007422198067536,"111":0.13257470742533561,"112":0.1613477001042605,"113":-0.34135996686645736,"114":-0.6120522189957414,"115":-0.13928725422336097,"116":-0.014412010681409498,"117":-0.010227569150000946,"118":-0.2559494597787577,"119":-0.3262944414649023,"120":-0.08698728441863288,"121":-0.23683889670217678,"122":-0.309975104625993,"123":-0.8634805298800429,"124":0.05256183105614694,"125":-0.18556597097191566,"126":-0.6610887014033457,"127":0.039129847086812664,"128":1.039388089177085,"129":0.5678325322917008,"130":0.06901842777784112,"131":-0.4298690410119045,"132":-0.2935950917193073,"133":0.18354411508306037,"134":0.44223216459422127,"135":-0.17131809215384605,"136":-0.2290734025401229,"137":-0.5457265962510612,"138":-0.4777743251641271,"139":0.17933211857226283,"140":-0.26678556504035494,"141":-0.39920081043569605,"142":-0.7535823869430526,"143":-0.3933803749333957,"144":-0.9314394415213009,"145":-0.06712436175732558,"146":0.5508510406167544,"147":0.11199113548073311,"148":-0.03528095794768225,"149":0.04063443576696893,"150":-0.4969582423008441,"151":-1.2683822805394336,"152":-1.4349890854733516,"153":-1.0039033041289633,"154":-0.1945548880474077,"155":0.2476803157605857,"156":-0.11470718153599453,"157":0.23889912534314076,"158":-0.31191581559865894,"159":0.13994334978169712,"160":-0.3890668031995782,"161":-0.2420927189716152,"162":0.25197619715636266,"163":-0.7231200027893431,"164":-0.9241852237508174,"165":-0.1645288470399844,"166":-0.1665714813563657,"167":-0.4399567138191558,"168":0.3532810816831974,"169":0.5382285326291737,"170":-0.6442069533266357,"171":0.13008265798509133,"172":-0.5842126918391467,"173":-0.17434389295399344,"174":0.23695101675455812,"175":-0.021795600810304027,"176":-0.5188925959096526,"177":-0.26178685008187685,"178":0.4378336713257599,"179":0.7280549765730001,"180":0.12459968655605029,"181":0.005904630627495195,"182":-0.18390315090728399,"183":0.18508334974986587,"184":-0.2877962415137553,"185":0.4518103906262489,"186":0.11804026611431684,"187":-0.3663302609807704,"188":-0.2847693390898911,"189":-0.35282468589217003,"190":0.05443388192018198,"191":0.397968811522035,"192":0.08100417228013275,"193":0.15312431754167982,"194":-0.7099551164825673,"195":-0.7344971498508265,"196":0.8617673658015093,"197":1.4405849539361144,"198":0.12586342713032989,"199":0.07237049331566703,"200":0.22277282767956022,"201":0.12214966847801557,"202":1.200260267894104,"203":0.921399046087364,"204":0.1884304831220688,"205":-0.21874886621276185,"206":0.23496749680771686,"207":-0.12705331031281558,"208":-0.2600452057625515,"209":0.09226295650966908,"210":-0.07398230107780655,"211":-0.1454625223481423,"212":-0.08478482785582801,"213":0.21339451733716144,"214":0.01814725669232154,"215":0.07963092064123577,"216":-0.2420510126935806,"217":-0.49856113026952825,"218":0.20640677400395516,"219":0.2180315509697154,"220":1.188267706516901,"221":0.6109884182570069,"222":-0.10686139382669169,"223":-0.23478801889204215,"224":-0.05868840226914584,"225":0.05165679842924357,"226":0.21648751966521756,"227":0.08875661125827261,"228":0.007398232006627946,"229":-0.2872260510995502,"230":0.19940819941378415,"231":0.10787006533582168,"232":-0.060939508590801265,"233":-0.18162118025354518,"234":-0.37406090686953486,"235":-0.0712396528019208,"236":-0.34336601712473286,"237":-0.28847160538616023,"238":-0.07603413161615033,"239":-0.03335714888352891,"240":0.048355294553557866,"241":0.01638065997412401,"242":0.13897485867677267,"243":-0.027341964030763624,"244":0.27882216811888927,"245":0.10960467612495213,"246":-0.2627037883545717,"247":0.12771833326227774,"248":0.5937120130949282,"249":0.29667725502943443,"250":0.18014960434221658,"251":-0.14026657942986867,"252":-0.1269145205243391,"253":-0.06487118130905148,"254":-0.1751519475957821,"255":-0.30070961905638494,"256":0.1259787363833118,"257":0.08021583462448607,"258":-0.27564359756718104,"259":0.22666483613882057,"260":-0.037771143616129724,"261":-0.3189709634781022,"262":0.29267070858125704,"263":0.05460911287732557,"264":-0.33179023678610486,"265":0.11131382196672454,"266":0.3307037728366666,"267":0.37210969970250946,"268":0.23369642736464352,"269":-0.44342220727221254,"270":-0.5221941384893632,"271":0.24942649359458421,"272":0.841424957822483,"273":0.06222233057740876,"274":0.1843411704363694,"275":0.030770805730750944,"276":0.1096829708186777,"277":0.4275967451964788,"278":0.020786049429876545,"279":-0.0416178068792819,"280":0.11204055673037995,"281":0.3749092537103433,"282":-0.18646843055453446,"283":-0.33972461922844716,"284":-0.4812068924188082,"285":-0.546583802446516,"286":0.10934314902987985,"287":-0.0691514315050582,"288":0.3023204444928471,"289":1.1506498969199683,"290":1.2132607136423974,"291":0.34793742451625576,"292":0.47777651703331003,"293":0.2532067018172398,"294":0.3293396954819895,"295":1.1656721188212256,"296":0.7601494825554531,"297":-0.5076584301030326,"298":-0.329962376226109,"299":-0.19095958676049063,"300":0.007106282025153185,"301":0.08674614553620377,"302":-0.16157714728457853,"303":-0.05824362784067299,"304":0.1275970024837335,"305":-0.040465558897545745,"306":-0.20976673212712107,"307":0.3024465368830113,"308":-0.13839042743315955,"309":-0.3587802658947978,"310":0.03755903157040143,"311":0.5041521968872404,"312":0.009363383692706308,"313":0.4388431498286758,"314":-0.14387757918019264,"315":-0.4849067765301516,"316":-0.5555978656652238,"317":-0.3771645029137994,"318":1.185236470373512,"319":0.04870984594162063,"320":-0.6899409562317397,"321":-0.11424268786383802,"322":0.1822487291878952,"323":0.10634384937583789,"324":-0.1948745368236408,"325":0.06896651904720996,"326":-0.01404986922515757,"327":-0.11288817967638128,"328":-0.3209018542770076,"329":-0.3937177540336148,"330":0.3100412150927376,"331":-0.22650077971449029,"332":-0.404010231334221,"333":0.29639001091611117,"334":-0.2021472488360453,"335":0.24730907590900383,"336":0.5447952105909921,"337":0.23900474665931085,"338":-0.1805385374919337,"339":-0.03147590796858249,"340":-0.18799796084142206,"341":0.32303471045884563,"342":0.3630065643200911,"343":0.00754443360611134,"344":0.13392564225914722,"345":-0.3229084057562056,"346":0.15161374324107518,"347":0.3242999735598211,"348":0.2469340613328387,"349":0.11657652029166925,"350":-0.14748482693432738,"351":-0.044087791624722435,"352":-0.4552388508714923,"353":-0.5752573421128482,"354":-0.39339080341791044,"355":-0.06322724234310165,"356":0.009876798568319614,"357":-0.2719006748090348,"358":-0.4563435779557361,"359":-0.03824107320428683,"360":0.5671383908334334,"361":0.11142511939832378,"362":0.4212830905901362,"363":-0.09921628788904742,"364":0.4018852402650584,"365":0.7248826444496289,"366":0.23025860428942962,"367":0.12068658365833283,"368":0.41457064311421615,"369":0.5572861183364047,"370":0.32201309556258917,"371":0.407799819488124,"372":0.11358542714246161,"373":0.23830170075336107,"374":0.14714031527002752,"375":-0.07779190504625415,"376":-0.32205452514370275,"377":-0.11131260177615805,"378":-0.1631132039589715,"379":-0.16855438031865627,"380":0.3927201164670902,"381":-0.39232134639697486,"382":0.24805536069582124,"383":-0.13295919662280284,"384":0.09066913936119281,"385":-0.4812904035313859,"386":-0.04399835180656201,"387":-0.10247240912822957,"388":0.20632202605464955,"389":0.48818548006821355,"390":-0.33686158506955466,"391":-0.08869799604843814,"392":0.15738599536560924,"393":0.5854815332829001,"394":0.3288411970596502,"395":0.26327857661194737,"396":0.08409981233477666,"397":0.15445199121431977,"398":0.2097671436899844,"399":-0.01789028205421975,"400":0.009221187967464324,"401":-0.3735928876805357,"402":0.44345527668743795,"403":0.39378969751086984,"404":-0.33008583176611306,"405":-0.33731044745343736,"406":-0.012080385648256005,"407":0.27451064985587253,"408":-0.251038713069376,"409":-0.10659281774459563,"410":-0.4157270137996321,"411":0.31737617677460195,"412":0.05472624718474742,"413":0.15920756425647628,"414":0.006848828360185486,"415":0.0954620807473849,"416":0.3737415022191911,"417":0.3080077305542391,"418":0.15628969211862714,"419":0.12902675901381022,"420":0.10938758846177969,"421":0.36340649411198117,"422":-0.13131431461871185,"423":-0.3499755972227095,"424":-0.23112538649907835,"425":0.3070102384626076,"426":0.302077227066176,"427":0.01875822584358245,"428":-0.09375531238318872,"429":-0.42659813956985226,"430":0.15143351605007063,"431":0.21369615074259662,"432":-0.058502004918461074,"433":0.3672247904842014,"434":0.13131820709585523,"435":0.2934715152939104,"436":0.3213456255559661,"437":-0.05247694129301226,"438":-0.3863043751763899,"439":0.12187150230628857,"440":0.1739121019706514,"441":-0.7665998713396873,"442":-0.40705771541005703,"443":-0.6280126704253726,"444":-0.22086165267526173,"445":0.10281257062831169,"446":0.23887059952472364,"447":-0.22073117563194528,"448":0.11859759927114664,"449":0.24107005033797116,"450":-0.5596938624926255,"451":-0.23629151485086294,"452":0.43330331011822204,"453":0.12326986623415974,"454":-0.051907380369704936,"455":0.04694292458911114,"456":0.0712015680641286,"457":0.22104318436707138,"458":0.31209608580436804,"459":0.271730544301469,"460":0.40860890353607093,"461":-0.04675636090808289,"462":-0.07564612257236271,"463":0.1934101462153316,"464":0.06265088799462726,"465":-0.035856349835792986,"466":0.32690929692120496,"467":0.4280233270594637,"468":-0.10902073073279632,"469":0.1306135755362751,"470":0.35588158967691325,"471":0.6263225201885686,"472":0.4045281836864228,"473":0.41646774052087054,"474":-0.14553302598661413,"475":0.5166852471960491,"476":-0.01908574220429303,"477":-0.12126714240400362,"478":0.6020444370866778,"479":0.411868110364349,"480":-0.14036873888530263,"481":0.31289146448722155,"482":-0.3331382158671204,"483":-0.2706745156159985,"484":0.0024671094550363405,"485":0.09204898887442742,"486":0.6249006741128373,"487":0.07495446028681524,"488":-0.12723689729233592,"489":0.38634355705561735,"490":-0.09460678726282201,"491":0.1368938273288187,"492":-0.2924487411705325,"493":0.22913582363069704,"494":-0.1707619634025649,"495":-0.25801246030499464,"496":-0.3337018579822195,"497":-0.1832007016756456,"498":0.4972277518471921,"499":-0.2208040287459515,"500":-0.34381351096998686,"501":-0.177926040400351,"502":0.3364665071379264,"503":-0.09323605208668395,"504":0.6752352128172292,"505":-0.011169115503390625,"506":-0.3958366326854592,"507":-0.06859393750511901,"508":-0.24593768896167773,"509":-0.5204646768429492,"510":-0.6978210724413187,"511":0.038186331973533105,"512":-0.0638635365866381,"513":0.06357442832295829,"514":-0.5017776304270741,"515":0.013525889842037477,"516":0.16909327525832454,"517":-0.03988616274017108,"518":0.14262137926210205,"519":-0.09271835644748155,"520":0.017274330006573316,"521":-0.36375100442619324,"522":-0.07785427919593707,"523":-0.007646272502599788,"524":0.06434940734583605,"525":-0.20441415505459115,"526":0.0737026642203225,"527":-0.1264461950571086,"528":0.1515926570485151,"529":-0.20670737441420634,"530":-0.03944483186761891,"531":-0.08370233324275649,"532":-0.38969751840887307,"533":0.19050917839022444,"534":0.03430192907891169,"535":0.10700203207971554,"536":0.3344598733592813,"537":-0.12929764300950647,"538":0.2973124490204803,"539":-0.005757605277145965,"540":-0.2446690439210292,"541":0.2685506700490209,"542":0.26389710766713054,"543":-0.0871258451678745,"544":-0.10810397247658261,"545":-0.27788166614580606,"546":-0.21977037032862878,"547":0.2438679088819607,"548":0.3122691765514321,"549":0.06970567821060894,"550":-0.049000239852804627,"551":0.13148889159193244,"552":-0.14169136234929644,"553":-0.32348596259938606,"554":0.33774025009401787,"555":-0.059665018001179876,"556":0.009524518559548598,"557":-0.16898314695553013,"558":0.07333579672631714,"559":0.039530374693479066,"560":0.06046069547355859,"561":0.19950813841396556,"562":0.36369216487791467,"563":0.2186220396648686,"564":-0.2390814476408051,"565":0.16878503836541733,"566":0.21567872383518075,"567":-0.01015415544061904,"568":-0.1484195551965308,"569":0.16912454341195682,"570":0.3494780663337216,"571":0.3116950357910567,"572":0.00196654746493248,"573":-0.07525757047160596,"574":0.18595378643921318,"575":-0.06316441618639312,"576":-0.46715353462311426,"577":-0.2143256249371356,"578":-0.06524989826886422,"579":0.03740045719110507,"580":0.2985011575755212,"581":0.24326963298441712,"582":-0.35344588135103816,"583":0.07918804153924684,"584":0.548443823657933,"585":-0.05596823585038303,"586":-0.07866298024248224,"587":0.1367477339866576,"588":0.5907179486714904,"589":0.3372720682218222,"590":-0.47064787057993207,"591":-0.19016973017607952,"592":-0.026122924266911006,"593":0.13260198666042217,"594":0.3898391383165426,"595":0.5194972946963332,"596":-0.0924362973788722,"597":-0.18484005362524397,"598":-0.087554558766137,"599":0.3988517459778807,"600":-0.5028797696998302,"601":0.015203968028734034,"602":0.2924562202174023,"603":0.4461805014545315,"604":0.3837410098191986,"605":-0.0760505413018374,"606":-0.2855901043893952,"607":-0.15304873022808207,"608":0.3321731060852737,"609":0.01873088885804374,"610":0.1109694554239323,"611":0.17726127440169087,"612":-0.20370298150967772,"613":0.526711533871044,"614":0.09662695896385157,"615":-0.252002998911967,"616":-0.4636906695350242,"617":0.3768088960404465,"618":-0.19821209804306264,"619":0.16199755449044467,"620":0.01453876512500228,"621":-0.11254588907937857,"622":-0.04734955506951517,"623":-0.3886932196810973,"624":-0.3468102230196955,"625":0.03141834978862886,"626":0.5440026103993311,"627":0.3878861766009166,"628":0.24255469998775994,"629":0.1282101349173665,"630":-0.5222041597164794,"631":0.26786870103726307,"632":-0.30963761547455343,"633":-0.1320285200024511,"634":0.061154931530314004,"635":0.03450499518508553,"636":0.17409305279162166,"637":0.2563635041469024,"638":0.6150017965545488,"639":0.03377141410635091,"640":0.15666109392569827,"641":-0.10169953777794771,"642":-0.11429044578979526,"643":-0.047129903753647666,"644":-0.09845935167091535,"645":0.04704269359774719,"646":0.44631478742651814,"647":0.05168928144803403,"648":-0.9145226052081142,"649":-0.010716368227851105,"650":-0.19523398251141375,"651":-0.502890042077753,"652":-0.1365125545939052,"653":0.0169610225248504,"654":0.6662858378287227,"655":-0.30819934279013833,"656":-0.13725872936082076,"657":-0.04123146558406853,"658":0.2173916055970025,"659":-0.010168949168995335,"660":-0.04120540588467808,"661":0.13585455834194318,"662":0.03408940221335223,"663":-0.2800275737935595,"664":0.1456449535195709,"665":0.07135838621956192,"666":0.6178277536304929,"667":-0.045089636065893536,"668":-0.01017598094006553,"669":0.18534782414653916,"670":-0.02945041064663362,"671":0.26077246088268374,"672":0.14726410016658317,"673":-0.055546173640973646,"674":0.06747789667155307,"675":-0.2330161653765893,"676":-0.0600136410888472,"677":-0.17792714024410242,"678":-0.6179248362852231,"679":0.43531025390990974,"680":0.27640216163115133,"681":-0.11601328302711215,"682":-0.3272338932768794,"683":-0.36145492918036354,"684":-0.13649826846880658,"685":0.10794361139385009,"686":-0.041777229080626296,"687":0.1886703659158851,"688":-0.14636619771535317,"689":0.27981958559200193,"690":-0.263126153666759,"691":0.1774562831891105,"692":0.2822371361767318,"693":-0.005979558489223155,"694":0.1812705796663788,"695":0.17914047424825044,"696":-0.16208666326805912,"697":0.07956254576204012,"698":0.24865598169464573,"699":-0.2157054303084574,"700":0.12153392247107918,"701":-0.396953213352089,"702":-0.6564070807533405,"703":0.3550992089746099,"704":0.5764210820782053,"705":-0.028950059156192025,"706":-0.17965153168165104,"707":0.013469487397188142,"708":-0.5288637864937207,"709":0.14663256075663353,"710":0.21544740415851263,"711":-0.43240233856984334,"712":0.4230389186417801,"713":0.15447473956387617,"714":-0.46319473390559857,"715":0.340315780080973,"716":0.1157998999741125,"717":0.33629901526061,"718":0.5751339097834173,"719":-0.12606957423258464,"720":-0.4631960190023525,"721":0.4153551434919312,"722":0.5043541608900737,"723":0.008248842714765437,"724":-0.2899950163508418,"725":0.10347078877876748,"726":-0.2287154487412367,"727":0.18034630900322676,"728":-0.062327336845390886,"729":0.11483897149565576,"730":-0.11763933637138647,"731":-0.4418191203744343,"732":-0.28481071837374444,"733":0.012423929126026254,"734":0.15146462858172433,"735":0.11580712351309067,"736":0.4303007693618448,"737":-0.13573991576696,"738":-0.35335092844492544,"739":-0.18031136990462873,"740":0.07362613459377283,"741":-0.04931707516144622,"742":0.2592465545722229,"743":-0.22566704445674726,"744":0.12940997336294102,"745":0.3539456428325559,"746":-0.3635214159337002,"747":-0.0005968505650232763,"748":0.13854024296195133,"749":-0.13908787149744434,"750":-0.29087532547506506,"751":0.46703049101827526,"752":0.10955880353651129,"753":-0.12842293423518614,"754":-0.0859039885537042,"755":0.2591777559111606,"756":-0.20537954990092452,"757":0.050549408169968474,"758":-0.09568454837770901,"759":0.17271144946395167,"760":-0.14853151966839157,"761":-0.1678763939400076,"762":0.2740506398805351,"763":-0.25606678302818386,"764":0.16889065485681773,"765":-0.22985446133256004,"766":-0.564593707295199,"767":-0.24089212562986217,"768":-0.13698381806039306,"769":0.45838428657186064,"770":0.08141673198427476,"771":0.09639557057468033,"772":0.03030904356028938,"773":0.4076452194709865,"774":-0.2331962075330524,"775":0.15511562696070794,"776":0.17801108550838537,"777":-0.28209986668181025,"778":-0.25014312235106717,"779":-0.2896976778658007,"780":-0.2796218807279953,"781":-0.40842402680482875,"782":0.18194317835785617,"783":-0.056719746280977715,"784":-0.09555024318158714,"785":-0.36960134466620487,"786":-0.19752250718030734,"787":-0.10938722261270588,"788":0.038526855889449214,"789":0.009498504207663353,"790":0.07005791155486286,"791":-0.5068225103378077,"792":-0.2692453140846778,"793":0.1923503216483885,"794":0.4707835435949504,"795":-0.06145933774469146,"796":-0.008569856506075006,"797":-0.037264616539196084,"798":0.05280981419183855,"799":0.03774255775631543,"800":-0.17120355076053276,"801":-0.3083449369463407,"802":0.21466569169141342,"803":0.1461558098524925,"804":-0.44929937734642744,"805":0.18851299744742495,"806":0.2684234619819015,"807":-0.1911684146206577,"808":0.16630908072362918,"809":-0.19717640600457917,"810":-0.22422875184688626,"811":-0.20545670525548398,"812":-0.04415512753152242,"813":0.002393881933630976,"814":-0.03127056352086909,"815":-0.1969562148245664,"816":-0.579505977897375,"817":-0.38436266472277514,"818":-0.0989499105996751,"819":-0.36834489250207986,"820":0.0005983595360421711,"821":0.07286672787162485,"822":0.8555590071711565,"823":-0.09684688258266885,"824":0.09806922882181648,"825":0.2805896252003204,"826":-0.05827915829210048,"827":0.21049104705613966,"828":-0.050719183454179737,"829":0.028096951436831556,"830":0.2655715539926097,"831":0.15494791077292988,"832":-0.07714529166203629,"833":-0.20962858332435827,"834":0.38827731287562794,"835":0.1506000357360511,"836":-0.05063288042657179,"837":-0.40763760383056424,"838":0.04803998686408561,"839":0.12941024179578464,"840":-0.374605273112104,"841":-0.2938206117282231,"842":0.021623716121845694,"843":-0.0764044471363021,"844":0.0643948921676628,"845":0.10892167395467008,"846":-0.5780270139211423,"847":0.2379726070903717,"848":0.2873518149343169,"849":-0.2325961560582654,"850":-0.04766725131592388,"851":-0.12078380300985103,"852":0.10855281046527995,"853":-0.09985203580174601,"854":0.26814678443796863,"855":0.03573768762464094,"856":-0.1670953245742708,"857":-0.0580951300351292,"858":-0.15729198846045053,"859":-0.15536633285714962,"860":-0.04371944933707844,"861":0.288593614497849,"862":0.19456703184813118,"863":0.2774261725254367,"864":-0.03609360375105431,"865":0.11297269643018816,"866":0.3969358595522519,"867":-0.2631179004484869,"868":0.3574885396865987,"869":0.32371249555552833,"870":-0.5281416991907879,"871":0.191669607898883,"872":0.008576327566444239,"873":0.020894469858236148,"874":0.4568504637777292,"875":-0.3827438161768479,"876":-0.12491391465280946,"877":0.1159586107316179,"878":-0.016000348838687003,"879":0.029794856113066703,"880":-0.23749137015243196,"881":0.3181080425803013,"882":0.11990524515108425,"883":0.4963476757249021,"884":-0.03997979624601283,"885":-0.38301661911188656,"886":0.17716279071667143,"887":-0.24436982268566648,"888":-0.1823010511177971,"889":0.016880556296453072,"890":-0.009051325512360485,"891":-0.23433411338121954,"892":0.7032806029845486,"893":-0.21809470810178544,"894":-0.29070005040399055,"895":-0.16589081874662862,"896":0.09051431372669308,"897":-0.06842132993106384,"898":0.010484718422762121,"899":-0.13704801694641297,"900":0.1585181430757388,"901":0.05223896060292174,"902":0.05211618612245257,"903":-0.5782369753405595,"904":0.05257502570935844,"905":-0.131839901025967,"906":-0.13841494590034073,"907":-0.09730159422359146,"908":0.48010240224362744,"909":0.024678444274126347,"910":0.022715941867118502,"911":-0.0691908729971637,"912":-0.2563504950834301,"913":-0.3900749410214682,"914":0.04906440298468926,"915":0.13696773213574479,"916":0.08725801753931557,"917":-0.20874796535765874,"918":-0.3295736920432824,"919":-0.054799795191774275,"920":0.22147192310951838,"921":0.21454798341703618,"922":-0.1585660052368648,"923":-0.005211405851274216,"924":-0.015386420544820789,"925":-0.035636517969614555,"926":0.20240236628305236,"927":0.170997197538284,"928":-0.11260569599260706,"929":0.11917186650841395,"930":-0.7130949906607535,"931":-0.20474090620502225,"932":0.16331443897673276,"933":0.0579089553884207,"934":0.014502270194419823,"935":0.01321703384914772,"936":-0.07071820602395056,"937":-0.4303651787858492,"938":0.4273652054422041,"939":0.4396110803241417,"940":0.2610164437206618,"941":-0.10230913262607774,"942":-0.24726442887379269,"943":-0.06970953145453025,"944":0.22438218415949013,"945":-0.18062795514678756,"946":0.054470483342632804,"947":-0.06763877757347148,"948":-0.3945741050510153,"949":0.020532780976653398,"950":0.40050810835011247,"951":0.36331647433408226,"952":0.09011416483191653,"953":0.04746250014424586,"954":-0.3166148191980948,"955":-0.18587993656735552,"956":0.25129446462694444,"957":0.17133426243685201,"958":-0.2830784960194301,"959":-0.44554486110272445,"960":-0.03384840060015563,"961":-0.10934102082072938,"962":0.05823778430903179,"963":-0.5038547397191362,"964":0.13803964901481963,"965":-0.12120223239623468,"966":0.21873351960354215,"967":0.014233959338227128,"968":-0.1522859303997026,"969":0.05006720301047181,"970":0.23817638983927777,"971":-0.24238170487994964,"972":-0.13796744660583304,"973":0.38923039202173837,"974":0.49142737633977585,"975":0.14392865190397122,"976":0.07187968489315709,"977":-0.36217542588875296,"978":0.1827094565625417,"979":-0.19075906785507865,"980":0.03134093601149978,"981":-0.1567944853182486,"982":0.0680451643353585,"983":-0.05295111105631955,"984":-0.4596110764816609,"985":-0.5651999822268279,"986":-0.13821883713633135,"987":-0.1658520898840493,"988":0.12250178538340398,"989":-0.1706920938101581,"990":0.15816135384711597,"991":0.0984609879259116,"992":-0.2592612826836765,"993":-0.44366660575079797,"994":0.004610621577356196,"995":-0.04777657878824848,"996":0.24522662410451987,"997":0.01675950381999947,"998":0.26408188563336127,"999":0.2594261427838724,"1000":-0.06075904346387765,"1001":-0.2633033636781735,"1002":0.4424531397497184,"1003":-0.1547164440211918,"1004":0.01699892927333999,"1005":-0.34063650650173816,"1006":-0.517456363437789,"1007":-0.01600422226435668,"1008":-0.2793703867652219,"1009":-0.3195664001570549,"1010":0.21749713548063554,"1011":0.10033236402000444,"1012":-0.4463695398670898,"1013":0.03349772176255752,"1014":-0.3689640985840293,"1015":-0.4297660091316672,"1016":0.04193268150709124,"1017":0.2470979279820283,"1018":-0.22644344874755012,"1019":-0.24092478767936693,"1020":0.2301067205802799,"1021":0.018674608743778874,"1022":-0.04308747078938273,"1023":-0.04528404302123752,"1024":-0.1148411165044329,"1025":-0.05475544411477153,"1026":0.09554213386300664,"1027":0.1612835000714569,"1028":0.08986133351640409,"1029":-0.29482652160224143,"1030":-0.2589865933267998,"1031":0.22542468536994156,"1032":-0.17834973313663025,"1033":0.1063319882332052,"1034":0.10807130743279317,"1035":0.053861295196992245,"1036":-0.06276988528951852,"1037":0.3075205651417687,"1038":-0.18118716875668867,"1039":0.25548184895557546,"1040":-0.10061658621936924,"1041":-0.8784308090281767,"1042":-0.09699583825962677,"1043":-0.07008155333728636,"1044":0.4254314922261366,"1045":0.04800305196050371,"1046":0.3235227105771264,"1047":0.4230900546613505,"1048":0.15785804150021734,