{"layers":[{"0":{},"1":{},"2":{},"3":{},"4":{},"5":{},"6":{},"7":{},"8":{},"9":{},"10":{},"11":{},"12":{},"13":{},"14":{},"15":{},"16":{},"17":{},"18":{},"19":{},"20":{},"21":{},"22":{},"23":{},"24":{},"25":{},"26":{},"27":{},"28":{},"29":{},"30":{},"31":{},"32":{},"33":{},"34":{},"35":{},"36":{},"37":{},"38":{},"39":{},"40":{},"41":{},"42":{},"43":{},"44":{},"45":{},"46":{},"47":{},"48":{},"49":{},"50":{},"51":{},"52":{},"53":{},"54":{},"55":{},"56":{},"57":{},"58":{},"59":{},"60":{},"61":{},"62":{},"63":{},"64":{},"65":{},"66":{},"67":{},"68":{},"69":{},"70":{},"71":{},"72":{},"73":{},"74":{},"75":{},"76":{},"77":{},"78":{},"79":{},"80":{},"81":{},"82":{},"83":{},"84":{},"85":{},"86":{},"87":{},"88":{},"89":{},"90":{},"91":{},"92":{},"93":{},"94":{},"95":{},"96":{},"97":{},"98":{},"99":{},"100":{},"101":{},"102":{},"103":{},"104":{},"105":{},"106":{},"107":{},"108":{},"109":{},"110":{},"111":{},"112":{},"113":{},"114":{},"115":{},"116":{},"117":{},"118":{},"119":{},"120":{},"121":{},"122":{},"123":{},"124":{},"125":{},"126":{},"127":{},"128":{},"129":{},"130":{},"131":{},"132":{},"133":{},"134":{},"135":{},"136":{},"137":{},"138":{},"139":{},"140":{},"141":{},"142":{},"143":{},"144":{},"145":{},"146":{},"147":{},"148":{},"149":{},"150":{},"151":{},"152":{},"153":{},"154":{},"155":{},"156":{},"157":{},"158":{},"159":{},"160":{},"161":{},"162":{},"163":{},"164":{},"165":{},"166":{},"167":{},"168":{},"169":{},"170":{},"171":{},"172":{},"173":{},"174":{},"175":{},"176":{},"177":{},"178":{},"179":{},"180":{},"181":{},"182":{},"183":{},"184":{},"185":{},"186":{},"187":{},"188":{},"189":{},"190":{},"191":{},"192":{},"193":{},"194":{},"195":{},"196":{},"197":{},"198":{},"199":{},"200":{},"201":{},"202":{},"203":{},"204":{},"205":{},"206":{},"207":{},"208":{},"209":{},"210":{},"211":{},"212":{},"213":{},"214":{},"215":{},"216":{},"217":{},"218":{},"219":{},"220":{},"221":{},"222":{},"223":{},"224":{},"225":{},"226":{},"227":{},"228":{},"229":{},"230":{},"231":{},"232":{},"233":{},"234":{},"235":{},"236":{},"237":{},"238":{},"239":{},"240":{},"241":{},"242":{},"243":{},"244":{},"245":{},"246":{},"247":{},"248":{},"249":{},"250":{},"251":{},"252":{},"253":{},"254":{},"255":{},"256":{},"257":{},"258":{},"259":{},"260":{},"261":{},"262":{},"263":{},"264":{},"265":{},"266":{},"267":{},"268":{},"269":{},"270":{},"271":{},"272":{},"273":{},"274":{},"275":{},"276":{},"277":{},"278":{},"279":{},"280":{},"281":{},"282":{},"283":{},"284":{},"285":{},"286":{},"287":{},"288":{},"289":{},"290":{},"291":{},"292":{},"293":{},"294":{},"295":{},"296":{},"297":{},"298":{},"299":{},"300":{},"301":{},"302":{},"303":{},"304":{},"305":{},"306":{},"307":{},"308":{},"309":{},"310":{},"311":{},"312":{},"313":{},"314":{},"315":{},"316":{},"317":{},"318":{},"319":{},"320":{},"321":{},"322":{},"323":{},"324":{},"325":{},"326":{},"327":{},"328":{},"329":{},"330":{},"331":{},"332":{},"333":{},"334":{},"335":{},"336":{},"337":{},"338":{},"339":{},"340":{},"341":{},"342":{},"343":{},"344":{},"345":{},"346":{},"347":{},"348":{},"349":{},"350":{},"351":{},"352":{},"353":{},"354":{},"355":{},"356":{},"357":{},"358":{},"359":{},"360":{},"361":{},"362":{},"363":{},"364":{},"365":{},"366":{},"367":{},"368":{},"369":{},"370":{},"371":{},"372":{},"373":{},"374":{},"375":{},"376":{},"377":{},"378":{},"379":{},"380":{},"381":{},"382":{},"383":{},"384":{},"385":{},"386":{},"387":{},"388":{},"389":{},"390":{},"391":{},"392":{},"393":{},"394":{},"395":{},"396":{},"397":{},"398":{},"399":{},"400":{},"401":{},"402":{},"403":{},"404":{},"405":{},"406":{},"407":{},"408":{},"409":{},"410":{},"411":{},"412":{},"413":{},"414":{},"415":{},"416":{},"417":{},"418":{},"419":{},"420":{},"421":{},"422":{},"423":{},"424":{},"425":{},"426":{},"427":{},"428":{},"429":{},"430":{},"431":{},"432":{},"433":{},"434":{},"435":{},"436":{},"437":{},"438":{},"439":{},"440":{},"441":{},"442":{},"443":{},"444":{},"445":{},"446":{},"447":{},"448":{},"449":{},"450":{},"451":{},"452":{},"453":{},"454":{},"455":{},"456":{},"457":{},"458":{},"459":{},"460":{},"461":{},"462":{},"463":{},"464":{},"465":{},"466":{},"467":{},"468":{},"469":{},"470":{},"471":{},"472":{},"473":{},"474":{},"475":{},"476":{},"477":{},"478":{},"479":{},"480":{},"481":{},"482":{},"483":{},"484":{},"485":{},"486":{},"487":{},"488":{},"489":{},"490":{},"491":{},"492":{},"493":{},"494":{},"495":{},"496":{},"497":{},"498":{},"499":{},"500":{},"501":{},"502":{},"503":{},"504":{},"505":{},"506":{},"507":{},"508":{},"509":{},"510":{},"511":{},"512":{},"513":{},"514":{},"515":{},"516":{},"517":{},"518":{},"519":{},"520":{},"521":{},"522":{},"523":{},"524":{},"525":{},"526":{},"527":{},"528":{},"529":{},"530":{},"531":{},"532":{},"533":{},"534":{},"535":{},"536":{},"537":{},"538":{},"539":{},"540":{},"541":{},"542":{},"543":{},"544":{},"545":{},"546":{},"547":{},"548":{},"549":{},"550":{},"551":{},"552":{},"553":{},"554":{},"555":{},"556":{},"557":{},"558":{},"559":{},"560":{},"561":{},"562":{},"563":{},"564":{},"565":{},"566":{},"567":{},"568":{},"569":{},"570":{},"571":{},"572":{},"573":{},"574":{},"575":{},"576":{},"577":{},"578":{},"579":{},"580":{},"581":{},"582":{},"583":{},"584":{},"585":{},"586":{},"587":{},"588":{},"589":{},"590":{},"591":{},"592":{},"593":{},"594":{},"595":{},"596":{},"597":{},"598":{},"599":{},"600":{},"601":{},"602":{},"603":{},"604":{},"605":{},"606":{},"607":{},"608":{},"609":{},"610":{},"611":{},"612":{},"613":{},"614":{},"615":{},"616":{},"617":{},"618":{},"619":{},"620":{},"621":{},"622":{},"623":{},"624":{},"625":{},"626":{},"627":{},"628":{},"629":{},"630":{},"631":{},"632":{},"633":{},"634":{},"635":{},"636":{},"637":{},"638":{},"639":{},"640":{},"641":{},"642":{},"643":{},"644":{},"645":{},"646":{},"647":{},"648":{},"649":{},"650":{},"651":{},"652":{},"653":{},"654":{},"655":{},"656":{},"657":{},"658":{},"659":{},"660":{},"661":{},"662":{},"663":{},"664":{},"665":{},"666":{},"667":{},"668":{},"669":{},"670":{},"671":{},"672":{},"673":{},"674":{},"675":{},"676":{},"677":{},"678":{},"679":{},"680":{},"681":{},"682":{},"683":{},"684":{},"685":{},"686":{},"687":{},"688":{},"689":{},"690":{},"691":{},"692":{},"693":{},"694":{},"695":{},"696":{},"697":{},"698":{},"699":{},"700":{},"701":{},"702":{},"703":{},"704":{},"705":{},"706":{},"707":{},"708":{},"709":{},"710":{},"711":{},"712":{},"713":{},"714":{},"715":{},"716":{},"717":{},"718":{},"719":{},"720":{},"721":{},"722":{},"723":{},"724":{},"725":{},"726":{},"727":{},"728":{},"729":{},"730":{},"731":{},"732":{},"733":{},"734":{},"735":{},"736":{},"737":{},"738":{},"739":{},"740":{},"741":{},"742":{},"743":{},"744":{},"745":{},"746":{},"747":{},"748":{},"749":{},"750":{},"751":{},"752":{},"753":{},"754":{},"755":{},"756":{},"757":{},"758":{},"759":{},"760":{},"761":{},"762":{},"763":{},"764":{},"765":{},"766":{},"767":{},"768":{},"769":{},"770":{},"771":{},"772":{},"773":{},"774":{},"775":{},"776":{},"777":{},"778":{},"779":{},"780":{},"781":{},"782":{},"783":{},"784":{},"785":{},"786":{},"787":{},"788":{},"789":{},"790":{},"791":{},"792":{},"793":{},"794":{},"795":{},"796":{},"797":{},"798":{},"799":{},"800":{},"801":{},"802":{},"803":{},"804":{},"805":{},"806":{},"807":{},"808":{},"809":{},"810":{},"811":{},"812":{},"813":{},"814":{},"815":{},"816":{},"817":{},"818":{},"819":{},"820":{},"821":{},"822":{},"823":{},"824":{},"825":{},"826":{},"827":{},"828":{},"829":{},"830":{},"831":{},"832":{},"833":{},"834":{},"835":{},"836":{},"837":{},"838":{},"839":{},"840":{},"841":{},"842":{},"843":{},"844":{},"845":{},"846":{},"847":{},"848":{},"849":{},"850":{},"851":{},"852":{},"853":{},"854":{},"855":{},"856":{},"857":{},"858":{},"859":{},"860":{},"861":{},"862":{},"863":{},"864":{},"865":{},"866":{},"867":{},"868":{},"869":{},"870":{},"871":{},"872":{},"873":{},"874":{},"875":{},"876":{},"877":{},"878":{},"879":{},"880":{},"881":{},"882":{},"883":{},"884":{},"885":{},"886":{},"887":{},"888":{},"889":{},"890":{},"891":{},"892":{},"893":{},"894":{},"895":{},"896":{},"897":{},"898":{},"899":{},"900":{},"901":{},"902":{},"903":{},"904":{},"905":{},"906":{},"907":{},"908":{},"909":{},"910":{},"911":{},"912":{},"913":{},"914":{},"915":{},"916":{},"917":{},"918":{},"919":{},"920":{},"921":{},"922":{},"923":{},"924":{},"925":{},"926":{},"927":{},"928":{},"929":{},"930":{},"931":{},"932":{},"933":{},"934":{},"935":{},"936":{},"937":{},"938":{},"939":{},"940":{},"941":{},"942":{},"943":{},"944":{},"945":{},"946":{},"947":{},"948":{},"949":{},"950":{},"951":{},"952":{},"953":{},"954":{},"955":{},"956":{},"957":{},"958":{},"959":{},"960":{},"961":{},"962":{},"963":{},"964":{},"965":{},"966":{},"967":{},"968":{},"969":{},"970":{},"971":{},"972":{},"973":{},"974":{},"975":{},"976":{},"977":{},"978":{},"979":{},"980":{},"981":{},"982":{},"983":{},"984":{},"985":{},"986":{},"987":{},"988":{},"989":{},"990":{},"991":{},"992":{},"993":{},"994":{},"995":{},"996":{},"997":{},"998":{},"999":{},"1000":{},"1001":{},"1002":{},"1003":{},"1004":{},"1005":{},"1006":{},"1007":{},"1008":{},"1009":{},"1010":{},"1011":{},"1012":{},"1013":{},"1014":{},"1015":{},"1016":{},"1017":{},"1018":{},"1019":{},"1020":{},"1021":{},"1022":{},"1023":{},"1024":{},"1025":{},"1026":{},"1027":{},"1028":{},"1029":{},"1030":{},"1031":{},"1032":{},"1033":{},"1034":{},"1035":{},"1036":{},"1037":{},"1038":{},"1039":{},"1040":{},"1041":{},"1042":{},"1043":{},"1044":{},"1045":{},"1046":{},"1047":{},"1048":{},"1049":{},"1050":{},"1051":{},"1052":{},"1053":{},"1054":{},"1055":{},"1056":{},"1057":{},"1058":{},"1059":{},"1060":{},"1061":{},"1062":{},"1063":{},"1064":{},"1065":{},"1066":{},"1067":{},"1068":{},"1069":{},"1070":{},"1071":{},"1072":{},"1073":{},"1074":{},"1075":{},"1076":{},"1077":{},"1078":{},"1079":{},"1080":{},"1081":{},"1082":{},"1083":{},"1084":{},"1085":{},"1086":{},"1087":{},"1088":{},"1089":{},"1090":{},"1091":{},"1092":{},"1093":{},"1094":{},"1095":{},"1096":{},"1097":{},"1098":{},"1099":{},"1100":{},"1101":{},"1102":{},"1103":{},"1104":{},"1105":{},"1106":{},"1107":{},"1108":{},"1109":{},"1110":{},"1111":{},"1112":{},"1113":{},"1114":{},"1115":{},"1116":{},"1117":{},"1118":{},"1119":{},"1120":{},"1121":{},"1122":{},"1123":{},"1124":{},"1125":{},"1126":{},"1127":{},"1128":{},"1129":{},"1130":{},"1131":{},"1132":{},"1133":{},"1134":{},"1135":{},"1136":{},"1137":{},"1138":{},"1139":{},"1140":{},"1141":{},"1142":{},"1143":{},"1144":{},"1145":{},"1146":{},"1147":{},"1148":{},"1149":{},"1150":{},"1151":{},"1152":{},"1153":{},"1154":{},"1155":{},"1156":{},"1157":{},"1158":{},"1159":{},"1160":{},"1161":{},"1162":{},"1163":{},"1164":{},"1165":{},"1166":{},"1167":{},"1168":{},"1169":{},"1170":{},"1171":{},"1172":{},"1173":{},"1174":{},"1175":{}},{"0":{"bias":-1.1426273008394658,"weights":{"0":0.1484666687381176,"1":-0.41093967744744503,"2":0.19566849681982768,"3":-0.36582030861591763,"4":-0.5092876660835319,"5":-0.5845596469377741,"6":-0.5218822132326351,"7":-0.4108202333997082,"8":-0.026124284091075724,"9":0.5199408989332845,"10":0.6544457118727879,"11":0.15435473357990825,"12":0.3447666328038644,"13":0.38434161354777524,"14":0.036464085902729405,"15":-0.2776936264753104,"16":-0.5845869508130632,"17":-0.21045420856235666,"18":-0.3733200150990528,"19":-0.17406337098440838,"20":-0.7345334871016235,"21":-0.169618569786188,"22":-0.05503284407527906,"23":0.28842695247609507,"24":-0.3460287248142558,"25":-0.3718707741597347,"26":0.11223196383793003,"27":0.17502258246400493,"28":0.7709850430809199,"29":0.21455138211426258,"30":0.09037988849386279,"31":-0.06569938683437782,"32":-0.08813773117638117,"33":-0.20038246388202843,"34":-0.29820577267053633,"35":-0.4434143574562092,"36":-0.05048533869406948,"37":-0.18897025141428647,"38":-0.41708876348489954,"39":-0.149148840416087,"40":0.33449282895004506,"41":0.2972560617458062,"42":-0.2859318961997601,"43":-0.34976733475916505,"44":-0.28916679348559354,"45":0.11970535996929454,"46":0.5904028686736417,"47":0.3947911224585319,"48":-0.04085871006617233,"49":-0.08792751705756369,"50":-0.07128934225866859,"51":-0.23282695684584578,"52":-0.25653372113846873,"53":-0.5225706492823609,"54":-0.126309040166823,"55":-0.3629585267548997,"56":-0.23152570222499672,"57":-0.18375645167402607,"58":-0.26540020249153395,"59":-0.29805415830191806,"60":-0.34370887339295814,"61":-0.3002344346618324,"62":-0.34312770094178113,"63":0.04662945152923972,"64":0.48399200474064463,"65":0.16594931187991716,"66":0.07942499726020492,"67":-0.18859483485082748,"68":-0.2103064083082189,"69":0.11394478647014683,"70":-0.008562581902372555,"71":-0.14486653700638288,"72":-0.08549009384028818,"73":-0.10216732710468217,"74":0.04522910719001377,"75":0.257117114603477,"76":0.06715434101875539,"77":-0.10320743383734192,"78":-0.31436461882177114,"79":-0.23944229177527354,"80":-0.15662754944188279,"81":-0.3372750033478777,"82":-0.04195845452329583,"83":-0.28751252979201,"84":-0.09955586805245645,"85":0.1631367962001386,"86":-0.10702081828764055,"87":0.08803921588047721,"88":-0.28326621871092555,"89":-0.129170679321329,"90":-0.2579064891392477,"91":-0.4360448336441899,"92":-0.3187726885138415,"93":0.05276948779200857,"94":-0.015002580935050377,"95":-0.2107059129745367,"96":-0.1996848126797874,"97":-0.16512187662709124,"98":-0.17332431833819542,"99":-0.11497582593933765,"100":0.10215286470992764,"101":-0.29375940438788456,"102":-0.04969302600328533,"103":-0.1876896825066261,"104":-0.1444663646876368,"105":-0.4003379737846034,"106":0.2940660861195799,"107":-0.22510627793775795,"108":-0.1795931175533443,"109":-0.3531544339237999,"110":-0.21347513888299197,"111":-0.07397906466014045,"112":0.12153738310711813,"113":-0.1632567412381122,"114":-0.10900625664815909,"115":0.32919574228367265,"116":0.20049017999685112,"117":0.009407991161323586,"118":-0.1681013165275001,"119":-0.32824809087027146,"120":-0.10546379965078795,"121":-0.20227512775475426,"122":-0.2125596014091197,"123":-0.35815807808400846,"124":0.18590657837768548,"125":-0.11036572066220086,"126":-0.6209417201564692,"127":0.170714251840279,"128":0.5843875463523528,"129":0.278616018059708,"130":-0.11954327534908436,"131":-0.24585567433616212,"132":-0.3730021030551637,"133":0.05026092068558339,"134":0.4445349673574465,"135":0.20562825147699706,"136":-0.17992055184069414,"137":-0.4348443761275996,"138":-0.06321181246657483,"139":0.44229526887481935,"140":0.43283207277879326,"141":-0.40176127551437874,"142":-0.5259571034865953,"143":-0.3731938783632271,"144":-0.43371883223542085,"145":0.0742212860078161,"146":0.6952175022195429,"147":0.24416248214209715,"148":-0.05027856046141216,"149":-0.31522581218057144,"150":0.03571458796874077,"151":-0.6647837474661348,"152":-0.8973933254295563,"153":-0.48380061765592064,"154":-0.4628884210584828,"155":0.6963892448588666,"156":-0.429935861181706,"157":0.5469068903997738,"158":0.18214550430626156,"159":-0.3549994929262204,"160":-0.3758468310578048,"161":-0.4757641193153314,"162":-0.0022624145571247057,"163":-0.35420566641414974,"164":-0.6577800773306705,"165":-0.337192570379588,"166":-0.2265715286362587,"167":-0.1408513867514986,"168":0.29046792118481285,"169":0.6189609650395217,"170":0.0504943466129376,"171":0.04683783786808525,"172":-0.6604426691916201,"173":0.092495251056714,"174":0.1480600437908268,"175":0.06891128339807157,"176":-0.4431846747863687,"177":-0.15208488060249262,"178":0.3917696727523489,"179":0.5725054940206529,"180":-0.5665996345311668,"181":0.3260550247220334,"182":-0.04879586912598615,"183":-0.07178254471441053,"184":-0.5473333294768832,"185":-0.034587935050523246,"186":-0.10296687730670497,"187":-0.04489199026571601,"188":-0.07245594809218511,"189":-0.01757397082573586,"190":0.05375558804963366,"191":0.319808441255577,"192":0.023866508299086122,"193":0.06605451055750848,"194":-0.6620352666140994,"195":-0.16797175158633373,"196":0.2695073411396925,"197":1.055634241553774,"198":0.011587104836510306,"199":-0.3867846245301146,"200":-0.22071627908329078,"201":0.1586757377802499,"202":0.4749402538535953,"203":0.4814529425436307,"204":0.22584441882994288,"205":0.26715428352434245,"206":-0.17120979608392506,"207":-0.23806675472462982,"208":-0.29350598158538754,"209":0.13665055111722763,"210":-0.45491414509389416,"211":-0.40717266878911695,"212":-0.031478053111583436,"213":-0.27880637300222183,"214":0.05941725898183316,"215":-0.06492998545905128,"216":-0.2492434789152729,"217":-0.40204531437794877,"218":-0.21888857787346003,"219":0.13104047362917115,"220":0.6514289672251045,"221":0.6289002348693713,"222":-0.2921951810045148,"223":-0.11330592405866072,"224":-0.2982202758601657,"225":-0.17639504594956626,"226":-0.2811081389954932,"227":-0.19425846375588735,"228":-0.12124264347128406,"229":-0.1323177587851306,"230":-0.14506228365051083,"231":-0.1426831096655302,"232":-0.01853920604848961,"233":0.1138476804713257,"234":-0.0418809557059206,"235":0.10838837326022349,"236":-0.3359391414392304,"237":0.032516635438571154,"238":-0.1449796547916545,"239":0.09667156004700538,"240":-0.18932457388488694,"241":0.005547356831776639,"242":-0.20582891242546317,"243":0.4014648660037084,"244":-0.07132515200543171,"245":-0.34147053886311923,"246":-0.30063672792160395,"247":-0.47182698434259174,"248":-0.26982703115040024,"249":0.23726381832336718,"250":0.024485834310092408,"251":-0.2900762177648236,"252":0.1019175544588593,"253":0.08936567812923882,"254":-0.11815713672603058,"255":0.3122601527852557,"256":-0.03960550347306174,"257":0.04207180986590754,"258":-0.11049324120899234,"259":-0.057845607065283,"260":-0.160992527664461,"261":0.2670337216865596,"262":-0.07246224529388354,"263":-0.016815692800799604,"264":-0.3013550290105254,"265":-0.2437486655154131,"266":-0.043262532634890175,"267":0.24938059181187278,"268":-0.06320037219352723,"269":-0.38411220587756456,"270":-0.21251346956232908,"271":0.40144077850425636,"272":0.8564629928501306,"273":0.11306336662038041,"274":-0.080935673438551,"275":-0.22011173859846178,"276":0.1353067701582884,"277":-0.174279160363061,"278":0.23155056033936675,"279":0.3036204856741644,"280":-0.10544965985806956,"281":-0.007986101675715127,"282":-0.3371652557243333,"283":0.03787263756321885,"284":-0.013250406007564513,"285":-0.36493517402308173,"286":0.04062311696571605,"287":-0.1448641268452694,"288":-0.4252753791690073,"289":0.4554554769410961,"290":0.5724156286036161,"291":0.10339780989457811,"292":-0.25497105338272114,"293":-0.3471715592142732,"294":0.12663495511855893,"295":1.2805094122812177,"296":0.6978228177076307,"297":-0.6068768353400708,"298":-0.7151413605999707,"299":-0.35556215498820115,"300":-0.39169295146594335,"301":0.19884857287420285,"302":-0.008398356326926704,"303":-0.1159225663227928,"304":-0.1714486757160799,"305":0.056496801744135294,"306":-0.058434442175048285,"307":0.10966817605669173,"308":-0.35482703855696474,"309":-0.46139304116529517,"310":0.005757837128580548,"311":-0.05370098604806704,"312":-0.03083728645188121,"313":0.9394397887195678,"314":0.28468439328308703,"315":-0.37397368957590826,"316":-0.2669372320069644,"317":-0.1763611480171287,"318":0.2404275127487966,"319":-0.11297562788415445,"320":-0.2770605543492295,"321":-0.18651702074626436,"322":-0.018274613545363375,"323":0.0941223092557684,"324":0.21791010590936574,"325":0.265383166862658,"326":-0.4518418243693222,"327":-0.08266006438218217,"328":0.03923317785270825,"329":0.18378553402381548,"330":-0.2204219118969631,"331":-0.06296775190364154,"332":-0.46281683870256185,"333":-0.2898825661971415,"334":-0.020155169724540022,"335":0.16201054270862048,"336":-0.18517947308368995,"337":0.22134978086144044,"338":0.22721655555552267,"339":0.19523997986753547,"340":-0.12362460762784167,"341":0.18766686756715784,"342":0.1706292173940476,"343":0.35285688761198314,"344":0.23687922631349667,"345":-0.09435707173080711,"346":-0.05116028804267375,"347":0.2742421290894461,"348":-0.2787921914175416,"349":0.2533637174639185,"350":0.04029509865532933,"351":-0.09230498073126177,"352":-0.24866899901876596,"353":-0.29234016204360924,"354":0.11234328422027624,"355":0.2368245816884949,"356":-0.004606644291609626,"357":-0.18563660535272603,"358":-0.223327871061367,"359":-0.009641106397031559,"360":0.2864203933488913,"361":0.2332569688561101,"362":-0.0020078531441780467,"363":-0.14365650377335384,"364":-0.21399510099115593,"365":0.5346913479237421,"366":-0.08011080705445167,"367":0.11184264436097147,"368":-0.054720099168680106,"369":0.22431977217729793,"370":-0.10159451065386592,"371":0.42893413021672394,"372":0.2606242025205402,"373":0.14374572005602224,"374":-0.046365147551885096,"375":-0.4968185761900537,"376":-0.4940671979716091,"377":0.09115666111941564,"378":-0.054186899952325236,"379":0.04621366383456531,"380":0.24395388939062887,"381":0.032276321477011975,"382":0.13039654232374545,"383":0.24261637380334206,"384":-0.06792659964270202,"385":0.03493830571283781,"386":-0.2439110864566191,"387":0.08206920188993236,"388":0.238887181808603,"389":0.23295850605486512,"390":0.026769535580744547,"391":-0.1481507059315904,"392":0.009218219011760329,"393":0.3174378084988034,"394":0.11504975653478579,"395":-0.11462837187755318,"396":0.15614934059260088,"397":0.15610357182819884,"398":0.25677073161217767,"399":0.10429394108751994,"400":-0.17742851909792814,"401":-0.08955686488212111,"402":0.15527632947875353,"403":0.07536640914321291,"404":0.054414111701032074,"405":-0.05611038662552404,"406":0.05144431250682028,"407":0.41788921988602523,"408":-0.10686027126924653,"409":-0.12330159111757724,"410":-0.25859747444534315,"411":0.4470176277452127,"412":-0.05907204686942046,"413":-0.1320370568874436,"414":-0.2738067762423951,"415":-0.2795276602672658,"416":-0.10978128461017264,"417":0.14236688328911423,"418":-0.17536506169560528,"419":-0.08155459642607545,"420":0.20978856126672973,"421":0.3799036932701307,"422":0.09964250893666635,"423":-0.14406797493114767,"424":0.1270848390988063,"425":0.1747671600477712,"426":0.32438470399225444,"427":0.08863505823851886,"428":-0.164337414307779,"429":0.02089543021754722,"430":-0.01965257659780674,"431":0.12744557923552172,"432":0.14476261280329566,"433":-0.03702315245280755,"434":0.07529548148808818,"435":0.5909174959438231,"436":0.07475997864121825,"437":-0.01474313248892312,"438":-0.03454411247668857,"439":0.37535744671078747,"440":0.31443931271384973,"441":-0.023782916827181595,"442":0.06012954449969737,"443":-0.18310596837849774,"444":0.27496762267048336,"445":0.307617384598882,"446":0.2251823462104066,"447":0.031118390781442677,"448":0.2164810758289821,"449":0.129567208169433,"450":-0.20590297660737164,"451":0.05797202021240625,"452":-0.16871686903320537,"453":-0.013466405876638504,"454":0.3138064441027569,"455":-0.0360468360500637,"456":-0.2155464499065173,"457":0.38982431099197157,"458":0.3866939623845872,"459":-0.16605659955405824,"460":0.21517351253855513,"461":0.02410162442797482,"462":0.4325683187186764,"463":0.43167687882918954,"464":-0.37939341202646515,"465":-0.14344055203765535,"466":0.21135518580298948,"467":0.23809486569516491,"468":-0.15631674022271494,"469":0.19648546845501655,"470":0.323026502377466,"471":0.1389746074309238,"472":0.41102146661530575,"473":0.1922592475138963,"474":0.3882611215239815,"475":0.2945032403306256,"476":-0.4475936858276625,"477":-0.5469175918182254,"478":-0.005008198197728874,"479":0.14493823879288698,"480":0.29438853876546145,"481":0.2824851097584811,"482":-0.10061705895552941,"483":-0.14670855891776488,"484":0.2107132125257177,"485":0.32861768307330225,"486":-0.03693786427398449,"487":0.175897284197313,"488":-0.4502066475766813,"489":-0.02754441620815151,"490":-0.2055376026178931,"491":0.3592684644317237,"492":0.02697664199184192,"493":0.007446451737737181,"494":-0.09163944321035777,"495":-0.24959325036391855,"496":0.01521339438069958,"497":0.15533680922320336,"498":-0.6710875052404319,"499":-0.1178848290280954,"500":-0.19692070601653172,"501":-0.21162940077402634,"502":-0.2895307364371545,"503":0.6140290977212293,"504":0.25748432663308896,"505":0.6977281771976098,"506":-0.20584312076572855,"507":0.008248462100353243,"508":-0.2854908657338906,"509":-0.07541023770656953,"510":0.22065797768681408,"511":0.4654089938454732,"512":0.29444032574571855,"513":-0.21049234075918405,"514":-0.04091197476127888,"515":-0.03050023058151056,"516":-0.3276966529771684,"517":0.503816655507074,"518":-0.019206641778390203,"519":-0.40666589412919185,"520":-0.4373669548617537,"521":-0.2686016628961833,"522":-0.08706428345580614,"523":0.010704935262725488,"524":-0.2025483421147344,"525":-0.07286887737425099,"526":0.20071848444673474,"527":-0.04600499342969622,"528":0.11098868922425412,"529":0.14232170910383696,"530":0.11672590794412496,"531":-0.2948617143406064,"532":-0.32542157644618086,"533":-0.11810180084596811,"534":0.1761435080833606,"535":0.28487973796194677,"536":0.15467766529204852,"537":0.4219934903726837,"538":0.2178585382488226,"539":0.14588804467061442,"540":0.030049274061609177,"541":-0.10706174233093911,"542":-0.01401576092293976,"543":-0.44482536599461625,"544":-0.31175552132524315,"545":-0.23874143958732805,"546":0.15048679380644195,"547":0.19196821969957117,"548":0.33380883008290785,"549":0.0964663873428588,"550":0.34281543038965456,"551":0.2894140958902367,"552":-0.08388887106337185,"553":0.023282015258673367,"554":-0.12447499082245346,"555":0.16502676742072564,"556":0.10384036482339054,"557":-0.0296675067767657,"558":0.016825978062450318,"559":0.2400829000371689,"560":-0.027691260680824403,"561":-0.06378093621667719,"562":0.09693152692261885,"563":0.23972722938207816,"564":-0.10593913106884238,"565":-0.07504316323663619,"566":-0.006833021536052999,"567":-0.043226095829942975,"568":0.25374053400199803,"569":-0.1465460086553813,"570":0.26548209410483115,"571":0.14738022064189496,"572":0.15105994388642585,"573":-0.04680366701296042,"574":0.16339526371055768,"575":0.22821814111030403,"576":0.18834066694557486,"577":-0.011984598627387264,"578":0.14464428807981722,"579":-0.10599865927205927,"580":0.18512727965263392,"581":0.18776638661902104,"582":-0.1307830773300432,"583":-0.09670745329779282,"584":0.1950991060737163,"585":0.09155184329924697,"586":-0.13702225857604372,"587":0.24256335747645272,"588":0.3323112792028832,"589":0.1741178428543569,"590":0.14017464704787722,"591":-0.02024619350654125,"592":0.007148977041836389,"593":0.4654033427122084,"594":0.27643399691131926,"595":0.025747309062903834,"596":0.03577721262035366,"597":-0.13313068742329867,"598":-0.05970899133363393,"599":0.192659083849395,"600":0.01825803508932359,"601":0.1729053470039921,"602":-0.04728203056693919,"603":-0.02994948300489961,"604":0.11625648171174366,"605":0.028502725580226762,"606":-0.372384650597686,"607":-0.2277833522717547,"608":0.023524022975193733,"609":-0.08045675427057154,"610":0.06905827854191184,"611":-0.07951455601536818,"612":0.25918882904597185,"613":0.42232659566484915,"614":0.024185445227210747,"615":0.04708038544261163,"616":-0.0019245368567558719,"617":0.173950808829722,"618":-0.2308202675682329,"619":-0.036222597314506305,"620":0.10066136469005557,"621":-0.08822107942894945,"622":0.2361013569718745,"623":-0.22419301282704984,"624":-0.05626563627111899,"625":-0.1630174307102754,"626":0.21447085681168002,"627":0.12659251458759035,"628":0.3694689708695882,"629":0.09243680188127563,"630":0.33555508362512304,"631":-0.016868506343490134,"632":-0.5010644628123299,"633":-0.3849243138056832,"634":0.19176273730036605,"635":0.14987475909270107,"636":0.05299199112106017,"637":0.4284029781939576,"638":0.5348306997023237,"639":0.1508405645229868,"640":0.12738742902366404,"641":0.19324777847247512,"642":0.21780042289439683,"643":-0.1796638402928082,"644":-0.01495000817801027,"645":-0.5230960429746059,"646":0.1046732225377044,"647":-0.0024353652040045165,"648":0.17706943720954155,"649":0.027399055651809782,"650":-0.12915271219030208,"651":-0.1456048923861147,"652":0.07279958294451733,"653":0.43385531202333527,"654":-0.0892894023381632,"655":0.11336990477893925,"656":-0.14334360901835638,"657":-0.1910400707620426,"658":-0.05266200894335213,"659":0.505841971223194,"660":0.1469560998377356,"661":0.30784385343252724,"662":0.10455452191502167,"663":-0.3686577211063064,"664":0.2711877749916667,"665":-0.004721442221263696,"666":-0.13719231946187405,"667":-0.04123009454647415,"668":-0.4098977804499804,"669":-0.2766459743723481,"670":-0.17873098786488706,"671":0.2992501579377366,"672":0.1153678499111023,"673":0.6055545099252528,"674":-0.21415328315939575,"675":-0.4061605653303545,"676":-0.23209442990329268,"677":-0.2516455269794125,"678":-0.07015369254156179,"679":0.16756363770147306,"680":0.03828801989573516,"681":-0.17771454517077273,"682":-0.1376600619406145,"683":0.058198327709342995,"684":-0.31747468397360745,"685":0.22364942782271072,"686":-0.21853670192776842,"687":-0.04773111550351452,"688":0.04015688981846729,"689":-0.18251066023064766,"690":0.018859517494660454,"691":0.209064465742454,"692":-0.20648618560448373,"693":-0.053497416050792265,"694":0.11467511387984826,"695":0.4577400662133679,"696":-0.13016128700882473,"697":-0.005180730382879865,"698":-0.17136228579857954,"699":-0.5272255492515294,"700":-0.18376772505266983,"701":0.08035476167396934,"702":-0.05652612418290045,"703":0.22292375445741136,"704":0.30773571679948125,"705":0.2008612300666645,"706":0.4490366705310576,"707":0.14028916501977962,"708":0.02244164480583617,"709":0.07507595929087404,"710":-0.1367656443131765,"711":-0.3085657930425204,"712":-0.011832650178493213,"713":0.028415849642624367,"714":0.04259429621369205,"715":-0.13825940470941186,"716":0.10426369772909565,"717":0.24369579644060643,"718":0.38313950864355895,"719":0.2755926161712754,"720":-0.3156869562462076,"721":0.1005670785524278,"722":-0.06507392604405186,"723":0.22232905035825906,"724":0.2497102735986623,"725":0.16645616809713443,"726":0.14190344499611224,"727":0.13936340026170335,"728":0.16675071884075265,"729":-0.04102932576754633,"730":0.10194419685062048,"731":0.3782711648519103,"732":-0.0782129020329406,"733":-0.1015690918296063,"734":0.009780475357606545,"735":0.10050230571176057,"736":0.081426435631504,"737":0.14244496724343192,"738":0.19978223464059025,"739":-0.09538609505743595,"740":-0.35926468263281125,"741":-0.30849324675130674,"742":0.07543533009281068,"743":0.01622414559610286,"744":0.26816061674393066,"745":0.033398464099722414,"746":0.10113280577556404,"747":0.2273767180455012,"748":0.17464678272571285,"749":0.22705054649127576,"750":0.19578515686606773,"751":0.2935538850610569,"752":0.23452735239779982,"753":0.06586044719777148,"754":-0.1825150588773921,"755":-0.01904466992068445,"756":0.048649490539481796,"757":0.1953181426545597,"758":-0.11220193233390838,"759":0.004222454406012841,"760":0.15493457577228575,"761":-0.1276155431638576,"762":-0.13262437230286458,"763":0.16644436756369776,"764":-0.037871655697656804,"765":-0.19095221090258896,"766":-0.4144269172310353,"767":-0.17486632750352893,"768":0.03801597184410705,"769":0.2777495100626348,"770":0.033975353549593065,"771":0.11289776594727771,"772":-0.03664714043671089,"773":0.2975056391394038,"774":-0.15541405326786478,"775":0.2784356914265455,"776":0.15963375940970387,"777":-0.010290044100986237,"778":0.05907048192028291,"779":-0.12873584741189623,"780":-0.033690088822650226,"781":0.10884789054074581,"782":0.1301658562404911,"783":0.25451593195641914,"784":-0.22103932613882632,"785":0.03157775318542112,"786":-0.04341450839425368,"787":0.22469291422466656,"788":-0.1332378619326007,"789":-0.05713364926977345,"790":0.08154504658573515,"791":-0.1474812734181365,"792":-0.24909636017591866,"793":0.03407492608862155,"794":0.33474070409617795,"795":0.1462560484432735,"796":0.2390447257478771,"797":0.10215997228358985,"798":0.05404437364283269,"799":0.10633009655309035,"800":-0.41876306044964146,"801":-0.5258289127316098,"802":-0.09049957643226972,"803":-0.027375220024273582,"804":-0.023781784432021832,"805":0.10351792976668553,"806":0.41371223204823215,"807":0.19755583344275998,"808":0.1827465255140767,"809":-0.03581493460838669,"810":-0.19545785403579774,"811":0.12502623557716003,"812":-0.058035083043884064,"813":-0.23232694466400494,"814":-0.19460523640096475,"815":-0.18248086586549336,"816":-0.1599931601190005,"817":0.15078250914758987,"818":-0.13203523140781126,"819":-0.027997301126967238,"820":0.11422478506219684,"821":0.27827597697221623,"822":0.06640227617799217,"823":-0.32659316739667316,"824":-0.33632844204326406,"825":-0.40190636723146006,"826":-0.053754252214926766,"827":0.2939043309870692,"828":-0.034334612422222015,"829":0.12319422898275738,"830":0.3452888719479487,"831":-0.16414458815991217,"832":0.3293264671759726,"833":-0.03489609390080609,"834":-0.15578489139488677,"835":0.15552139012039073,"836":-0.2780206300401397,"837":-0.06752253480096485,"838":-0.06949100244819491,"839":0.19225773274203917,"840":-0.14603550528711579,"841":-0.024615670965161852,"842":-0.251788404041503,"843":-0.1932851369024093,"844":-0.08991586778940563,"845":0.04377023356821941,"846":-0.17660748354737688,"847":-0.05971630226745711,"848":0.06313473903209424,"849":-0.19484618517709407,"850":-0.002121601517190856,"851":-0.11719027442430996,"852":0.16713013264677734,"853":0.11106775323433656,"854":0.004641490257021779,"855":-0.12157105993595288,"856":-0.35370292972272843,"857":-0.08373785880756429,"858":-0.09290516018415167,"859":-0.06506774855444225,"860":0.0392295146038968,"861":0.0103976063578329,"862":0.06794014728976278,"863":0.18008264568229657,"864":-0.13339235102841027,"865":-0.11263452340324909,"866":-0.223147756804905,"867":-0.4053252122871774,"868":-0.38061885341545015,"869":0.10421593955534558,"870":-0.021883817543767455,"871":-0.12766844781863068,"872":0.23814515943246575,"873":0.1413454297535693,"874":0.18842196441291156,"875":0.359232578153817,"876":-0.1430279160414016,"877":-0.23982545840092134,"878":-0.4014533965588756,"879":-0.09300972046242686,"880":0.15865570831019393,"881":0.1930567310392561,"882":-0.18076864414860813,"883":-0.4199093607306462,"884":-0.025064260689876893,"885":-0.03074472105016,"886":-0.07269218733947491,"887":0.25985269016555,"888":0.013876933523819603,"889":0.05398371069079353,"890":0.04868840947092296,"891":0.10336615050039633,"892":0.37888132701570076,"893":0.2401034899364634,"894":0.022325795940002956,"895":0.1374779546210194,"896":0.01899649026147705,"897":0.12103432856029608,"898":0.30210892992029714,"899":0.022373608885121507,"900":-0.19444217174395576,"901":-0.379043560237373,"902":-0.09183672919558022,"903":0.12700710340199792,"904":0.02026167380862973,"905":0.22334648163068205,"906":-0.2760686701876597,"907":-0.4073096342437994,"908":-0.0860294100337128,"909":-0.03084907501094165,"910":-0.0037910151959385354,"911":-0.0680357752685971,"912":-0.00830482811568019,"913":-0.042241824250395,"914":0.013670451726333488,"915":-0.0837999598566196,"916":0.31353039450975606,"917":0.2055205402181705,"918":-0.048836064628258076,"919":0.43746336747304354,"920":0.23756939875126515,"921":0.06457752167329224,"922":-0.0981944032297022,"923":0.020677990598125615,"924":-0.12911007747695283,"925":-0.08542148178785898,"926":-0.15289406512446835,"927":-0.19140968668917377,"928":0.04120345141371936,"929":0.09853611624460508,"930":-0.3976020506238704,"931":-0.16969089804034754,"932":-0.2365371557390775,"933":0.004202295767056005,"934":-0.07077065865513092,"935":-0.11585161697998314,"936":-0.10298508703421069,"937":0.15114410366789469,"938":0.31978786172188267,"939":0.12407267736076229,"940":0.1133601456869669,"941":0.10376095289259576,"942":0.08083754609378783,"943":0.1568385549087917,"944":0.19912927328733832,"945":-0.12291195107605118,"946":0.1100231894681132,"947":-0.08767474666945127,"948":-0.4177145981149377,"949":-0.08118504860058601,"950":0.0610499304859938,"951":-0.025447243475760127,"952":0.02494834013619839,"953":-0.16993841280041358,"954":-0.16134819174300208,"955":-0.03365334677829044,"956":-0.16394803355873971,"957":0.11390930925785069,"958":-0.0676155655689054,"959":-0.35079109005734427,"960":-0.19928492979577864,"961":-0.0464959493160817,"962":0.3471099536364158,"963":0.04597381565046161,"964":-0.01337701530763057,"965":-0.04010577682269014,"966":-0.12885352458148322,"967":-0.09520578048402453,"968":-0.21501352881494934,"969":-0.24027233401903872,"970":0.06769374658513863,"971":-0.09512130002596088,"972":-0.21486778895973138,"973":0.05137599252460594,"974":0.24969046934319392,"975":-0.11394993893213545,"976":-0.06022955314840737,"977":-0.29496329332736015,"978":0.09058054504007987,"979":-0.05482510359480967,"980":-0.3788240496117358,"981":-0.19799435249367356,"982":0.04260429571962206,"983":-0.21098322453763424,"984":0.15698230167797517,"985":0.23718574543785878,"986":0.0327203192134257,"987":-0.04439560102245782,"988":0.03307530944188111,"989":-0.2730649940957653,"990":-0.3537445644078854,"991":-0.1242161343023212,"992":-0.5500128059186814,"993":-0.3678572583642449,"994":-0.24868748540486532,"995":0.20026449570662735,"996":0.18609385865516745,"997":0.12310592489018175,"998":0.08812343183397425,"999":0.09741742358528536,"1000":-0.03728288640064065,"1001":-0.03156086497444984,"1002":-0.1613007758696818,"1003":-0.013078797207419295,"1004":-0.3170217109270982,"1005":0.04097945708389638,"1006":-0.09356510500387835,"1007":-0.08803391222550296,"1008":-0.07749914086013716,"1009":-0.18539901198158695,"1010":-0.13954879696505218,"1011":-0.19202271071157143,"1012":-0.3615578513086962,"1013":-0.14063654552134694,"1014":-0.16677905790171746,"1015":-0.23666161048380346,"1016":-0.07878799683174728,"1017":-0.11683425730862186,"1018":-0.124691242520162,"1019":-0.07060925356274246,"1020":0.3014003753361203,"1021":0.1622155843705042,"1022":-0.19085548019085274,"1023":-0.17984362644620736,"1024":-0.3388303345959671,"1025":0.09390533823426567,"1026":-0.035161008860840906,"1027":-0.11896597747353894,"1028":-0.009558683318538532,"1029":-0.25592239566565494,"1030":0.16654180496127416,"1031":-0.10810525719949059,"1032":0.12973870663623094,"1033":0.0316416948139697,"1034":-0.08356741716845935,"1035":0.06450468570404091,"1036":0.30630662417679666,"1037":0.14423087641345753,"1038":-0.2739906325402675,"1039":-0.027151020735261985,"1040":0.20599250334068397,"1041":-0.16464322642185863,"1042":0.2013984503689521,"1043":0.04365829604174182,"1044":0.01963654584335623,"1045":-0.12220618799187731,"1046":0.1462502527562197,"1047":-0.10462690732681765,"1048":0.23879972369043087,"1049":0.21584014345463837,"1050":-0.13018214332810657,"1051":0.011862160980124789,"1052":-0.1264693612279423,"1053":0.022397271302789054,"1054":0.0914358966808299,"1055":-0.018560033424410056,"1056":-0.21093305747701602,"1057":0.12276735360249755,"1058":0.03769581724245216,"1059":-0.042765953222387576,"1060":-0.0144510806817791,"1061":0.3024899742814122,"1062":-0.2291659966617574,"1063":0.029723851054505094,"1064":0.07037551345106975,"1065":-0.32772545335857434,"1066":0.014433654077983811,"1067":0.1333217150498669,"1068":-0.045153486743465046,"1069":-0.13447528223376462,"1070":0.15634525587945286,"1071":0.0853324514309102,"1072":0.0010833433252481145,"1073":0.239817507127151,"1074":-0.40243833185766414,"1075":-0.16964539986801644,"1076":-0.22019022397325314,"1077":-0.015625410824551805,"1078":-0.06680938211835662,"1079":-0.07711912308677636,"1080":-0.09426894663962754,"1081":0.02001909542183436,"1082":-0.17605775432692405,"1083":0.07162272597027618,"1084":-0.032742563945881015,"1085":0.2543213463514766,"1086":-0.006110337708869137,"1087":0.28872761375594197,"1088":0.3084434524203949,"1089":-0.023462577992487535,"1090":0.2394703652841293,"1091":0.07703031150924634,"1092":-0.19704867410862706,"1093":-0.24313460128101838,"1094":0.015595720290842219,"1095":0.08677870677474278,"1096":0.2624805371908474,"1097":0.16544442525031738,"1098":-0.19104710342665102,"1099":0.07587381627516901,"1100":0.37280373812032697,"1101":0.05150505419932529,"1102":-0.05064154997215188,"1103":-0.12390174182138869,"1104":-0.19187873163857433,"1105":0.22591715148069758,"1106":0.07437510332533893,"1107":0.055407639188490794,"1108":0.05827016161887381,"1109":-0.2511442772033758,"1110":-0.1516483819053864,"1111":0.015621958041617414,"1112":0.059748977348163715,"1113":-0.12089743648011919,"1114":-0.07790590290565669,"1115":-0.21670783540572142,"1116":-0.464119415230736,"1117":0.10227869286908318,"1118":0.2755743548666311,"1119":-0.11699762652671408,"1120":-0.050545022144602984,"1121":-0.23224319470481936,"1122":-0.030528723792251883,"1123":0.11927710654892937,"1124":-0.04180556946257302,"1125":-0.2367058400490304,"1126":-0.09683422790034826,"1127":-0.12191834315291342,"1128":-0.2386422850137776,"1129":0.1955693546596876,"1130":-0.016184752234113215,"1131":0.09839532288977158,"1132":0.19079899269103268,"1133":0.12324719047006934,"1134":0.0787753848026917,"1135":0.12872035513018587,"1136":-0.008766092960797452,"1137":-0.22970221690348552,"1138":-0.17167884566290312,"1139":0.02138117367090086,"1140":-0.4018243451589602,"1141":0.20983808740494192,"1142":0.1806287205690693,"1143":-0.05243674189835051,"1144":0.01837726928119488,"1145":-0.42018683944696,"1146":-0.1754396152714122,"1147":0.2619464843942449,"1148":-0.23661715986211881,"1149":-0.006018880644962492,"1150":-0.12807072968731262,"1151":0.04431984899387108,"1152":-0.24420194091459343,"1153":-0.11133496817211981,"1154":-0.2740669823244985,"1155":-0.19666298901415077,"1156":-0.1498449383100669,"1157":0.17303356712120274,"1158":-0.10427783807618259,"1159":-0.1561402145549011,"1160":-0.47718982322553427,"1161":-0.3063924543779512,"1162":-0.5129032454398114,"1163":-0.12776747371206773,"1164":-0.29567480907710436,"1165":-0.03432339978330239,"1166":-0.07662507368585388,"1167":-0.009777327727700229,"1168":-0.18691876247881434,"1169":-0.2954742765446789,"1170":-0.17041852945596048,"1171":-0.1451114610792383,"1172":0.09121736621268574,"1173":-0.13275670996588804,"1174":-0.3607724629123373,"1175":0.10425390896397292}},"1":{"bias":-0.03984706355693789,"weights":{"0":-0.06333459108943555,"1":0.049557130507445715,"2":0.015863344597990603,"3":-0.12107852783009765,"4":-0.07647068822796413,"5":-0.21919333094134605,"6":0.12661911724122119,"7":-0.09301746105509448,"8":-0.10876598480466936,"9":-0.055974981695084344,"10":0.20491959928606837,"11":0.10276580715992849,"12":0.019279554440842867,"13":0.15925066541155028,"14":0.17482124815865463,"15":-0.09393849122482487,"16":0.0012302416568937952,"17":-0.20827380956742353,"18":-0.1052919396881955,"19":-0.039616436652012726,"20":0.1633893703528048,"21":0.12551671295793682,"22":-0.07762089200543001,"23":0.04244114925715881,"24":0.04808499744030589,"25":-0.08704276345893144,"26":-0.13732323873369484,"27":-0.14384671311544073,"28":0.12022848046362421,"29":-0.1401044477029377,"30":0.14548942322449995,"31":0.15604377910887934,"32":0.0413733887462857,"33":-0.06736720157612744,"34":-0.06909601224528951,"35":-0.21682815416199208,"36":-0.1364158267946946,"37":0.07831150512385977,"38":-0.19925569983391134,"39":0.13408080941295822,"40":-0.14465304834923456,"41":-0.015439570736579042,"42":-0.06543341598543803,"43":0.03954236176207944,"44":-0.11325057774102687,"45":-0.08718899015173133,"46":0.11927328587086428,"47":-0.004814017791213999,"48":-0.09843566874718229,"49":-0.05356940789400915,"50":-0.18180894178797968,"51":-0.06551354114078264,"52":-0.1609906856645566,"53":-0.013626073931071264,"54":0.1098033642672719,"55":-0.16007739126661355,"56":-0.07673106795847183,"57":-0.18035208106106218,"58":0.07880744481815467,"59":-0.11326248304086295,"60":-0.2017869746026035,"61":0.11218192955430499,"62":0.08202488250804683,"63":0.12353637099921362,"64":-0.11142122383516366,"65":-0.09214780612687165,"66":-0.024242740147758454,"67":-0.059845369947873386,"68":-0.14150822085011439,"69":0.04048282966304568,"70":0.05993798214428773,"71":-0.09082698520492793,"72":0.16636870467455178,"73":0.009555709347337491,"74":-0.12062274210998625,"75":0.015750864724003784,"76":0.15241623709581817,"77":-0.12738102291595133,"78":0.1713305569393818,"79":0.1690514248721645,"80":0.11528043366732997,"81":-0.011483360757850053,"82":0.12973520996493085,"83":-0.07197822899539087,"84":-0.009136552721432474,"85":-0.11531044339959365,"86":0.15648798243971707,"87":0.06237673475459923,"88":-0.15488517543300392,"89":-0.12306683960497514,"90":-0.172252980159122,"91":0.14152083629604986,"92":0.02865248755488392,"93":0.09703219007010368,"94":-0.1902828556608981,"95":-0.148671481067416,"96":-0.1905523579285359,"97":0.1516844176735966,"98":-0.0993015407206438,"99":-0.2052979494841471,"100":-0.15187371549589807,"101":0.16234893777271445,"102":0.13759942620370438,"103":0.09312358928245093,"104":0.010603377434119045,"105":0.14458209123601456,"106":-0.08499761956878253,"107":0.04439538571529241,"108":0.11647465504102235,"109":0.1799357298474044,"110":0.11252371375446192,"111":0.09362059069862987,"112":0.09175372802410056,"113":0.15924636018781924,"114":0.15257050257188093,"115":-0.0904763562265368,"116":-0.16104305488570494,"117":0.07868262749282955,"118":0.16259065442314227,"119":-0.03626512646529162,"120":-0.03354480145722653,"121":0.08973354109527404,"122":-0.0883372190245679,"123":0.018199239314398617,"124":0.15001944726150337,"125":-0.18273144946199316,"126":0.03950490042575016,"127":0.0534166514013108,"128":-0.11573650090265486,"129":0.06144292065945978,"130":-0.046509921545818074,"131":0.09537633399919042,"132":-0.03451236701844151,"133":-0.012259192669778301,"134":-0.005423673191359781,"135":-0.19801807743530156,"136":0.16449727394591315,"137":0.10305202154526964,"138":-0.030158201199948793,"139":0.19759148204852736,"140":-0.07778253729074228,"141":0.15090943007335048,"142":0.07423748138084697,"143":-0.19651218812846893,"144":0.06292560727925489,"145":-0.2017463640131,"146":-0.15562057195360013,"147":-0.0717556602130002,"148":-0.09788334242078742,"149":-0.05265934679504523,"150":0.01393692559168766,"151":0.060645360101773696,"152":-0.03215880911851803,"153":0.09332318590544689,"154":-0.1930447281649488,"155":-0.08964563077248633,"156":-0.04145187293200848,"157":0.21872371179624525,"158":-0.04802807731997305,"159":-0.13462589326073718,"160":-0.12777908486321113,"161":-0.024000152228858318,"162":-0.12737629355546534,"163":-0.19588055391505188,"164":0.14606789430089823,"165":-0.16097602630922128,"166":-0.05761036484456133,"167":-0.1404805101446318,"168":0.19223416529497905,"169":0.1328942495032293,"170":-0.05389140773483233,"171":-0.11973572938340833,"172":-0.20669987017407826,"173":-0.1133883320385053,"174":-0.04607370415255407,"175":-0.14281889125950245,"176":-0.07529461118586545,"177":0.16281703162207023,"178":0.2078905994495163,"179":0.15641569616404685,"180":-0.05864051001262364,"181":0.102030741667773,"182":-0.14764685106063713,"183":-0.17001226032036554,"184":-0.04274848473646605,"185":-0.18832214103148373,"186":0.11438260641086319,"187":0.18669318918686467,"188":0.17871060978752998,"189":-0.03553830927367225,"190":-0.1937148765749431,"191":-0.05876836000647696,"192":0.04080845994990695,"193":-0.05365629220624962,"194":-0.1519837122548506,"195":-0.1029428906887638,"196":0.16735996100764422,"197":0.11169281379883754,"198":-0.10573889050913923,"199":-0.16786856031701392,"200":-0.06264632133013376,"201":0.04566377634925743,"202":0.23359908162022489,"203":0.2073506219271264,"204":0.11194402311109378,"205":-0.14467519011858782,"206":0.07727211283858047,"207":0.02068693829348949,"208":0.13722786194705808,"209":-0.18423372278658826,"210":0.1573784166961339,"211":0.145882836634144,"212":0.08167285457880494,"213":-0.11810976614395673,"214":0.0363796079730771,"215":-0.14951414766965582,"216":-0.09706088271925586,"217":-0.16173457126038573,"218":0.030853357843777917,"219":-0.1674229562602926,"220":0.23460398822748169,"221":-0.13500688831977056,"222":-0.04058567851135401,"223":-0.1488610355914075,"224":-0.09827216730375835,"225":0.046043220261654416,"226":0.09751503070417163,"227":-0.18265668378064878,"228":-0.18586762232533136,"229":0.1397710391017863,"230":0.05745032504529664,"231":-0.09951514116516579,"232":-0.02286867377247403,"233":-0.006659496876035917,"234":-0.132044463951167,"235":0.03987245396135119,"236":0.06597676236850371,"237":0.041734513297692476,"238":-0.09320612889653997,"239":-0.040482692833418536,"240":-0.03925369779366511,"241":0.004786085402990875,"242":-0.14874275369869208,"243":-0.15150319817153796,"244":0.05200656897588112,"245":-0.017788487200744035,"246":0.12787479671700203,"247":0.16992197717477492,"248":0.11382319561447497,"249":0.0784282562337266,"250":-0.08507738093899316,"251":0.12050229683711615,"252":0.12116234292279787,"253":-0.10129748386166978,"254":0.12324843401583217,"255":-0.1433684434515949,"256":-0.16832333075464748,"257":-0.09783047130016874,"258":-0.09713023193183673,"259":-0.11808444875327695,"260":0.014045768910927148,"261":-0.09174076795079257,"262":-0.17974204351299347,"263":0.15077998090359057,"264":-0.040183468702726516,"265":0.012311920692610414,"266":-0.043459384329269525,"267":-0.09459614310891466,"268":-0.006383810047412063,"269":-0.14091424837756766,"270":0.07399294215814652,"271":0.1038007171078957,"272":0.1491161199964935,"273":-0.08313288604653994,"274":-0.10105313944420945,"275":-0.17757578766916704,"276":0.11595447171174049,"277":-0.03414154660628328,"278":0.19757349528239534,"279":0.13357596007241201,"280":-0.18385500716663522,"281":-0.137927925213939,"282":-0.06938443213433064,"283":0.16178517848744428,"284":-0.12484095888904055,"285":0.15607490333594218,"286":0.14579245146984526,"287":-0.21226036526280387,"288":0.09053548426388393,"289":0.11739653278386955,"290":0.19937411559142235,"291":-0.10856014504249363,"292":0.12264958381478816,"293":0.023670433798797078,"294":-0.049800242071094174,"295":0.004420885480834258,"296":-0.07964689899739912,"297":-0.1924288483626846,"298":-0.08902947999881111,"299":0.13825767044016923,"300":0.025675639477351984,"301":0.16603176884431392,"302":0.07947448184296164,"303":0.14545889534720952,"304":0.14758412735524867,"305":0.011239342410644358,"306":-0.04386565639619797,"307":-0.10170378139949543,"308":0.14268461626109258,"309":0.11517584511061037,"310":-0.03329036427814554,"311":-0.1820265641055557,"312":0.077624881206553,"313":-0.1115220167678908,"314":0.07132305661495635,"315":0.12146085663964969,"316":0.10362893717684686,"317":0.08152879033640154,"318":-0.11031332154555747,"319":-0.09002064423673911,"320":0.028437221852252576,"321":-0.16932382747243938,"322":0.17871216124974465,"323":-0.07704364120162276,"324":-0.06200341675520566,"325":0.14471714150948242,"326":0.04156461015749792,"327":0.1326813941390591,"328":-0.1607827697889721,"329":0.05605699590108083,"330":-0.22012803204417136,"331":-0.03505270447415776,"332":-0.1155566012478464,"333":-0.2049345692659493,"334":-0.10073769231497062,"335":0.06791808886805122,"336":0.021090062137195657,"337":0.10253226810685369,"338":-0.014699720129015222,"339":-0.1784259953781775,"340":-0.16741819747263686,"341":0.0011646225311021416,"342":0.20865459036166795,"343":0.016575623191117207,"344":-0.047076595029734845,"345":0.14148312141787805,"346":-0.19477492689446663,"347":0.1012520477605729,"348":-0.05639139392682304,"349":0.11692825296104117,"350":-0.07685579992335596,"351":-0.12657276496193953,"352":0.0819478000255812,"353":-0.007140048962969149,"354":0.06616205972534167,"355":-0.17752824688582522,"356":-0.014851754695042945,"357":-0.1474228667040829,"358":0.06311623479108164,"359":-0.051016855427629966,"360":0.057930628414138305,"361":0.039698719168461856,"362":-0.19942902914907376,"363":0.04609383207112197,"364":-0.09778220574774973,"365":0.1810727942254727,"366":-0.11710365312999284,"367":-0.13609997199990523,"368":0.046901660764386684,"369":-0.014878400104001365,"370":-0.07939080353604802,"371":0.19403793020085358,"372":0.04506509018192,"373":0.06489710794123416,"374":-0.02575688222475594,"375":-0.1250503062234667,"376":0.13049588988838023,"377":-0.0500578432556347,"378":0.07168777679867851,"379":-0.1839755620585338,"380":-0.09738846617060473,"381":-0.10362867165664712,"382":0.016450971275256295,"383":-0.17168032067315214,"384":0.14306133023213818,"385":0.16469391397131822,"386":0.14355272523243767,"387":-0.014140505958172093,"388":-0.1957877458617651,"389":0.09953342520664234,"390":-0.19704175192137038,"391":0.18236254691553047,"392":-0.12213651775585097,"393":0.08848001219998869,"394":-0.10897117920801808,"395":0.17902422096077042,"396":0.05345786958542854,"397":-0.18991645386789313,"398":0.04852747778841638,"399":-0.17395038857688705,"400":0.09455044376703421,"401":0.059399491291333956,"402":-0.175882910165639,"403":0.043118501017898124,"404":-0.16280070029974103,"405":0.00793705962501621,"406":0.04686495888380979,"407":-0.15597267859008487,"408":-0.005023554582232532,"409":0.14565391162487837,"410":-0.18779702620908056,"411":-0.07174577286430055,"412":-0.15419270538360016,"413":-0.13500890180761152,"414":-0.03630713535979298,"415":-0.21022633321573622,"416":0.1962004783062378,"417":0.2033774969942756,"418":-0.017720853216403567,"419":-0.15121445137044917,"420":-0.10220213339041034,"421":0.0023332548953527367,"422":0.18263816804123104,"423":-0.1557412204114454,"424":-0.09581227824603408,"425":-0.10033427617091666,"426":0.12092358502865379,"427":-0.1192998463199253,"428":0.13863946393160878,"429":-0.06254734638152046,"430":-0.003681169895644729,"431":0.16321963814670676,"432":-0.10683451669383813,"433":-0.04399028556702561,"434":-0.1303458259544158,"435":0.1017002374615045,"436":-0.16702198323879272,"437":-0.02178215627466747,"438":-0.010648294140565746,"439":-0.125154252657271,"440":-0.03441543426575045,"441":-0.16361018571350938,"442":0.17668558320643274,"443":0.14823804838530288,"444":-0.15832966869286116,"445":0.0644105389220178,"446":0.11686758774895449,"447":0.009018671721853985,"448":0.0447793314284905,"449":-0.18332747843243202,"450":0.012760023103763637,"451":0.03065100580787351,"452":0.13134707245885066,"453":-0.03336680631880792,"454":-0.06221246407410258,"455":0.15916922457336863,"456":-0.1708046123912005,"457":-0.011960431504870823,"458":0.1518304518278571,"459":-0.0685498075939789,"460":0.04078692534242184,"461":-0.10364292489235942,"462":-0.03111671866189066,"463":-0.02053784585169596,"464":-0.07216826064652222,"465":-0.06680723849573728,"466":-0.10934031275682522,"467":0.06933456731983635,"468":-0.1537152161415315,"469":0.11591698184131655,"470":0.0782486026805621,"471":-0.12148968969427777,"472":-0.12788997049941814,"473":0.12536310893916877,"474":-0.001595530858019756,"475":0.15495837935239565,"476":-0.22491142251824506,"477":0.0667907818738445,"478":-0.1426842166378429,"479":-0.003875866447546071,"480":-0.1826100632177135,"481":0.003989335831313058,"482":0.09173873828654949,"483":0.018617542892781322,"484":0.008770685032013345,"485":-0.14883914664657127,"486":-0.1733026378733227,"487":-0.1915726940777328,"488":0.01842814226918853,"489":0.039519169175949505,"490":0.04095558169745862,"491":0.05388531967405765,"492":-0.18951615520064696,"493":-0.11572456655179172,"494":0.023103249729929144,"495":-0.17573044309552555,"496":-0.039031430446645414,"497":0.09240711027770661,"498":-0.2335011162691261,"499":0.05868090746453836,"500":0.17189439559771283,"501":-0.1098702773129913,"502":0.005694428238701105,"503":-0.013699848625698384,"504":-0.016956628306753548,"505":0.16293488296002442,"506":0.060501547591243474,"507":0.08031567601882549,"508":-0.13751343273275915,"509":0.14302478749182737,"510":0.0978197252902263,"511":0.04941389365003505,"512":-0.10198683988858835,"513":-0.16510437830853666,"514":-0.16487817023474505,"515":-0.07269950766211489,"516":0.02181287841041025,"517":0.07217213728474386,"518":-0.04803979971670146,"519":-0.0859379256096543,"520":0.05318629069452339,"521":-0.1672929672359207,"522":0.06353364850413773,"523":0.09124579397629023,"524":0.18837345775011466,"525":0.12505498154712696,"526":0.13295415711247915,"527":0.11197017230096741,"528":0.15298388588752382,"529":-0.016478845443896935,"530":0.07497369187004518,"531":-0.056102859399134654,"532":-0.2102344699925038,"533":0.18014354780934091,"534":-0.14198973033168794,"535":-0.18169824601300172,"536":0.1678941389695814,"537":0.07846632581760865,"538":-0.05825956950725298,"539":0.05411754478551177,"540":-0.09320749318787609,"541":0.032051438473717234,"542":-0.19872420718704903,"543":-0.07467946445035875,"544":0.05849158263033636,"545":0.1495634509956492,"546":0.1586821747444248,"547":-0.15688131216593124,"548":-0.1289230657736949,"549":0.20560616485165278,"550":0.04841855018783015,"551":-0.054404805531710475,"552":0.13165655530802312,"553":-0.18070879181665128,"554":-0.1419372964278751,"555":-0.17325337891997392,"556":-0.06482454110510054,"557":-0.2163506400733954,"558":-0.01693766246972126,"559":-0.15877562128141,"560":-0.015293927166153111,"561":-0.2048087339300323,"562":0.10412555064940429,"563":-0.19300484366474588,"564":0.05152957057148351,"565":0.0903821746392534,"566":0.19045476244463547,"567":0.15153927801709827,"568":0.1561276170653491,"569":-0.1388551405213715,"570":-0.05295296518213459,"571":-0.15495165482886747,"572":0.1354951019407671,"573":0.04974334795052748,"574":-0.05475002264983999,"575":0.10104855882308378,"576":0.05219198638614459,"577":-0.18889592621405102,"578":-0.018252193286466625,"579":-0.03662600008950615,"580":0.12135084688576463,"581":0.13811990081115477,"582":0.03584562292895363,"583":0.12094095667918459,"584":0.11051215162027248,"585":0.012987198872737783,"586":-0.12884511477407948,"587":0.14325907648791336,"588":0.03727817346767485,"589":-0.1565093765110797,"590":-0.13590122391552706,"591":-0.005380017931068082,"592":-0.17515149634918326,"593":0.039126432434629134,"594":-0.08834825625652253,"595":0.021491999120534035,"596":0.18031336096703224,"597":-0.1641370874799251,"598":0.04676990346486254,"599":0.15254648878306093,"600":-0.15783804694559955,"601":-0.0848663152573991,"602":-0.08708182739997418,"603":0.18021977787990096,"604":-0.15671765722733874,"605":0.039305126749826114,"606":-0.21393028651251397,"607":0.027453868249857627,"608":-0.06290685393054911,"609":-0.0408193642010026,"610":0.14360815296594517,"611":0.0624714303162273,"612":-0.16236795544875182,"613":0.19036635820068296,"614":0.09483591259352323,"615":-0.10289135194268853,"616":0.14858373333754152,"617":0.029380896884917924,"618":0.06518189858204594,"619":-0.14517403643535526,"620":0.045962498999038384,"621":0.14374585247901236,"622":-0.18295548996697902,"623":0.12652879047433052,"624":-0.15206907441001818,"625":-0.02236296356520054,"626":-0.1793046587370395,"627":-0.1910669102713089,"628":0.08530037688676424,"629":0.0979877098644648,"630":-0.02719454478660671,"631":0.12205637940003766,"632":-0.004684395017127781,"633":0.1381366034759129,"634":0.04830859413135637,"635":0.05966349869328958,"636":-0.1505454479268822,"637":-0.1529118490984895,"638":0.2055749248472088,"639":-0.17872243988945524,"640":0.03339978165948206,"641":0.1209082353320635,"642":-0.04479101706306638,"643":0.05220562053406567,"644":0.020116546972613863,"645":-0.07790157138871943,"646":-0.20791254767321488,"647":-0.13573968653946328,"648":0.11098980496758383,"649":0.03164420817580392,"650":0.01108582583497665,"651":0.0667866753467605,"652":0.16704627760281682,"653":0.09926370210865769,"654":0.1501864379339805,"655":0.1504898977645608,"656":0.005252723997225806,"657":0.1587815566155918,"658":-0.15692424144917227,"659":-0.058651720943182065,"660":0.10682058566461945,"661":0.14701045706901997,"662":0.0006011064897761555,"663":-0.1890653432784323,"664":-0.0789483318078025,"665":-0.16212538297860957,"666":-0.12692549987710944,"667":0.14725586046632533,"668":-0.06461501265334378,"669":-0.07461441345031977,"670":0.0715305249582521,"671":0.014044858584197588,"672":0.0034970533392583614,"673":0.011249792773464789,"674":0.18793456434842631,"675":0.15781882950599707,"676":-0.14327448798302736,"677":0.18080902193580786,"678":-0.03361832755013327,"679":-0.14450431033071093,"680":0.13723777237829643,"681":0.11510420561910835,"682":-0.08549151973602225,"683":0.15956860344502447,"684":0.15924206374780217,"685":0.16953486884079152,"686":-0.04107261227791589,"687":0.07902867646046256,"688":-0.21252237950121394,"689":0.024777320510410487,"690":0.01474654661920164,"691":-0.01139565541298367,"692":0.12039597567404514,"693":-0.08088314412572878,"694":0.02661829981987626,"695":0.10894207304313563,"696":0.08303080404876044,"697":-0.050579070091116285,"698":-0.07422847182617447,"699":0.14668548453459193,"700":-0.20875406308713637,"701":-0.1831532500679101,"702":-0.05401753123071791,"703":0.04871499390637468,"704":0.03140994086295776,"705":-0.1965090973940046,"706":0.011544778089160317,"707":0.13104268732474397,"708":-0.11715496607770617,"709":-0.006907691836729124,"710":-0.028001331466421347,"711":0.11331659331491102,"712":-0.18965838035482188,"713":0.06763557281883467,"714":-0.1814632507302521,"715":-0.07162731242925188,"716":0.06263692159962844,"717":0.06463746675409444,"718":0.12342536172518366,"719":-0.18488717633375681,"720":-0.20265290815265877,"721":-0.1582082633833398,"722":0.15352109099125694,"723":-0.0033958794890385996,"724":0.004437778596175561,"725":0.014030764355787333,"726":0.038165330848096084,"727":-0.010160044556526577,"728":-0.12892480707641818,"729":-0.04571787983597929,"730":-0.14993826948307024,"731":0.18437108266609392,"732":-0.05214722985350042,"733":-0.116639328782066,"734":-0.0817527567483407,"735":0.045826568083244375,"736":-0.1323057926692539,"737":-0.0003671951697974465,"738":-0.10741457302895983,"739":-0.12180116312856282,"740":-0.20481122274994185,"741":-0.061808767082422555,"742":0.0019591500630829124,"743":0.11560524658510204,"744":0.10628373987445387,"745":-0.14265339927605714,"746":0.17660557446282957,"747":-0.04396581791519955,"748":0.0834683069724142,"749":-0.004888244382845217,"750":0.071305482396188,"751":-0.007754388882333394,"752":0.04928246970248709,"753":-0.05518453677905269,"754":0.1757360670046546,"755":0.09177544895989975,"756":0.1939389859944652,"757":0.029439000398751015,"758":-0.006272332897822246,"759":-0.015911024699542795,"760":0.1622273030414461,"761":-0.16322291371466768,"762":-0.11279081531899911,"763":-0.10627407640107428,"764":-0.15737444150446694,"765":-0.17019231251411204,"766":-0.006954832866367576,"767":-0.06284596680679591,"768":-0.019183553484231394,"769":0.0421268768898505,"770":-0.19802913941063863,"771":-0.05945059131365985,"772":0.11162160484964474,"773":-0.16485181299127416,"774":-0.12829955293459952,"775":0.013656973634494859,"776":-0.17913644485732366,"777":-0.02311422885902478,"778":0.09907662043103325,"779":-0.06132556774993111,"780":0.06255349243318063,"781":-0.056589258116095505,"782":0.13350491119714247,"783":-0.16406043028460013,"784":0.1099651327943239,"785":0.018466625193969535,"786":0.07903865287925331,"787":-0.026743760822595383,"788":0.09651985867398152,"789":0.12047285163643612,"790":0.031387913129458864,"791":0.056441405069734864,"792":-0.10461265140226798,"793":-0.1127032321827258,"794":0.14840986425375507,"795":-0.030684019955958257,"796":0.18671957419478333,"797":0.005879687634145784,"798":-0.006808442867092149,"799":-0.051028210403120465,"800":-0.04894857798906095,"801":-0.0742669100739083,"802":0.016502726133067917,"803":-0.08736261087535024,"804":-0.03476409887263385,"805":0.07460480522637837,"806":0.03887878535884901,"807":0.11548606413891593,"808":0.035990658131739885,"809":0.08707424673475553,"810":-0.08519869040364507,"811":-0.18802562887372548,"812":0.04156128214839522,"813":-0.18824566740593973,"814":-0.04117495020147358,"815":-0.1544488918678456,"816":-0.07676964521352256,"817":-0.005996260548754402,"818":-0.03337028691949807,"819":-0.11680918862788399,"820":-0.1778643481211722,"821":0.1418432447362195,"822":0.10447068862706008,"823":-0.21295534573142422,"824":0.10287552685251475,"825":-0.028168591687638987,"826":0.09592446286870618,"827":0.11053010043552551,"828":-0.18086832516218884,"829":-0.0026113598016956974,"830":0.026011864552677438,"831":-0.03004092720653635,"832":-0.09757867637296061,"833":-0.17602239898337538,"834":0.1262062438583666,"835":0.18982220545064019,"836":0.16014627156419162,"837":-0.044350972398645654,"838":0.17744189812540645,"839":0.10937385771411832,"840":-0.1640282686017301,"841":-0.11257469631788551,"842":0.01539183639142838,"843":-0.10598973031148186,"844":0.16395109707066766,"845":0.019590299439902703,"846":-0.015719332124082264,"847":0.02765918727758246,"848":-0.12327146779404687,"849":-0.00021511315596355336,"850":0.1110872627478683,"851":0.10325478412038921,"852":0.023640886647888493,"853":0.163068294552624,"854":0.09262609834433985,"855":-0.09123811085961978,"856":0.08807338920083173,"857":0.11170377871907947,"858":0.17967036936373684,"859":-0.14558369744270788,"860":0.09537079865088163,"861":0.17031329117121857,"862":0.1335217988319227,"863":0.0816554990136393,"864":-0.1121507156023914,"865":-0.010842499770066339,"866":0.0671680734919732,"867":-0.11753346111795634,"868":-0.15595299873795274,"869":0.16724234745363664,"870":-0.2029586897390381,"871":-0.044083527964312606,"872":0.15893154334650336,"873":0.18366546497363345,"874":-0.0006242023020696936,"875":0.15816162385220617,"876":-0.1920916891830046,"877":-0.10882758322643482,"878":0.021357702986404662,"879":0.053765032985810784,"880":0.08221078266720055,"881":0.1758912146021044,"882":-0.02989957500526111,"883":-0.08740248288993799,"884":0.14819493751123197,"885":0.06979778943994912,"886":-0.10725509949795746,"887":-0.027568709565505143,"888":-0.18736072287939048,"889":-0.11357011554389664,"890":-0.16555551343066938,"891":-0.18597419306525823,"892":0.030486975846926403,"893":-0.10870215283902637,"894":0.13515112448618877,"895":-0.1513635532780334,"896":0.19335174996016938,"897":-0.1627587321321004,"898":0.07243235509504052,"899":-0.014561923836488916,"900":0.01299819414864762,"901":-0.08254265818027932,"902":-0.17153430140314274,"903":0.10686630263852429,"904":0.03554520312592411,"905":0.12658624961302561,"906":0.0871134356805603,"907":-0.07938146340325115,"908":0.0365989078952526,"909":0.038738435968756944,"910":0.03945350114326157,"911":-0.10473097842294996,"912":-0.1858541183854064,"913":0.018793179500261194,"914":-0.06755288912850528,"915":-0.13069574886519708,"916":0.10667518068824636,"917":-0.015586693432941078,"918":0.1507683778239739,"919":-0.1679228283547714,"920":0.1228514863309844,"921":0.0037785876655743625,"922":0.09766065842706709,"923":-0.03561132897480002,"924":0.04947735270968963,"925":0.10537868854996918,"926":0.10093974145053222,"927":-0.1989157504225121,"928":-0.107733427781411,"929":-0.1700918249922569,"930":-0.03688632560061692,"931":0.17294910887794288,"932":0.1780028942079596,"933":0.18415859879267452,"934":0.09688980770134771,"935":0.14503328418565642,"936":0.06599505131440404,"937":-0.08000524617863923,"938":0.06411010997589157,"939":0.13668398555222955,"940":0.10930477069881679,"941":0.0815579817381857,"942":-0.1576542305359345,"943":0.07835835393435835,"944":0.10687904412512508,"945":-0.08136173440797033,"946":-0.13620113853118268,"947":-0.15211647676290802,"948":-0.16366601272455863,"949":-0.1518266886949671,"950":-0.13636050787147724,"951":0.020868043065735482,"952":-0.1689697653439512,"953":0.1165410283486465,"954":0.10126105099326399,"955":0.1906991489717915,"956":0.0721659674766798,"957":0.03831751663411391,"958":0.07456582849595664,"959":-0.10790354844277973,"960":0.018107861671010327,"961":-0.047386303688593305,"962":-0.055753407641468467,"963":-0.12228065501929428,"964":-0.1463317346951345,"965":0.025301184326854277,"966":0.11216029087942975,"967":0.11149806265647298,"968":-0.1593710707231981,"969":-0.07549881949073203,"970":-0.1496935287538408,"971":-0.16544614619584075,"972":-0.057754162334308204,"973":-0.18021068382249872,"974":-0.05929476127304483,"975":-0.17742582231071036,"976":-0.022752852856399858,"977":-0.15612963313222752,"978":-0.038066443026793635,"979":0.08956081280946945,"980":-0.1961739666173545,"981":-0.2041190824378495,"982":0.13563810074033153,"983":0.03241832913111169,"984":0.11121380846049142,"985":0.17452295555089775,"986":0.06736012769338705,"987":0.10799550307296055,"988":-0.14278858856350848,"989":-0.09034131414852525,"990":0.12337325596695922,"991":-0.018166315799582333,"992":0.09720904458553699,"993":-0.12137653922547313,"994":0.08004400054060788,"995":0.12306298782997305,"996":0.10664626576638203,"997":-0.03203955562480966,"998":-0.07715524273568908,"999":-0.10675152652729669,"1000":0.1616894252456932,"1001":0.03055957364101746,"1002":-0.21808662003632873,"1003":0.06444233147124778,"1004":0.08110560560911591,"1005":0.04572283101614294,"1006":0.1690904423815226,"1007":0.01058661186974103,"1008":-0.16504046904104896,"1009":-0.037511755346371065,"1010":0.1059540907085897,"1011":-0.07247182871897548,"1012":0.11686740952354416,"1013":-0.04587180015479051,"1014":0.028799501902957523,"1015":-0.15078028709559493,"1016":-0.10258468775457788,"1017":0.016611548167470937,"1018":0.00036460617197303614,"1019":0.05083707768511734,"1020":-0.06993889397435293,"1021":-0.07826902220671854,"1022":0.03312957227091546,"1023":-0.007830893759370114,"1024":-0.02043928243255415,"1025":0.18780706025531582,"1026":-0.16098461620178614,"1027":0.1280819707152115,"1028":-0.13668349814367703,"1029":-0.05255480514128026,"1030":0.1756875090742558,"1031":0.17014930867706768,"1032":-0.009927559199334524,"1033":0.06868622981405698,"1034":-0.0801346061732675,"1035":-0.030554695100873733,"1036":-0.0925474889460603,"1037":-0.12788612879476424,"1038":-0.19996710491166028,"1039":0.1611154036794567,"1040":0.11278679103009322,"1041":-0.16065085743142185,"1042":-0.10786243915028063,"1043":-0.165103566319337,"1044":-0.011470636039683381,"1045":0.0019194522476915017,"1046":0.03952505970842406,"1047":-0.10260032604547539,"1048":0.06878681661126301,"1049":0.07459647182380279,"1050":-0.13002374395371216,"1051":0.06196783212846279,"1052":0.04408554524569656,"1053":0.10632311612421995,"1054":0.10351870036785456,"1055":0.07663665292062004,"1056":-0.20306623050080086,"1057":0.020584477339060617,"1058":0.06465265893279,"1059":-0.051839253474653825,"1060":0.19295226321641143,"1061":-0.0072810020532555805,"1062":0.09330342052037756,"1063":-0.18805994208860383,"1064":-0.00406854337664019,"1065":0.03853537985612032,"1066":0.17417937394444943,"1067":-0.023486838730088774,"1068":0.010963221712416302,"1069":-0.20120887939166304,"1070":-0.11373830585522825,"1071":0.14455378727230264,"1072":-0.09466363734585889,"1073":-0.14666844721796501,"1074":-0.1725423667887414,"1075":0.010181436020869045,"1076":-0.13921871090668386,"1077":0.12438952913575439,"1078":0.17733055057424413,"1079":0.040676883434461145,"1080":-0.08378007546476353,"1081":0.13064958140230232,"1082":-0.026581897770605177,"1083":-0.18546410758492674,"1084":-0.06413390027961871,"1085":0.20016223832846938,"1086":0.1819328937367591,"1087":-0.08481149449371331,"1088":0.11504730947190148,"1089":-0.0932502941126525,"1090":0.1614853833505879,"1091":-0.14433601103578772,"1092":0.12171650120360569,"1093":-0.004264966938574755,"1094":0.11406762616770035,"1095":-0.09202933011307607,"1096":0.11734849309543409,"1097":-0.1409736536029573,"1098":-0.035832404486085885,"1099":-0.04076690378818863,"1100":0.1677988368261436,"1101":-0.11144481041640918,"1102":0.047205866414408354,"1103":0.025886728238766487,"1104":0.011399676778363857,"1105":-0.09598858718740674,"1106":0.08302378902458406,"1107":-0.08555731958983177,"1108":0.03466797673330518,"1109":0.15789408775085637,"1110":0.12929867273584675,"1111":-0.022303837179516516,"1112":-0.14365279190273023,"1113":-0.061281488689986625,"1114":-0.01597048101665642,"1115":0.02691694773708325,"1116":-0.1204618955125907,"1117":-0.20663719622965682,"1118":0.08454799629518779,"1119":0.16064571325985222,"1120":0.026860536611457327,"1121":0.13565555342185354,"1122":-0.15549564252262058,"1123":-0.023364961987880524,"1124":0.08751328546813461,"1125":0.1184948269090148,"1126":-0.1379049929607501,"1127":0.11796096479657019,"1128":0.10680709699353252,"1129":-0.17596126638852538,"1130":0.17988468496422538,"1131":0.06346980573973389,"1132":0.12664015664592562,"1133":-0.015103938841140386,"1134":-0.08173162458278962,"1135":0.10039410648420374,"1136":0.08078567202746932,"1137":-0.20436176509197443,"1138":0.0337665917935172,"1139":-0.16425180296524566,"1140":0.16422570371990006,"1141":0.05668741144011834,"1142":-0.07159906212753642,"1143":-0.09138128018746353,"1144":-0.07058907464799268,"1145":0.06201479534816664,"1146":-0.18465284057073467,"1147":-0.02243276031026626,"1148":-0.0005752530719858838,"1149":0.09437214660186481,"1150":0.0840815859425688,"1151":0.1135085720622017,"1152":-0.006613311294934019,"1153":0.127722962215914,"1154":0.15093131128774664,"1155":-0.12403827901345,"1156":-0.20554136818971894,"1157":0.11575256089237117,"1158":-0.23061071060830005,"1159":-0.09049455927318505,"1160":-0.16612575571313667,"1161":-0.06071685477426581,"1162":0.014283062491947565,"1163":-0.02028462720462709,"1164":0.14860410221848377,"1165":-0.15898683923670026,"1166":-0.19590199303716782,"1167":0.12920748439709903,"1168":0.11483722823819481,"1169":0.17954893360379393,"1170":-0.11382788418910757,"1171":-0.16005152174257442,"1172":-0.10396237765010809,"1173":-0.12738850397149803,"1174":-0.01574658697614203,"1175":-0.10945340279118176}},"2":{"bias":-1.102137120013989,"weights":{"0":-0.1094237030825362,"1":-0.2728157754382725,"2":0.13805735370025707,"3":-0.3735893521650186,"4":-0.3422354342094317,"5":-0.2814172948023964,"6":-0.6062147184568208,"7":-0.1291743827653887,"8":0.10141058795626363,"9":0.4805259065993657,"10":0.5693230200974625,"11":0.13502207107551498,"12":0.04683911050915778,"13":0.04943993669252907,"14":-0.1536223353728394,"15":0.08258959058924308,"16":-0.5078870820163746,"17":-0.033023113151396624,"18":-0.3488599140143462,"19":-0.056569567928421,"20":-0.3297631022327858,"21":-0.3854108581535535,"22":0.10989358100056638,"23":0.07393194613257975,"24":-0.30370595077344614,"25":-0.3124360292452278,"26":-0.19849868934037526,"27":0.4099210207168484,"28":0.5890084555566273,"29":0.1625045202977308,"30":0.05493655242014477,"31":-0.1889138981924,"32":0.1629567541216292,"33":-0.13014705261514592,"34":-0.06073664987340001,"35":-0.26590636872715556,"36":0.042659389350074496,"37":-0.20988969517753922,"38":-0.3994770040605168,"39":-0.01836186384932835,"40":0.12014912282000627,"41":0.546293037964956,"42":-0.06257923576413,"43":-0.027380224024352615,"44":-0.05545157352371767,"45":0.16351966922583483,"46":0.4455842400268285,"47":0.24939073903216563,"48":0.03978556972317625,"49":-0.04436741992335372,"50":0.0009565737847665669,"51":-0.22898383668451724,"52":-0.40641146791566773,"53":-0.08273556408803454,"54":-0.16419887140108572,"55":-0.1548389392547642,"56":-0.06330018324057031,"57":-0.3787021796457419,"58":0.015368286635047069,"59":-0.33104132899113864,"60":-0.07248022838186063,"61":-0.13405494079927732,"62":-0.174988815517647,"63":0.018555438872591264,"64":0.2410746098937095,"65":0.2980975134424609,"66":-0.13514518979485254,"67":0.025906152558370248,"68":0.08532542364259753,"69":0.20320443190261714,"70":-0.15622376455887121,"71":-0.028545765059730194,"72":-0.03737522985389251,"73":-0.03752587270093598,"74":0.12768048689706604,"75":0.012614660672026818,"76":-0.21484667572095606,"77":0.03379231040125828,"78":0.06330177433065019,"79":-0.31300107379196046,"80":-0.2739615963954881,"81":-0.35433806403146545,"82":0.009618109305876333,"83":0.05688150646637311,"84":-0.06086940513336994,"85":0.047643868634597596,"86":0.17421144810086833,"87":0.05096357525313544,"88":-0.2572388951408584,"89":-0.19861489432667734,"90":-0.24349054182343965,"91":-0.24257013923424126,"92":-0.03892575983775003,"93":0.1768141046773545,"94":-0.0640954170686017,"95":-0.271337033641968,"96":-0.006609976319549216,"97":-0.15004259957678678,"98":-0.26148329080888844,"99":-0.1530493611607246,"100":0.16069583615015195,"101":-0.04401223943435965,"102":0.07891660090988921,"103":-0.22434609137156958,"104":-0.27399074273162194,"105":-0.01380552609713695,"106":0.06266955248848485,"107":0.05008083355461771,"108":-0.15849748286191112,"109":-0.19626850790233216,"110":-0.1988453256075117,"111":0.23412355350899777,"112":-0.14615733339157602,"113":-0.2674986974482682,"114":-0.3319800878213969,"115":0.2571291849938831,"116":0.2432734489453077,"117":-0.13340015364439048,"118":-0.15791642280679438,"119":-0.15699034993773325,"120":-0.23339510401795288,"121":-0.47011462180836294,"122":-0.23615310497500192,"123":-0.31587765463129713,"124":0.048995084742101104,"125":-0.22015967738982795,"126":-0.3342911297057377,"127":-0.04422956050400307,"128":0.5692712571698282,"129":0.18756462188739131,"130":0.0727365605277423,"131":-0.18016465953713737,"132":-0.030344677302257168,"133":0.013318597615804641,"134":0.4228649122071186,"135":-0.06971114762070281,"136":-0.18910519724291583,"137":-0.12066768096687132,"138":-0.2776096549294259,"139":0.4593233645080734,"140":0.35322636401114715,"141":-0.3482894840385635,"142":-0.257690179445774,"143":-0.36021530007900937,"144":-0.3143627940473202,"145":0.012313090302278467,"146":0.3057374791879504,"147":0.3298877888196571,"148":-0.18006765181434592,"149":-0.24632040685415668,"150":-0.15389484816250285,"151":-0.21975412679575906,"152":-0.669997856448762,"153":-0.08355954561861827,"154":-0.3260713700108251,"155":0.541152143009971,"156":-0.13844404065888893,"157":0.4383014819569604,"158":0.2773339814817191,"159":-0.4049350833456533,"160":-0.3335476825641471,"161":-0.1460031300240237,"162":0.013836931725886629,"163":-0.32671369974584147,"164":-0.5268925502541038,"165":-0.4760657484062796,"166":-0.030048773314071416,"167":0.1916930908518059,"168":0.14567288356513508,"169":0.24774381324573172,"170":-0.017488802218354745,"171":0.08938273185359745,"172":-0.31296073072027386,"173":-0.13671828385627835,"174":0.014855518984150334,"175":-0.06417978983526419,"176":-0.377812091201142,"177":0.019283629516762026,"178":0.20134217602003424,"179":0.6238640881458437,"180":-0.5205806113347637,"181":-0.008225597402881207,"182":0.12896382671287884,"183":0.04670399259899959,"184":-0.3075156616817704,"185":0.10620742768461787,"186":0.0045461161914656795,"187":0.11149062074122847,"188":-0.20524222336448456,"189":-0.3012377504239774,"190":-0.17517205538531255,"191":0.2577870633424274,"192":0.21898188874390245,"193":-0.1566410703739592,"194":-0.43724088011449636,"195":-0.03191080411242558,"196":0.2541275382405695,"197":0.6589314371973818,"198":0.03553773234346031,"199":-0.32252697996148616,"200":-0.020232266926501142,"201":-0.07034854153062252,"202":0.6421279910792846,"203":0.2870202583147386,"204":0.06688896632253695,"205":0.07363261661093255,"206":-0.12110506397082761,"207":-0.2780601751258627,"208":-0.035439030359220074,"209":0.016905770749865313,"210":-0.29497318780812226,"211":-0.1924536640925202,"212":0.10545162756489901,"213":-0.17800415901457461,"214":-0.13372986421134578,"215":0.12362063857457077,"216":0.10439879582309133,"217":-0.029956289710230333,"218":-0.15974536517088936,"219":0.012304567143294615,"220":0.7741833564191432,"221":0.5156581998911914,"222":-0.20923169365721397,"223":-0.1732241717657926,"224":0.041011996985093925,"225":0.13936686023553196,"226":-0.304476424465255,"227":-0.03621486958711147,"228":-0.011429775560457904,"229":-0.21060469202116727,"230":0.038733763465592284,"231":-0.22387977732550735,"232":-0.16855172604257385,"233":0.11380200158698574,"234":-0.1395292679629484,"235":0.13467009096919114,"236":-0.3711466570709132,"237":0.1614567963572273,"238":0.06696882778318597,"239":0.1866041375696512,"240":-0.08218827591318875,"241":-0.21530449039912603,"242":-0.01379370378374978,"243":0.10168696574431409,"244":-0.017998725327254935,"245":-0.29252474632935094,"246":-0.1317315275054579,"247":-0.3491056478337572,"248":-0.20372029792939025,"249":0.2909261062564448,"250":-0.13620880544408245,"251":-0.23125831071688688,"252":-0.13187791773230045,"253":0.09830470491211249,"254":-0.1275021484035825,"255":0.03489347703154177,"256":0.05178925546974655,"257":-0.005536337882482091,"258":-0.15308386426063814,"259":-0.2650873213341298,"260":-0.08409723751513029,"261":0.20964180619902575,"262":0.11531428668502036,"263":0.3036595811454132,"264":-0.07819489394641681,"265":-0.16179153472795324,"266":-0.12176620637515227,"267":0.3498530412723782,"268":-0.10560731209325788,"269":-0.39878349258693857,"270":-0.2863416264154167,"271":0.5094947086734697,"272":0.5447322706679772,"273":0.15609708758055474,"274":0.05352269393382782,"275":-0.24231759846809667,"276":0.054640398738198946,"277":0.06184209644589778,"278":0.006319133713819643,"279":0.3624160756669891,"280":-0.15607540520641985,"281":0.031179863186021683,"282":-0.05340183319652563,"283":-0.21891381778025493,"284":-0.17431974278515486,"285":-0.3292332730415839,"286":0.20549191490066054,"287":-0.05204868195938755,"288":-0.29340566085619013,"289":0.480286892298923,"290":0.44736506065328263,"291":0.02014989943899197,"292":0.08968233158951827,"293":-0.04096084813175395,"294":-0.19932224363643802,"295":0.859694630980705,"296":0.48281952780905607,"297":-0.4854092750362436,"298":-0.3673315560981089,"299":-0.08828881352372585,"300":-0.14372894778007417,"301":0.08848178327457668,"302":0.024470378827730236,"303":-0.19916488826906986,"304":-0.13962685228001503,"305":-0.12263454835539261,"306":0.0775311106174041,"307":0.2583104852192762,"308":-0.3985350374479658,"309":-0.4084683492162822,"310":-0.011150874265648694,"311":-0.09884780105640147,"312":-0.0681283863086982,"313":0.6167764839569575,"314":0.3315701979277697,"315":-0.19469630113521227,"316":-0.4069727020380039,"317":-0.2645967795062581,"318":0.23961386602900606,"319":-0.03557282473438856,"320":-0.27421782501703196,"321":-0.19983285340459966,"322":-0.1383195835396952,"323":0.3155576797399002,"324":0.14470094584051552,"325":-0.008948200297170554,"326":-0.08085238194400751,"327":-0.32250505472082563,"328":-0.22310465486637188,"329":-0.013504411848143742,"330":-0.16481668107365993,"331":-0.1762819921458863,"332":-0.28287137680303215,"333":-0.04872200586719044,"334":0.06373655707178708,"335":-0.001991583020921497,"336":0.04888161965316503,"337":0.4112901846081054,"338":-0.06030790258782232,"339":-0.08501974937972774,"340":-0.26414828222171793,"341":0.1754576030809748,"342":0.38977606681028176,"343":0.21089625609163737,"344":0.09868606704592173,"345":-0.16548819741730575,"346":0.12532160488572514,"347":0.24176054415740134,"348":-0.3400993681834046,"349":0.47336784774085183,"350":-0.007743710835477607,"351":-0.06396019129632462,"352":-0.16773741377174972,"353":0.04753523878587553,"354":-0.07144485351375458,"355":0.14217979649347307,"356":0.037730565385101625,"357":-0.07594829306536896,"358":-0.12907938424203538,"359":0.2506990700174052,"360":0.1798971984124313,"361":-0.02038686125192496,"362":0.10910297736214107,"363":-0.10794852102243,"364":-0.1335955033734916,"365":0.31251969858052014,"366":-0.006803740147274489,"367":-0.052988325359848806,"368":0.11603788076121824,"369":-0.09950296129157393,"370":0.04882369497873007,"371":0.2082434726258096,"372":0.28584197538793316,"373":0.07142401028426673,"374":0.1487222864067683,"375":-0.3307132878537624,"376":-0.4857987246945936,"377":0.1473524150932699,"378":0.1695093421770576,"379":0.03128803140381532,"380":-0.08094611783142656,"381":0.09739505498914838,"382":-0.03263163503888212,"383":-0.03509541889174131,"384":0.11197415764684814,"385":0.00900661259712838,"386":-0.07294390943938396,"387":0.04215992161187883,"388":0.21283414526990316,"389":0.31836876727744334,"390":-0.02631260184710628,"391":0.21186680157224475,"392":0.15209047435563708,"393":0.10957160401645342,"394":-0.15719217106015235,"395":0.0794278768247536,"396":0.1119117695380465,"397":0.006412349302214155,"398":0.2388487878792831,"399":0.15754519087420027,"400":-0.14684266028793055,"401":-0.2141042344749529,"402":0.23156225901023733,"403":0.12311279263068065,"404":0.006839758870355762,"405":-0.15755878220727793,"406":0.32463993845708317,"407":0.16768968060380887,"408":0.08560794966220998,"409":0.06287574849044085,"410":-0.10499729555860797,"411":0.195842876345175,"412":-0.10113287719008643,"413":-0.10479175234691848,"414":-0.19024642386601806,"415":-0.25033156253708677,"416":0.0458635382883319,"417":0.37236073162069033,"418":-0.2877851401303443,"419":0.062363401852307626,"420":0.20595125616170595,"421":0.2928564438116263,"422":0.08658540563959644,"423":0.010892962497493348,"424":0.059012325922381516,"425":0.019912960206433464,"426":0.3004936422134688,"427":0.07502817185108661,"428":0.050479680927942375,"429":-0.15612162678291125,"430":-0.1556481339294656,"431":0.274873624936844,"432":0.17706854043542894,"433":-0.034433228270510895,"434":-0.022673673407721747,"435":0.2844701147927161,"436":-0.07381612424888653,"437":0.17503355274512744,"438":0.10393679627778513,"439":0.21043972148556175,"440":0.06798872649832441,"441":-0.22608915188771603,"442":-0.12745725381828343,"443":0.053691109694864896,"444":0.0345078761553694,"445":0.20677748221017486,"446":0.36329581216651846,"447":-0.07372522663255039,"448":0.056293776193871777,"449":0.33271394721411895,"450":-0.18049045576540348,"451":-0.21086380377166836,"452":0.05047925784089431,"453":0.18095404404139728,"454":0.11922951469716879,"455":-0.09153187091520788,"456":0.0685534799649719,"457":-0.006162175411990837,"458":0.23772712259763581,"459":0.13685543397619168,"460":0.09573584433090973,"461":0.23445927939162578,"462":0.29158362069936306,"463":0.2022455874488969,"464":0.03494562272600067,"465":-0.1939011641813299,"466":-0.020627827702270816,"467":0.17691561852796608,"468":0.08815354405354,"469":0.0490140628740239,"470":0.2012776553612675,"471":0.04871913032072453,"472":0.37600515572713095,"473":0.05601484338544717,"474":0.2629942778792133,"475":-0.11926460136769576,"476":-0.16869346624809597,"477":-0.5343912388984318,"478":0.06737407497439747,"479":0.18332750072582363,"480":0.177900425325191,"481":0.10489302831615784,"482":-0.0720943421188697,"483":0.07927366256330487,"484":0.1347206921032864,"485":0.33446139533369273,"486":-0.01002055038656036,"487":-0.04458211796737034,"488":-0.03410019435740495,"489":-0.14128117554179428,"490":0.09692233257732737,"491":0.36575448945310457,"492":0.13564015321645226,"493":0.1252752579287671,"494":-0.3012935556422783,"495":-0.10687822467612695,"496":0.19947969901451,"497":0.31780860128204647,"498":-0.30584923089099125,"499":-0.1262076755283835,"500":-0.3101610857938489,"501":-0.24317677107225444,"502":-0.07196390656351312,"503":0.5084706251767931,"504":0.20774363296684928,"505":0.4240419785688548,"506":-0.1854392547717267,"507":-0.07332761533973613,"508":-0.15851560107653778,"509":-0.016224491137118834,"510":0.07292917699447263,"511":0.1418184074822662,"512":0.13128245263150537,"513":-0.016840115466351495,"514":-0.18817836320497394,"515":0.25361018154399767,"516":-0.13964524295720643,"517":0.16890939446870284,"518":-0.0020575769992251763,"519":-0.10459969665606944,"520":-0.27558276867764214,"521":-0.01130766718678126,"522":0.08783052050153942,"523":0.06363022801755784,"524":-0.13000230982215777,"525":-0.1695784949072383,"526":-0.011769639383419689,"527":-0.053678984519872165,"528":0.05934391900002361,"529":0.3042180053402169,"530":-0.11361342639792125,"531":-0.18728036149128988,"532":-0.21282544757628366,"533":0.20309589115520518,"534":0.16611871690996954,"535":0.13051768974599706,"536":0.11257843704371935,"537":0.273668848627105,"538":0.17957650437667708,"539":0.04542427674543597,"540":0.0026441152335972547,"541":0.02692439371810648,"542":-0.04292721154356175,"543":-0.309751168735148,"544":0.05990131601372464,"545":0.06280705844101997,"546":0.1764417032807905,"547":-0.06895132915320175,"548":0.09119931896772462,"549":0.0997282059691456,"550":0.3310163234581749,"551":-0.025292900189101308,"552":-0.1020176703841945,"553":0.02465830088021794,"554":0.08425240860306127,"555":0.06966399850251105,"556":0.13924732770182313,"557":0.06333996434157406,"558":0.09274977925824181,"559":0.10077850816098564,"560":0.25713300976477604,"561":0.05842332904126257,"562":0.29881013552700025,"563":0.17930779976648106,"564":-0.20758250608701892,"565":0.15829446549210602,"566":0.2018652782706559,"567":0.12248160198068261,"568":-0.030862595499959365,"569":-0.15741204142249837,"570":0.06610112086457676,"571":0.18798410695175294,"572":0.08862316787918938,"573":-0.014946169669632152,"574":0.2856125713823411,"575":0.08787598510993976,"576":0.2232769815343035,"577":0.2028505581152223,"578":0.05563013989770131,"579":-0.2052888991913162,"580":0.013512651634406818,"581":0.08673045785132472,"582":0.14418946378158848,"583":0.14185985806215698,"584":0.19893116381592035,"585":-0.07762475262103787,"586":-0.10376673229820327,"587":-0.14165234403709218,"588":0.393535228397439,"589":0.31678256799727456,"590":-0.19616859368276449,"591":-0.14400806965089769,"592":0.17078511145985392,"593":0.04973659706637109,"594":0.12580184225714874,"595":0.08727424529856187,"596":-0.02066702150239324,"597":0.04683444343073082,"598":0.12118360194563661,"599":0.04350217776295811,"600":0.12228294742106964,"601":0.1533505463729048,"602":0.08871117594478571,"603":-0.0049088751354143,"604":0.0013461659851083624,"605":0.32227862818163033,"606":-0.3830042223405087,"607":0.032959110825443595,"608":0.1290645366921696,"609":0.0649537669627244,"610":0.04150118939335128,"611":-0.12127426311390252,"612":0.011406026253726081,"613":0.41042910925865,"614":0.1654366179205127,"615":-0.046007174081823324,"616":-0.1158581917139583,"617":-0.009181365638553752,"618":-0.16436934286792462,"619":-0.07498913465530996,"620":0.06546493183662852,"621":-0.08899934456372052,"622":0.040072510272830736,"623":-0.10649068269086458,"624":0.023322643596188335,"625":-0.14759175206556432,"626":0.0023481884752814598,"627":0.19022558636946668,"628":0.09251692095205365,"629":0.0500677440420843,"630":0.10915577109790248,"631":0.14258598752563756,"632":-0.5063319118722629,"633":-0.3474710665205866,"634":-0.14384187255131128,"635":0.010376145992482386,"636":0.2052389725459784,"637":0.11596342862017539,"638":0.4872025666906611,"639":0.21904844230748802,"640":0.31991030054268116,"641":0.06606318776559168,"642":-0.10803626520965721,"643":0.14416102223511573,"644":0.027803118258689915,"645":-0.4863270381722197,"646":-0.06963384980544511,"647":0.1015595460887243,"648":0.10799516593134502,"649":0.031352419850304895,"650":-0.2695906279747635,"651":-0.23130147544844068,"652":0.2535935105086327,"653":0.34067350772037513,"654":-0.010512691607496894,"655":0.06771662527079571,"656":-0.08745900926868524,"657":-0.19173029865413307,"658":-0.1810707853676262,"659":0.6042566117359154,"660":0.06320339161569706,"661":0.07986762031258969,"662":0.11931272680246834,"663":-0.07807895536238031,"664":0.19223998952051427,"665":-0.10574602735633613,"666":-0.19210777432504386,"667":-0.05697445745034517,"668":-0.3860467199799566,"669":-0.4912164362196479,"670":-0.21202625178356652,"671":0.1239061120996778,"672":-0.10285578382172988,"673":0.49773699388894205,"674":0.049662755975740804,"675":-0.33750394199609524,"676":-0.19215868833270977,"677":-0.14646517868759987,"678":0.01860632703961753,"679":0.15179544134318915,"680":0.019341824565021974,"681":0.05874844079026803,"682":-0.042594789381218794,"683":0.08620826775359595,"684":-0.0951341968231953,"685":0.28726860046646796,"686":-0.11891104082761568,"687":0.09453247028063698,"688":-0.01677826025666881,"689":-0.046326285225110585,"690":0.05558659226610142,"691":-0.02902033153210674,"692":0.05341371259426322,"693":0.05718550702971799,"694":-0.05851745386060024,"695":0.10993014594693684,"696":-0.16130794513847657,"697":-0.0006063732558335653,"698":-0.15014278943606726,"699":-0.1080187814974322,"700":-0.3169211102178161,"701":0.05968324640017943,"702":0.09437483052744505,"703":-0.012730033040379455,"704":0.1667915203304524,"705":0.3406239093056418,"706":0.27309169682410106,"707":-0.009333599350204428,"708":-0.13504218896733095,"709":-0.12124229141417484,"710":-0.2356909283473592,"711":-0.3157791103416403,"712":0.05865811549579745,"713":-0.00883108855682519,"714":-0.13783953709280403,"715":-0.05822753285413617,"716":0.04488910082214453,"717":0.13018638372118663,"718":0.2536520150821681,"719":0.09299045862337176,"720":-0.19758176982015319,"721":0.03398970229554204,"722":0.18754156606417757,"723":0.11098031906683574,"724":0.23033263012700186,"725":0.14426706241712828,"726":0.147257525771321,"727":0.27939339391296675,"728":-0.02848269475689416,"729":0.08350700612775755,"730":-0.06336456156900658,"731":0.12019184666372909,"732":-0.13967543885453923,"733":-0.1463634238290408,"734":-0.0976469247261978,"735":0.04280462846257028,"736":0.14106957842315504,"737":0.19538189190668287,"738":-0.03445461290180812,"739":-0.10983445752280699,"740":0.07704838464467346,"741":0.07764039372977433,"742":-0.056706182319156445,"743":-0.09622802842592981,"744":0.16942010456168963,"745":0.15688362074374085,"746":-0.10565929797278487,"747":0.04973439418928804,"748":0.34960746403115855,"749":0.12854413279939816,"750":0.0026150545931353853,"751":0.17897194569347222,"752":0.023022956741550523,"753":0.22470329887750734,"754":-0.004343496442370206,"755":0.18363227658210074,"756":0.27768764814647856,"757":0.07968994126306178,"758":-0.26209742835652655,"759":-0.2685986702871129,"760":0.12744995111456153,"761":-0.11107873397784152,"762":-0.22450429533700098,"763":-0.11660210264398863,"764":-0.21284434401952954,"765":-0.0028862235006451293,"766":-0.15451734035697604,"767":0.012204414830449388,"768":-0.12400602537915797,"769":0.006720024084656643,"770":0.1775531456419224,"771":0.22088211895132717,"772":0.27554807621489624,"773":0.2644665243307227,"774":0.08071339308553604,"775":-0.032873544056871075,"776":0.04111919890740929,"777":-0.06557385424392705,"778":-0.016124053062657434,"779":-0.034022018739132534,"780":0.08763851942502812,"781":0.16219324176475916,"782":0.00027539169748967967,"783":-0.1544652375236438,"784":-0.3041858972064914,"785":0.012453905654029606,"786":-0.34331289233707,"787":0.0444869575265314,"788":-0.08934555809996399,"789":0.048428583456069034,"790":-0.1761261323390962,"791":-0.23727992632749587,"792":-0.19459752327179183,"793":0.31186740079522113,"794":0.3695409257342242,"795":0.28435039687342295,"796":0.028696416087633358,"797":0.03124835586451578,"798":-0.16882919006658642,"799":-0.07277031670893154,"800":-0.1367445981301673,"801":-0.3452728094564089,"802":-0.24482583607208813,"803":0.011653723697319544,"804":-0.05556599953751762,"805":0.02645243613600902,"806":0.3995023361619536,"807":0.048884051725659905,"808":0.1769360280597251,"809":-0.26891003023499116,"810":0.10110793008777139,"811":0.14480895288004653,"812":0.009307747994427648,"813":-0.37244768891093305,"814":-0.040817449985117424,"815":-0.18201205030775355,"816":0.05969129735339738,"817":0.014514140039185164,"818":-0.02723965210295346,"819":-0.2864866203362766,"820":0.1085778995601598,"821":-0.08824495434879863,"822":-0.028472927033141956,"823":-0.1806167945639617,"824":-0.37253205373501547,"825":-0.35925759286426473,"826":-0.2779721684411384,"827":0.3546695030310085,"828":0.0788453308831496,"829":0.06846206823872449,"830":0.211748422937672,"831":-0.11201461775740965,"832":-0.04003478628074264,"833":-0.007387685926205076,"834":-0.263902199125759,"835":0.0337186530751057,"836":-0.3382347817790079,"837":-0.061999231649727184,"838":0.11968328705030898,"839":0.05685432261429338,"840":-0.2524051877056589,"841":0.012015266830222039,"842":-0.2078324965897847,"843":-0.35309049224350375,"844":-0.2088274902629571,"845":-0.13965564459000235,"846":-0.023107614471990206,"847":-0.08020082487453525,"848":0.05000596350856014,"849":-0.0709999383381893,"850":-0.15623538623809574,"851":0.2271382952765904,"852":-0.06381237917592923,"853":-0.015002311376888995,"854":0.019342994435765086,"855":0.019599756912146674,"856":-0.12996356392418376,"857":-0.19486919996464325,"858":0.2569198051821607,"859":-0.17259337862140567,"860":-0.0659665632037153,"861":0.052540144387929893,"862":0.03606974104853912,"863":0.06619777632034124,"864":-0.14949656908541942,"865":-0.11284413797089418,"866":-0.1501994685582738,"867":-0.15820629366850272,"868":-0.33150844770760574,"869":0.08185410411933255,"870":-0.09703815639554383,"871":-0.016125464105684908,"872":0.22774552982696367,"873":-0.03548745602933999,"874":0.11034994722253774,"875":0.17551159269893538,"876":-0.14441869098497065,"877":0.07529865946631946,"878":-0.38529020040553713,"879":-0.1871047660179161,"880":-0.12496623141551708,"881":0.21809921800587614,"882":-0.1686280920069268,"883":-0.06462723650030137,"884":-0.10648413990936526,"885":-0.10280860458060086,"886":0.048245985028274284,"887":0.010338681462165846,"888":0.1451695816709016,"889":0.14198317818190265,"890":-0.04797006035173021,"891":-0.06689727682991967,"892":0.27095063831010224,"893":0.2532209473866098,"894":0.07351826097024933,"895":0.1064809185822072,"896":-0.14668505192430903,"897":-0.038001046679522706,"898":0.14650947666459888,"899":-0.10261482362497343,"900":-0.030024361986409148,"901":-0.22162327198529203,"902":-0.2990370188418135,"903":0.08186358185827557,"904":0.04355775255817542,"905":-0.07990839498249834,"906":-0.1925753756897121,"907":-0.41583662617813033,"908":-0.22617997343475235,"909":0.05584139908692307,"910":0.015186695588349078,"911":0.07818787207383374,"912":-0.05874633756864894,"913":0.21238833952867314,"914":0.10515985911493061,"915":-0.19666102541265879,"916":0.07389927933732739,"917":0.23886921425945992,"918":0.08937027499042371,"919":0.20538383548130432,"920":0.13408708947866885,"921":0.04539243054805417,"922":0.039505051764501635,"923":0.11437739045152961,"924":-0.0726764325894473,"925":-0.046394222288045475,"926":-0.3400682658899968,"927":-0.17851823612737622,"928":0.1020612604431005,"929":0.05562884553830315,"930":-0.12371019973377899,"931":0.15207989693316476,"932":0.04894838535331032,"933":0.1410638383159786,"934":-0.024341192880251394,"935":0.04141333257573559,"936":0.008914073785974325,"937":0.37969744632743313,"938":0.4255537610823713,"939":0.28768447001877684,"940":-0.026643250761810486,"941":0.06166550768027662,"942":0.03403101977391345,"943":0.04469079440261316,"944":0.3130644483655533,"945":-0.11941463248822555,"946":0.09756617383687903,"947":-0.18485574980957348,"948":-0.0346542547089773,"949":-0.18822421148856175,"950":-0.10548434613543212,"951":-0.0664453758270005,"952":-0.14588187945553394,"953":-0.37296596177997027,"954":-0.2393380823665426,"955":-0.02865678850115989,"956":-0.05340201827831509,"957":0.012637286204313574,"958":-0.03618063774416007,"959":-0.2761248971884768,"960":-0.277952840923986,"961":0.13627138689379578,"962":0.26495946614462373,"963":0.137126176809219,"964":0.23166526726768674,"965":-0.057060791428283214,"966":-0.10313064308868528,"967":0.12066695109424154,"968":-0.18278755079090755,"969":-0.42390395000549724,"970":-0.004987588129316576,"971":-0.08437144051558025,"972":-0.3641117582160343,"973":-0.06376405660019695,"974":0.0906842559359749,"975":-0.03654359818067944,"976":-0.3775721381486283,"977":-0.08785360582757758,"978":-0.14253369363927365,"979":-0.15163481020967226,"980":-0.2493732566688078,"981":-0.08002375045329405,"982":-0.2311853311544163,"983":-0.23773200405735692,"984":0.1168330574649498,"985":-0.07972860831565899,"986":-0.08794196732267988,"987":-0.11121018475757691,"988":0.17800937869643865,"989":0.0204199432859042,"990":-0.4814907156617111,"991":-0.025621470491738192,"992":-0.4238146889706618,"993":-0.18365754528982864,"994":-0.18290689507804717,"995":0.041793488460801664,"996":-0.11744877853620846,"997":0.3528871229955599,"998":0.2112537750547394,"999":0.25069167700435235,"1000":-0.11461914736355218,"1001":-0.10053231312952073,"1002":-0.023837373838297333,"1003":0.012213140409628995,"1004":-0.017851567042988698,"1005":-0.08656752708370315,"1006":-0.12518518072473442,"1007":0.07218250885877718,"1008":0.002245581238209662,"1009":0.0314397544490074,"1010":-0.3262029987024225,"1011":-0.07342196592276715,"1012":-0.36701664847954213,"1013":-0.09577100543675839,"1014":-0.19729123687858885,"1015":-0.14720385039083775,"1016":-0.14410125742368102,"1017":-0.1852430194970252,"1018":-0.2103830177055225,"1019":-0.0031372461830329735,"1020":0.17634316537563358,"1021":0.08985876936278535,"1022":-0.19646267989078345,"1023":-0.24164336949299497,"1024":-0.13366724004951586,"1025":0.1494364735919622,